784,200,10,0.1,0
-0.08432191737761492,-0.03632752811526772,-0.05369156216705701,-0.015716989350272312,0.014299515252238736,0.025275430081190216,0.140595045903823,-0.014197011866411823,0.023448848196166876,-0.029146359277510324,0.1441240920923068,0.020749187460204148,-0.05194390586437937,-0.08708869618642236,0.006655904278627742,-0.050816421068593194,-0.08417157061076759,-0.07476121694791193,0.08813666676796375,-0.02151763291478842,0.004618683762024552,-0.02046882537768545,-0.14718023193358215,0.03355017526528029,-0.13017518224436161,0.03286599761323416,-0.05970097482762834,0.02364592118513699,0.043320032652584495,-0.0852686133085841,-0.07540273792137904,-0.03603154529371836,-0.06962662605875565,0.014860357112694782,-0.13090740526456576,-0.06627938197139865,-0.0719775006803867,-0.03277396923644446,-0.003667229682599779,-0.005214663809386366,-0.02789307290024369,-0.17338429505825284,-0.029847830577456637,0.09039313187233466,0.07132355453341493,-0.022196150327417827,-0.173374897355677,-0.02385887653279955,-0.1473122158294353,0.10984389062000215,-0.058985910358307074,-0.015010427719596799,-0.009186709295738237,0.08582907795272728,-0.043990225778800504,-0.03839986823583281,0.02112680653271229,-0.14093013674012708,0.0982018935202307,0.0872500554426399,-0.03513981263838241,-0.0754533330571689,-0.026744969997635912,-0.032677751898428954,0.03462767014355001,-0.026800687148093,-0.11724668107967202,0.020692078700181415,0.021140678696946233,-0.0433226863500903,-0.04246420243275264,0.028591202081205275,0.022591589078199702,0.04079111704662197,0.0695263024561729,-0.0999505297122481,0.07895229235765264,-0.06671995990544369,-0.012514872092943764,-0.0885571485455736,0.09807689645951506,0.06465611575847681,0.00918196491859415,-0.032097401936029696,-0.11901230454360379,-0.07154426446289242,0.023344266908073355,-0.022471433609585797,-0.02377502050963315,0.0022417517831559144,-0.054782283921870865,-0.0039228859982297455,0.014472330382722508,0.016284790781407314,-0.12019878236777173,-0.016976682085743617,-0.0056376636172522,-0.04683678595950198,-0.20054351509773916,0.03459000449615721,0.0362057803655581,-0.04279155801208817,-0.08325339762876838,-0.051585566848170714,0.15640684723273152,0.093229136394405,-0.10013357480112725,-0.0564332050439541,0.1475258763795081,0.07934191241458707,-0.0366581479595042,-0.17110974578719756,-0.024051617040709336,0.06895118930601705,-0.0030908841079105515,-0.007119460926974506,0.00357005135198849,-0.012374815226886517,-0.11513245360422128,-0.0071181608406142285,-0.06632055863138801,0.11068113423752017,0.11833547466040925,0.06357460770790464,-0.04815223328035883,-0.04788189096415667,-0.04436897362811225,-0.06068784710898708,-0.09382946748294374,0.00830090296826399,-0.06297587929285613,-0.01863563181373088,-0.0023085063327002975,-0.03656026671465824,-0.03707679534973128,-0.05612066517183892,-0.030303323532332525,0.012187946017556545,-0.06549608667962394,-0.009009608909424975,-0.02188659118093792,-0.06779748922006273,-0.07737136914564528,-0.03823276119164509,-0.04638596390437766,-0.10068234506472803,-0.05165062087226759,-0.04665692187582654,0.030069229756647373,0.1264407010206215,0.15095529345869482,0.10834177766788528,-0.023727264526901402,-0.1438006830774865,-0.03891572417235611,0.05820984490686385,-0.036763628948431715,-0.01834505281814464,0.036084173962437995,0.02748142782556361,-0.05479963931944604,-0.04411400942948581,-0.04283701586845207,-0.08116577001199293,-0.06155020033563597,-0.04646853917033991,-0.036148626508784795,0.1299805796991579,-0.025305968476671818,-0.12006154255568273,-0.054851565694149784,-0.07742859556967811,0.02267843370317242,-0.036175171603048215,0.04508603001828258,-0.014843957228790271,0.029957544799884515,0.005810583173583347,0.01591026576129801,0.0027870070972137112,0.03211631831548735,-0.0015396773653376745,-0.06358471007654322,-0.06346567829590861,0.026050895115299868,0.14720958368961495,0.033807373746725,0.11640310846646724,0.039318466625098095,0.020854826746802193,0.05721495533881536,5.0535240693280875e-05,0.11572263314661196,0.008416577745307482,-0.039872975192200955,0.004762147724529888,0.015507787238787402,0.018808424411157612,0.0817912737108092,0.0780832939558671,0.0657238251368835,0.08022526406227343,0.03489546650286593,0.11939515356553529,-0.005910926828618326,0.06524828562970374,0.017784451998747803,0.05023767452872954,0.04980106514073753,0.059271988218751966,-0.1546266161605938,0.12120066458508211,0.1139141356597952,0.10243458231630435,0.07583497840499329,-0.03238034774427997,-0.15410760289785477,-0.041358392541934075,-0.057769961203135885,-0.025346529385768875,-0.04401317007897167,0.007986041882263,0.07059201762041839,0.051360002986256245,-0.005515464201046662,-0.016693984485904784,-0.02428360937399974,-0.06779319630474558,0.16445399825473708,-0.0344896024010277,-0.07829406060011339,0.049901849274838275,-0.02126077404458731,-0.02874359993534205,0.002115351818473293,-0.05040154912531766,0.04337442855055973,-0.09010042997478752,-0.07251969395610539,-0.11470068417612089,-0.016631037226416994,0.16102294210931792,0.033994209603912154,0.054158454619277936,-0.05835974795692841,-0.05398205933702395,-0.15924648491474883,0.11482541335770853,0.02300682479794794,0.0318240358875075,-0.03233221363024698,-0.02902618067451411,0.0077289329098521745,-0.08353441228108922,-0.050123908749644,-0.10497558176761664,0.03174337696409076,-0.06316402344415735,-0.01996549537126625,0.06219290472912904,-0.07752119736581975,0.09992544283244817,-0.08167693319670016,-0.09180996069255842,0.042077692676777786,-0.043603116458210446,-0.04995923981388888,-0.015976252451861336,-0.07855980178187598,0.21797064585301623,0.06347496896083202,-0.01716170824687223,-0.13532048469680566,0.047351204640736035,-0.08241381166585807,0.02014962017233852,-0.005801681435907154,-0.08206152573327959,0.11109794504064384,-0.0071157600726869516,-0.01610076034601734,-0.042972670325564954,-0.15898934497082012,0.12611082937700624,-0.06602830772685692,-0.01700410225889293,-0.013971930864666795,-0.060641211697083024,0.02067801987402288,0.11293248294588447,0.04033770170850367,-0.05829186564483645,-0.08028280683933152,-0.17084827917239098,-0.044898038464505706,-0.11626597748589027,0.06876623423537925,-0.05858566993020447,-0.09016983137974781,0.047797915623754725,0.053538438203167685,-0.00695993117082581,-0.0037117913171820656,-0.06163744725189086,0.05999029141160246,-0.05031894843885847,0.08737853609472064,-0.04391956402395226,-0.01416676051877602,-0.07923051500532394,0.01449291247173417,0.08704085185683585,0.02038513616570893,0.13178894119513956,0.019904430848789994,0.09965267283193685,-0.054059508424664976,-0.07888975778377376,-0.07459054307483587,-0.09462917490196762,-0.04565966396426638,-0.10397436048898116,0.03400945558351494,0.0028126110892022324,0.017636897462682294,-0.07668533503455403,-0.07769337711178391,-0.028000761070065362,0.04686789818044951,0.016120985916904876,0.054421323523084784,0.06134253902085914,-0.09710439065204413,-0.06845838180796286,-0.18331052115998442,0.028862876979668474,-0.026695695773291353,0.0009588031329759143,0.09889359974937792,0.04322322685603662,0.0625917127620926,0.057224896693645264,-0.09088825288069953,0.1166628890853603,-0.062211704155842554,-0.09862400215923489,0.06402018031315881,0.054380505459217555,-0.04184624019113301,-0.03962213421432531,0.01916884776275535,0.0028213016958488586,-0.03218703697884038,-0.04985033392459273,-0.03576586685306884,-0.005094923295645541,-0.03284823579983315,0.07566421791495588,0.010252865779314604,-0.04981406794391217,0.11884569033404374,0.06231621820651722,0.0575375463406102,0.019097647711540253,0.08025204018428915,-0.15392789003280918,-0.03974465548974587,-0.07071577477537984,-0.07402202752415254,-0.03801781113224117,-0.007464475974919308,0.011233745449601547,-0.01830840574678212,-0.059710884653320764,0.056266663016240476,0.05275065052168843,-0.011353278813650091,0.036685478184405845,0.021405154000277336,-0.21325002023720396,0.016294341964292483,-0.017038213003844803,0.04966222280650385,0.056449063618419476,0.18869686523776247,0.043564199524786545,-0.034995674050542346,0.02801587927938902,0.09473154442693098,0.055307835911372144,-0.05324697931130836,0.0017851992145008415,0.03329822778032231,0.08376903907239314,0.054136740396325975,0.03354525835202793,0.07099406961927897,0.031468554774947845,0.08377939153093149,-0.09380841557543572,0.16004434544570875,0.004217194100624854,0.07670900836634269,0.04460463264166487,0.20664597761355716,0.04839769100550558,-0.1545478467847897,0.05624559178480883,-0.08503336297510698,-0.020501057079396687,0.08565965540362572,0.026457316289783112,0.0763887730052584,0.028825453824495886,-0.020074197908200864,-0.038120685259040755,0.14499194525309803,0.05492235165586829,0.006330158397080254,-0.032484755593778725,-0.014303607712658716,0.07919395621661035,0.1164803634408538,0.09383785556292207,0.05166166288325895,0.07756276729881728,0.046876320721234606,0.004867215560864551,0.045589815584032765,0.12224256557648537,0.09125375110024064,0.07490499574922986,-0.019258905439593133,-0.05290658711223108,-0.07183341209538668,-0.10507545548992357,0.08295971596896085,0.051157338295288776,0.018437410672181246,0.004796019024250553,-0.06432925347249832,0.06403826076950977,0.017349346369538988,0.029018356657050028,0.04676306414220283,0.030088191627382924,-0.01201052416649303,-0.06882785619707144,0.0135143610174405,-0.02839235001577487,-0.010274464308076596,-0.04794615911823209,-0.09212812482203037,-0.08149704739495009,0.058365631554722276,0.033097278524401516,0.060592259849919824,0.030174617995852627,0.010724267556729205,0.030848461228664175,-0.1619338214719694,-0.114759631092631,-0.17318339135049507,-0.00718870372880352,0.05982046781451996,0.13578523521875732,0.16478281592121505,0.11778525064638097,0.08390542302238894,0.0879884748932506,0.10290009094473769,0.007385727844416162,-0.062378444260034374,-0.15258415060809588,-0.10037626197793312,-0.05837670324134035,0.0678057003481638,0.06846593497274403,-0.034648956469709925,-0.04967854252387918,0.15523596170633597,0.02806502636685155,0.0323493104909136,0.09266734083231107,0.009860892678174674,0.11467255620800977,0.014614561384917376,-0.09423669875330389,-0.07118486046681087,-0.019433534761294884,-0.07133393294080285,-0.0695260686925355,-0.08812684145810486,0.1424115440700735,0.0974112566206234,0.07999754836113085,-0.03075258594757862,0.1447162758420283,-0.044259451192864493,0.07131969671758576,-0.040700839886664834,-0.037226449967545525,0.01350041783948136,-0.03883852518886751,-0.027910227935769832,0.012117756331698294,-0.02718667425100646,0.06679275379599761,-0.03146912016690557,0.017904408198963235,0.14170808938925375,0.08976099195338519,0.11804427653514267,0.02398781905608021,-0.10796903206091009,-0.0009720751640526753,-0.0533455130604112,-0.07194573180229014,-0.15850305921916052,-0.09249666793667455,-0.11193473447869755,-0.02772354832362965,0.011639133780205754,-0.009305331580850534,0.006670043373214636,0.14472790473997,0.06561869755563556,0.1776037722010131,-0.002674022348473132,-0.04548989873860204,-0.08695314139522903,0.09434324351938525,-0.061754663027827394,-0.12660427379015746,-0.009195038446435596,0.030397694179419794,0.0938185576357981,-0.05577708877690905,0.055086846086662596,0.09537545718790437,0.04150209567058901,-0.06404154745038908,-0.050457333725274105,0.017731667630159004,-0.12305767545389357,-0.09210488196273843,-0.041025624240886564,-0.11047045511297136,-0.1401665764455712,0.004765706626943453,0.056294695711558054,-0.05272424576803268,-0.08038831926654423,0.0032835248114827967,0.07264028684762798,0.05548813864295335,-0.07739299284163856,-0.06802985369435574,-0.010963654615930928,-0.09359984026875245,-0.03344695026860716,-0.1380706161636017,-0.0583947681056374,-0.03113122206370425,-0.003555103130439804,0.039952228173449914,0.025080908632603285,0.0934691645612621,0.07698113198530568,-0.03228839050883525,-0.11780833356133937,-0.10330995078485428,-0.08673490150881076,-0.06033290843772313,0.037656572627445074,-0.06427105071664684,-0.02267754565644944,-0.0661564083647302,0.019580927358668895,0.14469506526891215,0.13674996449356439,-0.015493725654259282,0.1579053009725356,0.10159189279221804,0.07867523082312791,-0.03559690438761727,-0.11289980920814474,-0.060915769611413595,0.09361424844031603,0.012535860102663825,-0.01204185229376889,-0.042335619736086086,-0.006269293390713703,0.03796565014498799,-0.04949717133461151,-0.02287832850004409,0.06138583440433183,-0.1543790609014354,-0.04782019066624255,-0.07753805824084412,0.008925892537692387,-0.03843983889476218,-0.0034278155236906202,-0.00216026608371551,0.18974536815653198,-0.025791292541515232,0.09129117666097838,0.24440944117012808,0.027729503388160638,0.06646666719378153,0.07445488298710212,-0.036805274698232686,0.028502857499180474,0.005975819617025212,-0.10679547518807307,-0.0561924074074237,0.02341515621679665,-0.02601673523415319,-0.07269909929934724,0.056773946357824366,-0.016492450582187932,0.16248640387719146,0.056049117362717095,0.158073877864338,0.03691198248619866,0.05409950134872945,0.059372663377970376,0.010191369702159505,0.17103331542804173,0.007640518760249417,0.12264006030556938,0.018710663467248093,-0.17624455687251067,0.15303441200233103,0.10237019969602787,0.043982675165749587,0.08624641190306202,-0.02912574872589148,0.13856513332333473,-0.07860041695917504,0.07981392663153862,0.08784166388120439,0.03178520354746883,-0.030601451940859586,0.08718939709727098,-0.009212019335899345,-0.033118410591605404,-0.12957232906195648,0.09125149002138246,-0.08376081805284209,-0.06509648201126639,-0.07062841424741377,-0.07014565947556814,-0.10097775033146153,0.031037063595459585,0.019864734419368237,0.05577615561340946,-0.060700157001331245,0.04907898813539668,0.11515160052518313,0.026461306668465582,0.13895936367384967,0.0661677900237232,-0.035299288181433824,-0.012770953946796013,-0.06507496827849323,-0.06422461886058353,0.019098463581112224,-0.039373274429433745,-0.008784151816440051,0.024688350832821525,0.016224316975519362,0.08933135275075765,0.021499222249151517,-0.0422208472788974,0.011501482502936446,0.07240689631527891,-0.14294422895947745,0.1053181278902796,-0.16074690840920636,0.07570911875572948,-0.08178555946345552,-0.06482488770912889,0.012098102711151892,-0.0025856590922552648,-0.022576591386360173,-0.09450690697209586,-0.027365172836354975,-0.009055260862922243,-0.046507959342350975,0.06828172595060732,0.12095075983378235,0.12347035597970937,0.10867167691078372,0.06025781971329583,0.06997595774370405,0.13631849474747984,-0.1716285380241575,0.11092480637192154,-0.028760204576137642,0.06869812473745417,-0.028386668187280598,0.07054650765609734,-0.1264384202622842,-0.012869278158589778,-0.09385703371375459,-0.05090465891948601,-0.0175888153911732,-0.10657772874298621,0.1170833457511394,0.11967477164468615,-0.010529774456036863,-0.023311014288175797,-0.10045230366589614,-0.08664236356196539,0.0013727863466719355,-0.07066545434591433,-0.0013188572872019297,0.0845945864722974,0.1526799637245776,-0.059505981785985436,-0.05174289318801567,-0.01585141783613314,-0.028976400239961016,-0.006583199423335947,0.13281725203110067,-0.01771075067780492,-0.05356650441839625,0.06038107544226791,0.0125143357279546,-0.03889865546668317,0.02928051859316079,0.09424253877283781,-0.025349196272375186,-0.07737732430886533,-0.040414357290696624,-0.015348364628947505,-0.05288376498143269,0.025989539298361553,0.06628175033933584,-0.06856451994597676,-0.12232372794202273,-0.05119108711461999,-0.05798325784722089,-0.033793881770283855,-0.09323192801400891,-0.013195691427376257,0.0650764918527053,0.015449304258875654,-0.033982013958096115,0.02063770087979573,-0.2230720174123188,0.0007763016368716679,0.04236897916971491,0.14185803177939782,0.03412900737608052,0.02140074333039617,-0.08387198150819461,0.0747549970615146,-0.11159758694272374,-0.05704048095874321,0.026903776260630393,-0.024297030494916903,0.028753356321292178,-0.014362765829107338,-0.04669485912358538,0.0415004629709492,-0.04891352090377726,-0.07395536604257583,-0.06052145780481175,0.004951458549253705,-0.07195631487388948,0.07031708400100936,0.008793380186109812,0.0033876337709288617,0.009516919326839405,0.0508990781041426,0.04458656579101636,-0.07555237678593055,0.12923946580733,0.07445521402854122,-0.00554687296160535,-0.03619940242881425,-0.0113475852494773
-0.07968586254676718,-0.03572280953648354,-0.09377731700387426,-0.029976751306877412,0.1209731786739907,0.1894535389508541,-0.05981001321518479,0.09856209832875829,0.14774811782098138,-0.14867805162757308,0.06032032479598771,0.037796589115367735,0.025821254148257585,-0.035500048186101966,-0.04626502165867212,0.10959959534436488,0.10424127499440143,-0.06829428237575148,0.07487650691379193,-0.012765238285936108,-0.07096349998515251,0.011770244200861502,0.02375461560673888,-0.06516708188546246,0.04526457789470515,0.011312369705627786,0.0943622124509508,0.007753574520081074,-0.006293556822930468,0.08363650258743455,0.034527767196065144,-0.025506888685534912,0.01251478246694889,-0.04867021738529743,0.048814472508179794,-0.06894289317658432,-0.01829512648909401,-0.1672911827119393,-0.039379537550149966,-0.06623483710957331,-0.032301156198954434,0.0017299459016421825,0.01702448131599557,0.012840166736445275,-0.07822198132189627,-0.02967184828271499,0.03575754520129094,0.012635751669792283,0.05302553877687729,-0.07448795779468866,0.11113763801657768,0.07682383721925355,0.11425399734428422,-0.028067727578984954,0.02058499650939307,0.0028465163585188933,-0.0739795587196744,0.047102191129969266,-0.16576936675854112,-0.030543183846912892,-0.13950506389571235,0.013797932120183187,0.08293366172909444,0.04418356485210296,-0.05707464950854911,-0.04398272999318386,-0.10171820694358005,-0.12234739216428417,0.05586954300403245,0.13640104479622536,0.059639754485171996,0.1853082507075271,0.13242349300439366,-0.07643654802256393,-0.09729933674773616,-0.06975048043990681,0.045044337443777165,-0.03870892665187911,0.10699400036251377,0.04075449436345407,0.006856301636244662,-0.04537707139237301,0.013059290105848437,0.13481096479415167,0.0002731304638304882,0.13285314621454733,-0.10928495517375021,0.04927690081074071,0.1210031157406652,0.061465830377551836,0.09295154625515237,-0.0492780986746385,0.14792419249190897,0.09660650422548113,0.0751221823050517,-0.08035068568424128,-0.05216097936398408,0.10512931371409709,-0.015692078128073775,-0.009248858160749718,-0.00857158034935681,0.01172596406548531,-0.03446474014720924,0.005425962993170742,-0.05042724502820715,0.014434446343421092,-0.09992397094650272,0.09441903107264926,0.011137569104912435,-0.048233269217948224,0.13926626605887882,0.014992069560404239,0.12105056197115409,0.05304244505095954,-0.09604572222504318,-0.05006935695766784,0.010304730962813884,0.025036120851657157,0.07410369278437252,0.12735792882148078,-0.09349510798598919,0.09962949517447153,-0.0429550140572498,-0.05193834847359818,0.07180078191373565,-0.018819394125367733,-0.08203713032623028,0.06362395503642368,0.0680486345722919,0.10429736908423323,-0.08367779090290509,-0.08298048251475494,0.011716801236434623,-0.01084152043647861,0.0029897733741466896,0.011665445060640076,0.11498992810591224,0.00948186090030805,0.0805483955219818,0.07157982875349028,-0.030108645780215902,0.09754694322124279,-0.110392099899225,-0.011253487637976267,-0.1394215832806707,0.006486857748567806,0.0013531859321602277,0.05673898898630573,-0.01591921773479535,0.0854700920077677,0.02948005173199315,-0.0037914641589483593,-0.15126713425585245,0.12404766261274516,-0.07174627395454727,0.020747814082816615,0.04190351522901801,0.09483624690551688,0.1775739056740573,0.13286063080561117,0.023041209263918675,0.07524065399329369,-0.016615197778497577,0.08898187563137169,0.09580731375165968,-0.03959220560063666,-0.02337002241081164,-0.1343483985937936,0.050560180825500844,-0.04700587595390313,-0.03784690386817344,-0.0011127454172314233,0.01367102095997403,-0.06710251188691886,-0.012035477135746275,-0.011740426754982453,-0.025146207959263787,-0.02802942841572727,-0.07258971327528635,-0.02329848250172986,-0.06861256787556547,0.033697015241816994,0.07455732019197404,0.19969691283112065,0.081884775042001,0.0067772572832901345,0.029101498674451998,0.052699290037854875,-0.05721851869184774,-0.037261931357964594,-0.11695769598138957,0.09861890584414078,-0.04149797231712325,0.03600730647550111,-0.05026182331328469,0.07386993462968239,0.01681401181340625,0.055843670299935595,0.05302956622847778,-0.06712654049650733,0.0130446300736645,-0.10166920342919732,0.017890754761612546,-0.030166140314939378,0.06580776285369805,-0.05435642754676175,-0.11174052670941222,-0.11766973311472857,-0.00569778802290244,0.03878955270302766,0.038271924994840716,0.023336423956373684,-0.03251077573715909,0.03377941883327277,0.19781811668062646,0.14576805896920064,-0.038100698603261186,0.014857586446249531,-0.06362599074183749,-0.03997019533912445,-0.06282322397838024,-0.07435596084983066,-0.15540607747593468,-0.033818467983493625,0.010564749062692459,-0.004452488134091863,0.10548787196888953,-0.03545931810638049,0.014531542000734438,0.008124890633191502,-0.05394135712438647,-0.04562872458063398,-0.05989225960031073,0.048736068237155504,0.034149075460917146,0.12948959135608595,0.02309711058778685,-0.032102854643323624,0.010506317511668377,0.05597081099757547,0.03296720677837206,-0.017576157934875637,0.05782316553616301,-0.10342685572100471,0.037247979143864574,0.00800119378850453,0.004408073194451519,0.0400497560056832,0.029735749253027677,-0.12576681390424843,-0.10512011501903894,0.0797824101729434,-0.04601347541654971,0.011588644041310244,-0.03672013591077037,0.13095485790295244,-0.008151382427666574,-0.11141766461531856,0.09370725586817144,-0.005905726970111818,-0.022116094401176557,-0.047495403866343475,-0.19240152188482587,-0.04814886927652465,-0.05301141013725268,-0.07955856729582989,-0.06985712598417788,-0.07780789624570482,-0.054553684466772674,-0.006740650464398954,-0.10955757979325133,-0.10407062740122942,0.00979553844971206,0.14299373169717866,-0.05888226063909437,0.11523044578832956,0.01483768193667062,-0.05910945772636129,0.09007387431414242,-0.05252196019923212,-0.04854482802752735,0.0035049415309702184,0.12219503584168462,0.07509761333503395,-0.08316649472806917,-0.07551002454510715,-0.1701213810408211,0.00991652550448401,-0.012442535513894208,-0.017318491395750157,-0.1508555629322204,-0.046616359587332165,-0.04384148920735626,0.05260535408617732,0.11626820616586346,-0.08765007066580303,0.029844488862708053,0.06492068924748608,0.0005344461652819695,-0.039560781931320024,-0.07546835794130977,0.009666607610961473,-0.017479488329023227,0.10874464631952097,-0.06031471475133776,0.05413732344759742,-0.11244051905618076,0.027948542352888045,-0.06930757001980382,0.04260403116645491,0.12297837919338706,0.06291113277040453,-0.09235426682153867,-0.0939428438502818,-0.0037227417294503,0.0004249599784008468,-0.05516338840438514,0.015209565712617844,-0.11038209383521001,-0.08879120363643415,-0.12316729924614854,0.0030840809695426626,-0.014744037179256118,-0.07157383171821811,-0.046111768529496354,-0.08153212826625203,-0.055960359848402884,-0.15571774799533833,0.024559392951901102,0.07997609929705242,0.009873059854008383,0.06789358326492848,0.04116604799637333,-0.0858372806305985,0.06969140900053154,0.044201950204631905,-0.06673596056184046,0.09093033446178701,-0.10142935400137054,0.02327166936229459,-0.057771023256895135,-0.06294118924174273,-0.0696619552531309,-0.14004148151543266,0.001674398134630168,-0.10963338582053112,-0.09336436539215358,-0.10616739466828994,0.0005705699413826331,-0.020229066054158473,-0.02410455170971662,0.06582715100135632,-0.13150023813837558,-0.08133462453012609,-0.1874618338778166,0.03248558708721103,0.004188591306830754,0.1030406288086622,-0.06111499155850905,-0.08273517875562009,-0.05308772883010888,0.12542117825292112,-0.07712858291329874,0.02314634515907621,0.01671178956866372,0.12768865621593345,0.14168823686107482,-0.09249062562625,-0.008858106407012114,-0.10910688143597505,-0.045558339200017464,-0.09816124316597158,-0.09701489184347117,-0.06640197031699732,0.0024410122830372727,0.041082981711253665,-0.010968865417394235,-0.0271144127552741,-0.1048419269527361,-0.11676657071322996,-0.21089635542404866,-0.0291350724470306,-0.030333798233848457,0.030527618897896243,-0.012252937546197466,-0.00917009889637257,0.05634830739243575,0.05408759011453407,0.07989106231587573,-0.013681936323379164,0.13863747839980237,0.007170119881704383,0.05207267796821302,0.01610849075603719,-0.014550459394478467,0.17081988389636776,0.003853947374778683,0.1207771602014145,-0.012603159563657517,0.06601129460470495,-0.16344109819357844,-0.009306137592337175,0.015354820739428362,-0.011191659788431962,-0.04468808028451526,-0.021802610386056125,-0.10315630162405626,-0.05841379803213522,-0.034012648687129,0.08731739532089713,-0.0036018882353963284,0.11518068820902884,0.08361224885626348,-0.08548316393777419,0.004679634080606885,-0.12857599220606983,-0.026192622482508986,0.01292987288259122,-0.03161830418415103,-0.016494576449279263,-0.0836899323258037,-0.05701811067539589,0.12103611742870593,0.004388495440411034,-0.10193232316608408,0.04105030810473862,-0.08971049710646671,0.06686024954733977,-0.0005854201525164783,-0.04238891253346391,-0.11957989370073406,0.015616711751015297,-0.004419783728140567,-0.016497757953580886,-0.01730258168214784,-0.21795881676251214,0.021350080328837843,0.03743273231722221,-0.023925082453116364,-0.15577118605747692,0.09575467918184175,0.03880300067878713,0.02572104575113288,0.1110554570652302,-0.105926390757228,0.028765977202830178,-0.08621546182110564,0.019288889028227653,0.021442759150178178,0.0999668208927948,-0.013267964337790641,0.013833269024590094,-0.008607804643589526,-0.08508078660546091,-0.02172975343897714,0.004294910680126841,-0.06968165469101605,-0.07167941941722138,-0.013825594820747364,0.11085318415007057,0.09601907618875209,-0.0907249967264561,-0.09557650610985832,-0.07809279012221058,0.02830853926427631,-0.020237096929210635,0.04522823109258118,0.11650160912353053,0.08936600185600113,0.03298798302520136,0.12396113494932658,0.014169957729343615,-0.026110342879265315,-0.05924404329816446,-0.057231858100586855,-0.011074437968313125,-0.05677931943146629,-0.002025724439282718,0.024878237688060183,-0.03541448143905354,-0.025622833544591942,0.03960308682779592,0.021331514964999958,0.11068905199673965,-0.06443093930427049,-0.0423286637011029,-0.029744472505752614,0.026675362999427125,0.1221647514124816,-0.0554972943769481,-0.019100806803673254,0.025611815871036208,0.07669869942400151,0.031922893205240555,-0.03648510876627416,0.03364848096081984,-0.10682783158720766,-0.002744207903024633,-0.03220129045392814,-0.06692412205428667,0.050113982605236175,0.10895757293222544,-0.0005575879633774445,-0.08924408453496484,-0.05823323575022454,0.019418542351029706,-0.0010919463802187015,0.07514231076025646,0.013502174059526213,-0.09607642761795417,-0.0810584631060568,-0.027917300017610676,0.11218897354975192,-0.05132895826997663,-0.01033608014026214,0.038133300684920435,0.08087648286807435,-0.09258334287512787,-0.0018826322171572487,-0.058245432919239996,0.012790591705082623,0.048383085434969754,0.11105362018205436,-0.008612925255499174,-0.08743266639352446,0.059759861848151796,-0.06000673833722244,-0.04706630008740024,-0.08353388335293423,-0.09779839302619213,-0.13195698363960123,0.14142148875955643,-0.1075406960587459,-0.042783862332301234,-0.016379080397203403,0.07376515784222792,-0.03205688143980412,0.006800761646846465,0.0033683680127714224,0.007086591127228866,0.13257363126497274,0.06771651957007849,-0.030752653263867658,0.12181154365883397,-0.09809847904260474,-0.021533836853290862,0.0004648709245468604,-0.0186804902623306,-0.00041905177747177043,-0.013570012748788239,-0.021010443883745535,-0.03439437299939064,0.026524685239245727,-0.011130809890302372,-0.14461847873049827,0.14858351404669473,0.01583680118080292,-0.0332651534515561,0.10318911466524854,-0.023356340626126734,-0.00012203519006419076,-0.05960198490390915,0.06603554992740392,-0.00799558956192452,0.05070202497907693,0.05582402876724972,-0.016681291883531988,0.014257360050862367,0.05273079319899608,-0.0673199631122889,0.012031996168016252,0.03810475693160572,-0.04078446973841659,0.06210000252424678,0.04822410206479871,0.010527653689894459,0.057670879387108964,0.04744666636972356,-0.037427521014096445,0.08660279902322526,0.030533816103170644,0.01236647921282061,0.023138516416922668,-0.009180429402943637,-0.03176508473321273,0.058785260864188366,-0.014879109306822623,-0.09730573610760203,-0.03211891697122258,-0.026969268523516336,0.02478590597856185,-0.10433486650772833,0.05978157270956007,-0.09457163117953837,8.064246761955357e-05,-0.18301723987182564,0.09656363387430354,-0.026085636620823943,-0.07811885764816043,-0.045126342490666035,-0.05225100256326389,-0.04212106596374239,-0.014565510401413089,-0.06355584980484777,0.014903285489961,-0.0033922786074069566,-0.10082495529056525,-0.08691057579934829,0.04076791488131256,-0.03740378727184908,-0.13609411876774377,0.12187277481055502,-0.039308651579204316,-0.05587352383374528,0.01679857965048251,-0.017045827068890344,-0.0004001949806225069,-0.0915318724038936,0.03155594945189013,0.11788672430913096,-0.04563874455929326,-0.051589914223528495,-0.05626744413639164,0.04433671300377817,0.03618389108831651,-0.10426162297084454,0.0022965168715184275,0.06617633547468994,0.022437154554392363,-0.13008658939950166,0.05594466219708849,-0.03674611106322759,0.0949745062579279,-0.06813427251081308,-0.02904035381392909,0.01053168473062367,-0.07824844081270729,0.08698468241798049,-0.010999154450589702,-0.034161988606407484,0.12224538248663858,-0.06269700036090059,-0.020125083687387375,-0.03004286281222788,0.07601400551141997,-0.051756133441693324,-0.011136342419297942,0.03981640273996324,0.03911280139085165,0.06043071651666736,-0.08385989100052929,-0.0028900386606899022,-0.028521210666338663,0.002402882776075845,-0.05249858962173746,0.019457246183142464,-0.001875728234886863,0.1095770537484522,-0.08589268131597917,0.04080078962008706,-0.0497990153384352,-0.03479246926967123,0.07279927126528858,0.017636713109144574,0.105182766751663,-0.01851230909066115,-0.03549472088788837,-0.005615218296225248,0.00038792458450288543,0.05930154429975436,-0.020674316913765086,0.13849230853182132,-0.07849441633063421,-0.05369229597516945,0.12531734432445546,-0.0203066936232401,0.03719415618112221,0.09192767539415299,-0.07272298120670492,-0.014125425122692659,-0.04138192341659436,0.04340598135233875,-0.07606348526933979,-0.026433190200185586,0.11036268913361875,-0.16619027238840636,-0.06382922123465086,-0.1565889424533689,0.00634665522130785,0.013788974127724347,0.04554471034837851,-0.02256024206032719,-0.12040793276337673,-0.08394427436951434,0.045523000202193714,0.06886218856983951,0.06498964173620486,-0.04177195898704093,-0.12714788797200194,-0.03224523573098197,-0.01365114361505587,0.07188386655136392,-0.1393823834891115,0.023770852084201315,0.05853314715004967,-0.040791093832617954,0.09364076913787388,-0.003628613877990622,0.06519433962590757,0.04768221378472586,-0.0392264130517229,-0.045358306443292445,-0.06476535953326573,0.00498715275214495,-0.050695814373947046,0.1119816235491793,-0.08940213747196529,-0.06420415984848464,0.009183353685081769,-0.06088131116683581,-0.018420561242237142,-0.06941141646694,0.0709427876777151,-0.01075920296118506,-0.13840584140563694,0.07304794168473773,-0.04239678167620052,0.0989499556383991,0.0031221089625941816,0.052624882773504654,-0.02671764626647536,-0.006307847348533467,-0.11632481499106802,-0.032221965194458975,-0.01455234277246941,-0.008296422507755313,-0.08497789748444222,0.107366991507738,0.030756009585996433,-0.11472838625981578,0.03382145934159342,-0.009712058445977598,-0.07433515850327767,0.024461737043193335,-0.0514667213124075,0.05885610180786875,-0.10587458200007922,-0.015521090306435009,-0.062140162616805626,-0.0908567823125629,0.05617093517378215,0.00630313106545267,-0.1747117036858996,-0.02288022363520709,-0.03504841909198578,0.03080609002678517,0.02339969285524501,0.044123566979218085,0.07122639011723879,0.05953978670776218,-0.01751446615213279,-0.0078040083209326965,0.02119625136505983,-0.05211947677953675,-0.0057152139700407095,0.021252775747721477,-0.07036390428614754,0.03436433777987959,0.06560205816941304,-0.1088245083556298,0.06432233749756446,-0.1010538521642055,-0.07578001017343439,-0.018554279887285807,0.0666753695526873,0.12889983016580128,-0.03472532398670695,0.02222813204690939,-0.037565879392724676,-0.05722794326839852,-0.021968507255591636,0.13918595971703684,-0.009538667230618114,-0.038435397803559666
-0.15084562722649653,-0.01310164388581218,0.06418965761796643,-0.019566096318064316,-0.006613758352029701,-0.0053105826520043285,-0.007996198972046693,0.015330338674623382,-0.019074143920487334,-0.025584346667785633,0.07316680905406313,-0.079763010060758,-0.014836275130988235,-0.09047469815861352,0.14054500984668739,-0.02193025382228539,-0.02424582266319398,0.09978035719169213,0.0024343020513655908,0.08356331171917478,-0.021430329482705297,0.11116930785507936,0.12647964432140307,-0.08313865417489752,0.015210075492623354,0.007067716012057948,0.12295720394094073,0.009633582471220127,-0.038585768186586225,0.048812942132224646,0.05174990439662432,-0.0286840579899323,-0.01305918317819574,-0.06486628916128506,-0.0861132116012241,0.10060997997656737,0.04389502625953394,0.0115296803036321,0.12617941498603602,0.08976520553673667,-0.04544159027188218,-0.0021762977401416266,-0.06083297749771376,0.03723366986085327,-0.046587879095084474,0.154805836257273,0.11178050050519392,-0.10871911778014552,-0.03149438545151116,-0.016024994914181044,0.005699392268503878,-0.12606605011489302,-0.08904051544544087,-0.05513758147183538,-0.0783042198992621,0.169508818540127,0.03558514027887066,-0.05993526846824985,0.050488775180977184,0.06471952630755767,0.08557079066659705,-0.01820161346874196,0.07214965101712385,0.09236680905871172,0.15081352708556345,-0.02150762940955253,0.11725238117941503,0.07603118976685266,-0.034425195451493446,0.15834832364540202,-0.054840885790348744,-0.0858136163391677,0.04393258707866332,0.01930590053955477,-0.20090015180228651,-0.0427899140298927,0.04465478206493386,0.15614941974867486,0.044118209565740245,-0.1653100366341675,0.05039466004752529,-0.11009152933368356,0.03391795006153296,-0.020004275824547516,-0.10063816452982888,-0.0019777916471806272,0.06431085218800846,-0.04733788057374409,0.10504676981269352,0.0483850442574407,-0.04799256821896277,-0.05086426167669812,-0.13233331046699948,0.013230521766735833,-0.049707641242546924,-0.030135564922028023,0.05829042147032081,-0.14667977598734167,-0.08954763963875356,0.050252742967427017,0.0013389640150290097,0.09339093883860963,-0.044838593905871964,-0.07723458332428645,-0.00367156552637677,-0.021485046839196248,0.07459718203119353,-0.004081307338198016,-0.13280719596001023,-0.044800212495712505,0.01213573377307818,0.024952807996600636,-0.024489377829983686,-0.06497031867344477,-0.053412835599605565,-0.17195560762168327,0.08137962393320614,0.0270357170773841,-0.04597550163045702,0.0384638092382966,0.031090766268428487,-0.05691794943254206,0.03924027456878249,-0.023291999885856743,0.07041480125119395,-0.060360957097659484,0.08304310351116066,-0.015825700388126206,0.0924732647864025,0.058998494271568676,-0.02774819173019322,0.12830471418040304,-0.11578709147673005,-0.016357218619082008,-0.017572438879001458,-0.015583068989783113,0.06987973418584525,0.07505354858930165,0.06627388550542324,-0.09643116359997769,0.08521413231828207,0.07965493430541466,0.052123094512037456,-0.09472698067100811,-0.039743398617178835,-0.06473220119257841,-0.05633236011811238,0.11177869389622747,-0.1505798405883077,-0.03431902157039338,-0.031051779260398014,-0.21156015187289362,-0.06413494000219816,0.09298668977349217,-0.1501414603432756,0.011292162523231931,0.08553456881242696,0.13169475054992935,0.026561394374732636,-0.08730398262803168,0.11861615370535787,0.020555620964024215,-0.002816596392877804,0.13401347126696417,-0.147780885766356,-0.13674868262342538,-0.034846173678280634,-0.014503297137393375,-0.023183336864276496,0.022034720485771077,-0.05782923081538086,0.09698164647702595,0.06239937527046249,-0.13928461059702416,0.0015026280207759654,0.038538772375724076,-0.007908970358593814,0.0005021333478953328,0.009511540929331876,0.06195392160755527,-0.02865412843767739,-0.009249825380069947,0.071940737908776,0.10669476132048475,0.17566116188667388,0.001211523444849461,0.08928553979233096,-0.08770071883608739,0.041732983429497716,-0.11929316541860314,0.0808952155293068,0.07718988117207003,-0.13753257687165646,-0.03448379551649352,0.026903789249187182,0.13119672130723492,0.03475418091090323,0.06050732204804671,0.040930272881463774,-0.006463411150232604,-0.04824982729475547,-0.13612207279380606,0.1393468909431272,-0.05484906562449155,0.03452556214994875,0.043844522421266734,-0.07635615813153453,-0.09056523245754237,0.11196861274491578,0.1323820616102783,-0.0071704729513257515,0.05166654836839208,-0.1607702718565176,0.03201859322915457,0.049605095602548076,-0.11751001686631166,0.10903154416715925,0.003980963422132252,-0.07010053732902485,0.04782518006611328,0.09952674379118509,0.08437625562516742,0.014853513845514078,-0.0400976866802432,-0.034849052531758,0.06057275732777752,0.005140931915625599,0.01414554812515704,-0.07418747813979816,-0.0481847711832077,0.08256417818535809,0.08124791967267554,0.026237968724135634,-0.06886990405847469,-0.06164029569097858,-0.06733367828004744,0.061025340782216046,-0.001238446526998325,-0.13330434667984725,0.08800504761693123,-0.08332791607517508,-0.00501260735456122,0.08797835712368424,0.08351337794663485,-0.02301322275507553,0.04708986808516962,0.0031161903458122027,-0.020451914709627893,0.04324007920368835,-0.03176619272552347,-0.08855886338919497,0.06230422370037606,-0.02416347563687362,-0.06444669753876327,-0.11504968264915855,-0.07622967984418286,0.04370509047189267,0.050041072697902596,0.05713416771938245,-0.09834873877526266,-0.0649044519497432,-0.01114430089039161,0.07251520041166751,-0.11338258355370645,-0.16855592087376628,0.13486920663083207,0.03649925006853118,0.1704875930529764,-0.016711637684158974,0.07214470573193969,0.07010193191274172,-0.1760412547482846,-0.044938913860797215,0.03164485072161074,0.07274568565563284,0.0838810431415729,0.01958291645120947,-0.03629689380549426,0.06650781016898508,0.0713102797875794,-0.10748426630538489,0.015231242802008584,0.02149843052925491,-0.016975651300885866,0.009284319508328101,0.0029642347339536874,0.021412000841466525,0.10160881749878506,0.09749637066272578,0.14899141320823178,0.08652157330663074,-0.050765998281008036,-0.01622400700760601,0.15000836744416302,-0.018178123697697796,8.79938613986857e-05,0.0259646804553703,0.03778440790009019,0.11656595356309501,-0.14103812030234464,-0.01585216832711399,-0.007794651448338054,0.023963582143262774,-0.009880518142913016,-0.07859927575503993,-0.021340745615581934,0.04804805127166089,-0.023347337199249897,-0.10352228644206547,-0.147467350675485,-0.029389676555432342,-0.12297726435823732,0.07806020244900325,-0.17116535811191355,0.022074630529687656,-0.04913189476487163,0.058700106029272,0.06031875258240438,-0.05434808053294708,-0.06523999526274547,-0.10260150542776833,0.042773539770859875,0.13232593841496643,-0.054519473177077796,0.0245987626393552,-0.049924753293163204,-0.07405427730847138,-0.10208275389760904,-0.0845093475895837,-0.008677430613216928,-0.14556366017045064,0.0009647139330335769,0.030372956151875,0.06702097628782025,0.09478417979949708,-0.026738765743035027,-0.0728419159029906,0.07529916822812108,0.05968552853727838,0.1576045353753374,-0.12848812943502697,0.02267507010140384,-0.044620996277249705,0.1076577880574709,-0.0324307702300917,0.11991018037632623,0.03592955245483444,-0.03507678569047896,-0.030480923240915687,0.08045662975590913,-0.16157086962901598,-0.027246172239909515,-0.01764901966546669,-0.06715244419322193,0.03862814824352927,-0.05610104630189078,-0.04778352774917775,-0.031048126406013815,-0.09207991610394245,-0.03527212868794594,0.03115703567672936,-0.02411039186216319,0.0188333988348484,0.02934578772421295,-0.013841994589979971,-0.012497196430126936,0.004840714238471105,-0.06767047851381984,0.00012553431356728591,0.006560023692773426,0.029707997017166334,-0.056252542540270546,-0.1860250258661624,0.1200553177757375,-0.05869047977916881,-0.15869191957398457,0.046707759905189675,-0.01139716326577118,-0.08835479141640405,-0.08452620369406671,-0.08032796795733387,0.06039263754601522,-0.0025042186001766635,-0.008025688122256291,-0.05868808423253959,-0.12317688712784446,0.006507404651035473,-0.026406599765270603,0.020849674523012854,0.05696070887137628,0.1233424204471176,-0.027343957128095016,0.036364151600020836,-0.012998616511961741,-0.05007866307210943,-0.02454055681286288,0.032084423597764686,0.09982381779016088,-0.0007175636057405443,-0.020821076399313822,-0.08761696702800056,0.03809456846893028,-0.050150168335314195,-0.1204536416071852,-0.07730651823524268,0.006900506631109097,-0.1743385551617556,0.0837548479600448,-0.14511515675754127,-0.03184342843570879,0.017282749594485468,0.005939919808668239,-0.016368448813603675,0.010865281008300148,0.13891982515211762,-0.07242894298916182,0.01346497147589897,-0.019340255523874923,0.007172613075085363,0.11489309510371842,0.0239528364336968,0.08217019968334995,-0.10687037126474974,0.01268231087994373,0.04513831351660112,0.059098622194444866,0.024131553386708013,0.11415027623653627,-0.0011410013268286655,-0.10874701607334405,-0.03479293544018569,-0.01575779765208775,-0.0823167313618983,0.05653323960382524,-0.02283972576113642,0.06140888365214545,-0.06684976832469858,-0.0861085413698413,0.005055126567148494,-0.049852919705976426,-0.0006028903228355736,0.0875854118228091,-0.0642170952954378,0.06144365605215227,0.029732682240529797,0.02897510694517181,-0.08441674514269953,-0.0780510344582466,-0.044703863673498045,-0.023555555621218076,0.03366130016316281,-0.007667146903929523,-0.02825845615810918,0.008742560577808435,-0.02930758132920447,-0.08186913278307346,-0.14471809067808664,0.013265860591480785,0.01973143971204253,-0.0588478598501848,-0.024758800383724845,0.19206958888641745,-0.03253003739143853,0.1328157032700669,-0.02087625911641104,0.0780219817160031,0.03933322452523416,0.03141272404058957,0.005984580080155742,-0.033722510685425665,0.02925706713835969,-0.018827508951154953,-0.05458883019871169,0.006072553602098641,-0.08064425796188042,0.0013698338906951897,0.04876027803233895,-0.17657648079766713,0.086732308280025,0.01916966540952294,0.05402808379106665,0.06491539248730435,0.0009517618923863489,0.037405326495960796,0.1599537692796298,-0.0063394036448410716,-0.003841654949771836,-0.08873136350368707,0.15018757154912532,0.04489776052699957,-0.04312174238858133,0.09061541212262274,0.13506496253989642,-0.15173878207707087,0.028440310246020867,-0.0025300434126962878,0.015030007874613017,-0.017835074003188463,0.14378781658295534,-0.012387356421000643,-0.010683457407277835,0.13539408897693178,-0.0002747731956139736,0.06795665175231873,0.03855609265666608,0.048047345644896676,-0.013256208391325956,0.030849400213487685,0.09603011119617652,0.05497710708293859,0.081670554230366,0.04817940452319768,-0.05283669887602905,-0.0195474044844017,0.011262570876404686,-0.02737427107233002,0.06391302524112842,-0.011767234993914598,0.08454455048700721,0.041177175007403484,-0.03237908547540274,-0.019214592279793552,-0.044462718090441174,0.09149217093265379,0.01614255259855316,-0.09666295787031003,0.01566237715423141,0.09073092906654692,-0.03246277953289318,0.10962363941401491,-0.06068957166493857,-0.0471653442483106,-0.001246906943901307,0.021557129816386855,0.04311063212758226,-0.07773608049930583,0.10518041097333694,-0.0068526618294662296,-0.07682302149294769,-0.058013316549753884,0.13761505588913628,0.004309554433019904,-0.012151838917084243,0.10675314678781513,0.014534990043724823,-0.003019001152053509,-0.0687982862008045,0.004934047473998099,0.04579097141123814,-0.0795414460352166,0.007786833647206054,-0.04079872132873247,-0.00768662279480106,0.07299111543973208,-0.21693814878932277,0.07249245875213815,0.06685352047998179,0.08789025584437558,0.06969225102191944,-0.04370210485383547,-0.03566924121556665,0.03519912928013802,0.011532699044367503,-0.09827284798610056,0.011830584907005828,-0.007636788930673634,-0.07682936694445203,-0.02441460331727802,0.1525120474588001,0.10623599350431027,0.15334564720552318,-0.046535654170352145,0.011553660649349137,0.026453756622130557,-0.09033452746182738,-0.045358001630776315,0.09998597686212571,-0.04592070993997163,0.014699365323990066,0.1040569732864673,-0.038626194879592755,0.007729332366368255,-0.1372707283741417,-0.15091606513688172,0.10560947587924564,-0.030650172128297508,0.032449020296493,-0.00861294008818818,-0.04584233353080603,-0.08608394531593533,-0.17721752721271178,-0.04012510051177591,-0.1346125053354263,0.0234840948793053,-0.044035855434059405,0.1371994798835355,0.04753341138184128,-0.02050274593781819,0.038289120859773935,-0.00034719574411919455,-0.052705027765972995,0.046375848046689656,0.10420617288992318,0.02055382388717082,-0.055738316412727966,0.044552833456888055,0.011634422406830136,0.06805710975285988,-0.03979141426051565,0.05960280384622564,0.05478208389717559,-0.03655470502814942,-0.08841255300638365,0.01767820225026484,0.030071386494242354,0.039426169382518646,-0.050507084914816806,0.09892157405811297,-0.09797324168738358,0.14599583382355413,-0.09817018061316514,0.006010006777807502,0.08288126255864336,0.04423817143464665,0.10827184402690986,0.03973115640037503,0.13623932347364437,-0.1048631012558035,-0.060451309740955333,0.027965612924238506,0.08115294212941088,-0.0748404049620902,0.03158239720417679,0.07044581448529504,-0.075253338606631,-0.09603580507677831,-0.10361887286640653,0.14054431392180497,0.06584043742601772,-0.08390218053235665,0.07063363772054283,0.10299797109034733,0.05240933072882733,-0.05815264234179229,0.08262962000498682,0.09253045086724254,0.05860973384587048,0.04128147131788125,-0.1388700464850351,-0.006827312000274217,-0.003797930544872199,-0.03329263678918425,0.027080055628853072,0.14649492332302028,-0.019879799840238053,-0.11475322850984757,0.02969794634563683,0.08097585486671145,-0.005978048699042475,-0.06034387452020069,-0.033653731973861574,-0.003530863993423163,0.08119039559645991,-0.10387783167250779,0.21285692843618068,-0.007627593804347764,-0.1487563326022359,-0.1035489396282956,0.06600259766095765,-0.0723026988294759,0.018091048869988843,0.031079313299234156,0.041541945236013934,-0.07963701082396199,0.1137796472447518,-0.057137998067797416,0.19733281838272843,0.061256187177062466,0.013632555791186432,0.08359186514912322,-0.03443172862914968,-0.07286069629445038,0.06519399557651773,0.024877790974691682,0.13550071617252615,0.0410354274950324,0.11782672855409014,0.08341565500025365,-0.11422732297489209,0.057468464417808854,0.0023684747200313563,-0.01438552738549236,-0.057527385203606694,-0.11014419930945428,0.07187774260177066,-0.03323619966508403,0.0987342413858301,-0.09318975756835848,-0.06402650162643318,-0.037514364969330076,-0.10443233462449454,-0.132849662086706,0.07525598480641729,0.020386139838719522,0.13737189298755476,-0.10477235517565857,0.01083901469699853,0.04124268001264196,0.043355870249095936,0.05069730996788371,0.27833775909656033,0.0037287360208464763,0.022072170054201035,-0.0681495142797922,0.04852003768075661,0.08602356219036271,-0.013051830602403591,-0.025752051172061252,-0.09240302530678243,0.10314617465908785,-0.024318907672548917,-0.010688510045931951,0.011760843998613612,0.04709102221727449,-0.011590639828087244,-0.011308441509442753,0.04002377518855449,-0.01584101331279255,-0.052548124770164496,0.05179917839042222,-0.02171380952358353,-0.055157912215645255,0.02339192146718335,-0.0751716726589544,0.06391618525841938,0.044840592420538686,-0.04482826900531285,-0.05161464196031925,0.006383602102550085,-0.11124834897218408,-0.042314191663511795,0.01415470289335185,-0.03615951389936592,0.06366606749249197,-0.0574783543999743,0.027097007506814944,0.03671707578916966,0.06942303794272371,0.034261125167144836,-0.05982391387988472,0.06587885584300654,-0.014040487343872044,-0.08849433098511598,0.023658613189436635,0.002129060473875773,-0.07383110991644017,-0.055424871297361414,-0.062000197208730776,0.06371186679956999,0.04857330651905962,0.05196776235583464,0.010955395521332388,0.012087518591449117,-0.04374314730656492,-0.096339997181624,-0.006740500229018549,-0.09804256788737876,0.003977805243177047,-0.006131349561178338,0.08412156788536444,0.0022440442088325157,-0.03228162762693961,-0.03976689189202442,-0.006258395937850516,0.0652994223979904,0.0982943020712283,-0.02568804159959448,-0.07246093676001547,0.10440796527485206,-0.03463776443939157,0.028578130911676602,0.0689095312619421,0.1398411430838707,-0.07316143816109325
0.008973262051112584,0.09035861578794205,0.027176660089627075,0.10555508655898574,-0.11058261632397735,0.04419704364813179,0.015628160907904226,-0.047716757536202484,0.008558247267140709,-0.04149339986103588,-0.05651277595445553,0.06393858071269833,-0.0042326478263785645,0.002280460029726279,0.026723496834167734,-0.041948541247395575,0.002180233427826719,-0.0963024010531949,0.01671066762749323,0.18112994259997314,0.0019442212445657293,0.19119128272585093,-0.046116533578501685,0.04359778319920221,0.03603131900102744,-0.027679489045294752,0.04159143904832416,-0.15695546357863174,0.051559289570208076,0.11471439199837347,-0.03302187476699078,0.07898177604383151,-0.0750651382820277,0.06132785091325849,0.15029267953264727,-0.17234878972969972,-0.010653971055765828,0.013957540399027883,0.03833672407899312,0.04108290469372799,0.08011517837424285,-0.11109501269437988,-0.01169349375298685,-0.1001004912898736,0.03401328331704306,0.16179296205244587,-0.10167165413265053,0.10636559665050734,0.023101042133627892,0.011206135721618687,0.013049085399517463,-0.17000666357572275,-0.07393809984875607,0.0593648276100487,0.09560262523524236,0.047911104413487254,0.07098798428818869,-0.06364714431642034,0.02810910058520665,0.026700213683453208,0.05343437994484023,-0.1635177451118843,-0.010475927226783852,-0.011360213911926945,-0.031024632433867626,-0.007595879623534343,-0.04376349451421049,-0.053215246239512154,0.0690795183321933,0.0959071287564699,-0.04230090460130292,-0.001495165178974832,-0.07074036003611284,0.04014151292601788,-0.008794369275049495,0.07765565751482763,0.01375834848904004,-0.042065318815002056,0.07310032010816224,-0.07359891042768343,0.011867478756752453,0.11709659873027246,-0.09510382381615602,0.03375477478745712,-0.06819285052883013,0.03339146709101437,-0.0672672790364939,-0.07910553328486489,-0.11275693746011739,-0.018014364338591306,0.06029829280177845,0.017256837700588428,0.069064812092769,-0.1004749291542448,0.11718299939662863,-0.022925738194047474,-0.05398602285510106,-0.020428940950224548,0.013923069928136113,-0.03388695910649542,-0.04942385830926918,-0.015938187058150213,0.007942575025984857,0.04131390369776839,0.03452682999988032,0.06920265252050958,0.0780865357835209,-0.07318042141748868,0.07738414512937815,0.05034170293559293,0.040716475248944166,-0.07665562859626486,0.10087599913932198,0.02991004702281001,0.018894784440999755,-0.11282638187167641,0.006294134890016596,0.08028523111392587,0.020693110788710473,-0.018479087037841922,-0.019114440095186813,-0.0386040611988366,0.07129154486491282,-0.038755385210571945,0.02443580462194656,-0.15655300173448292,0.03724873628041472,-0.04534553542633326,-0.018699233964323,0.009083698250048879,-0.035004264686691135,-0.06106511348974934,-0.04338933590964226,-0.03861433516564217,-0.010284113255465096,-0.029702751902266403,0.14615910968407148,0.1441744166708532,-0.118017901447604,0.06935670706301568,-0.16302533479064193,0.053018453695822344,0.21343481718356244,-0.02420415075593224,-0.07707790431371564,0.10396562359944307,-0.03795670469915703,-0.03882360346736736,-0.09169910425318896,0.09332871154140857,0.09826633327537294,0.005222739692374225,-0.020007759618690734,-0.028138226403726645,0.019267722694878794,-0.14387296358781515,-0.022020355727238802,0.05802373655021505,0.021727347329180288,-0.10249024973324271,0.0690054140357113,0.09091936346766262,-0.04531807127494574,0.030080156328432726,0.022169526576278985,-0.027985415237272604,0.023183566678780826,0.15023708241066838,0.013309619396239817,0.053528884551515984,0.03425853353149361,0.022261551460584724,-0.01927888335489195,-0.0012606973575159867,-0.04486818375915085,-0.026216079598523987,-0.08780586980954552,-0.11373505948901737,-0.07772698740384952,-0.04374528834556156,0.11121200706548193,0.08771414489478357,-0.10193094983661467,0.03831217990084071,-0.05292407781010491,-0.00718897325342225,0.02809054189813858,0.10888864500202806,-0.01254233573537218,0.12137362249197638,-0.16136639150250953,0.1610603609681097,0.02317704006573236,0.056437568804037774,-0.04870456858472974,0.04380848965646322,0.049449712732899956,-0.009241045200579254,0.020462639840844586,0.11100244987511355,0.020971175003052452,-0.1005987340377561,0.016153872440368575,-0.18646102272765328,0.016887474442144182,-0.08373130926316863,0.058739969409340606,-0.15667809008621716,-0.12046673707715412,-0.14842946686378614,-0.12508735392782885,-0.010491082547510699,-0.07832450286243232,0.07679161084841787,-0.08043293563512,0.14712259601756772,0.02474909149845452,-0.07360017192539031,-0.07961357484915324,-0.03089992724641668,0.019708778343637372,-0.006372069140102649,-0.0633988087930413,-0.05262593148790749,0.09518667983229531,-0.003260409129126805,0.013885399198272329,-0.033672204322067086,-0.07479881623402453,0.04942511835020906,-0.03128841198809426,-0.09260087009340284,-0.018411544172385157,0.024756233905999275,0.027986253974604934,0.015382611633837376,0.012516617026951884,0.09876345041607049,0.056586640111910266,-0.01923628860063714,-0.0733571579157578,0.05685905459630967,-0.0054783269167053665,0.029788068443374508,0.0452620739466317,-0.030098435057630005,-0.05973154931578855,-0.032115654429306334,0.02892488862938208,-0.05438865891380503,0.05880460153141247,0.06129789028542463,-0.04675810562002679,0.09735395527675456,0.038604748751894236,0.0449841432952662,-0.05823792398271267,0.01635551386397485,0.02689332793688193,-0.008688546377520366,-0.07330119828269119,0.07806721032836937,0.10206588332809861,0.13879458680909396,-0.0979495730804908,0.08527101813709347,0.05268465964935099,0.06486108333436004,0.0354868528214477,-0.02199894257619045,0.016022123281959788,-0.02971508634561998,0.07989336799739935,0.08609173841624554,0.09091482985304379,-0.046512078100417104,0.09567885572565862,-0.02621145042397365,-0.01814441748934192,0.01932188790866213,0.029036374442521117,-0.1717983935764741,0.01452412096196249,-0.019576773313675626,-0.036563370760816775,-0.050046731748894464,0.018798555228690356,-0.007022198360749966,0.07972685255963162,0.04456376428777378,-0.01948425794449127,0.03856919705147549,-0.008084778489896652,0.11210665975088446,0.011524763687639147,-0.05775460598678668,-0.03967768512878093,-0.023696677853398893,-0.05419326325682743,0.0704076313383903,0.14684656832210335,0.017607383009851253,0.11023259947086972,0.028240675058495774,0.006270891859785258,-0.07741935285857138,-0.16720206841359436,-0.0704066712132578,-0.031544330069538766,-0.08379882955017086,-0.07079865129420954,-0.13079033397525722,-0.014494442208231184,-0.038028567987097715,0.1227133993055623,0.1267046640706532,0.18829239357440405,-0.031089708854654556,0.05197124893266688,-0.014977246329787534,0.05130625343165493,0.1928023266702977,-0.14507220578231206,-0.00922923875464651,0.18991280816170256,0.014666865714553438,0.03127689131556955,-0.08618685250766538,-0.0881733444564991,-0.07062678303127579,0.04759961068899521,0.14229261129630172,-0.0018825344072945084,0.047846487346698205,0.23080395580529164,0.046558571797036236,0.020874863466986106,-0.032951485726276174,0.005667098693184362,-0.08547405219189526,-0.07687291201455405,0.08951302691562908,0.12725388566459095,0.020896724377621637,-0.016382311758946538,0.057206101762328244,-0.07246077710900921,-0.06923083250376547,0.04922162665811124,-0.07852139659103596,0.06900463910238315,0.15173569555200714,0.012276108296759474,-0.011980285476408014,-0.03703645520692689,0.015934948285643503,0.06959758418401363,0.10772634576950432,0.021939891987698728,0.07568481835829062,0.10193544798774942,0.13431701161299014,-0.027225390025191056,0.04562516878646147,-0.11600797564274504,-0.10425973976359633,-0.004619751186374094,-0.09411100566487084,0.026682809201322575,-0.06351220340942526,-0.04184131060607235,0.029613910538966105,0.07243072755169142,-0.07197556420620746,-0.06014548380048808,-0.01133410004410199,0.057809978307408236,-0.07329310611597036,-0.009041523174472453,0.029996628167748274,0.011341363482773535,-0.1456814987031955,0.00658241574388466,0.07695515625332959,-0.00859113340827369,0.01382046292645752,-0.034935474920566534,-0.027197334426063285,0.008226229451710738,-0.1411885650912999,-0.03352336415043562,0.05882580972852829,0.03745405586459011,-0.07510266039325574,-0.12536388327834694,0.01642703762549542,-0.09973649334839427,0.056684708729654094,0.19083583331123044,-0.03760979320431051,0.08351949029973371,-0.12076292513695201,-0.03969629336131296,-0.16252322668452326,-0.05881264631964362,0.0805048553131056,-0.10393250814263952,-0.020231850291737907,-0.11497379662443023,-0.0991114210694408,-0.10820806510279898,0.07986854334386483,-0.007301377164613645,0.01605443874350597,0.016862057183464174,0.02429566149775992,0.16618883340872984,-0.04746529961440455,0.05177851878027958,-0.04722675639184717,-0.11737249226910607,0.020455484263250143,-0.054818890503024284,0.02566261548513719,-0.06369998410255999,0.005029186240660003,0.021250361939502506,0.011981857767569474,-0.049975511575545105,-0.09118927284162916,-0.0016821808734008156,-0.05887249081537425,0.051450883725816854,0.005822972765740277,0.05465936986558078,0.04784350527104034,-0.048018806274774915,-0.015185572296756199,-0.19686358738696633,-0.019764058391306336,0.06350324067392916,0.06550648046545225,-0.05725473343547046,-0.01236401220815413,0.06384089484508669,0.063487015104425,0.14002437123144124,0.0682624679432004,0.027899417382296288,0.06339170067633436,0.11085990031268894,0.04978657400903696,0.018081794663959698,0.13710145331376677,-0.10886547740747755,-0.06244363991444461,-0.02148035259493796,-0.020882138624096373,-0.02326203511491179,-0.1048346466964709,0.1256489345612097,0.1123715074987036,-0.0034633864496817334,0.11844019138714293,0.008948063221148352,0.02869267073704213,-0.11611253539516285,-0.04939192110998239,-0.03206302576632117,0.001245666700805542,-0.011868137481567453,-0.09708489549749287,0.013515475647566009,0.07672117725706594,-0.06635213696618088,0.08983372475066297,-0.11673202603057997,0.02951914104285312,-0.009387349703385195,-0.026722611804827014,0.023147387939187403,-0.14938910436370575,-0.00219618757044814,-0.06391758791043757,0.13598310380501635,0.10144412757636556,0.17537450220961062,0.033330676792247015,-0.06216707490091285,-0.10749277755640345,0.0013431157374638849,-0.08147691893122652,-0.052503160743523715,-0.05042566844898409,-0.11972959627995541,0.0055707677714151105,0.028762996405658353,-0.0237416755245225,-0.017413879661294467,-0.0850377478115569,0.05066126801237319,-0.04646441993989208,0.07085970692137195,-0.010049751150829208,-0.03135883651220915,0.08097889096995517,0.0574360977375615,0.03222304168057087,0.046595503722894054,0.0148135828266215,0.04265213392006013,0.06918705516447814,-0.025713483688995058,-0.05724847761895756,-0.008149125885228689,0.14058036188747347,0.04370662212875858,-0.1695250188314679,0.007432151292194785,-0.016609788531603706,0.11070957369670688,0.05518819154310576,-0.012771260254126459,-0.08023458134502331,-0.09176083291314727,-0.0823539435834701,-0.012463260405786908,0.016343141349443972,-0.013853726984487615,-0.04722453681247231,-0.0634478353996495,0.006900738247817438,-0.04168441328610455,-0.13131235208027775,0.005383289529609197,0.06615555028746797,-0.10542778473717776,-0.05614550579598647,-0.03976728996455271,0.038067063973383435,0.029820232422906063,-0.004426810452866202,0.09949589671583556,0.013698014031404594,0.05556781618481443,0.013284706519995202,0.13700419194581578,0.047910431982688656,-0.07391108665267049,-0.10461670508548732,0.0035446870457359206,-0.04618194936870752,0.010174923637525686,-0.02523568876519623,-0.10384042658121778,0.002157484496255514,-0.017354645960827978,0.07896391853555236,0.07604947105532195,-0.10957625691784352,-0.09470489821941512,-0.07088707632416537,0.017280031901829453,-0.04821733125723443,0.1502715341701213,0.004452148223412174,0.10977866861228441,-0.07455328218475032,-0.026556106064823483,0.16652127832191235,0.09482476956406963,-0.08927723834468237,-0.01665847718998272,-0.08892071542424566,0.053253820840638996,0.06194865485228874,0.008666216566968024,0.06457914132983698,0.001538835012529857,-0.02422982411228132,-0.07933947048464102,0.00523672756269785,0.01680514827286689,-0.035640473144055114,0.001681022284344909,-0.13577823652337384,0.08720360108207569,0.10419655465158106,0.06423219121246043,-0.24619836652318258,-0.025845331150461566,-0.04079430382658283,-0.07791638845582644,-0.016724272038232842,-0.14715596616324222,0.06233150055453066,-0.06870054375440551,0.14992248722010323,0.09867954556442425,-0.03671371872218148,-0.1511277628168585,0.028685007049778947,0.008761786555780844,0.01329617471119334,-0.13684293080945995,-0.04678239832846587,-0.0064193024484536,-0.02811690109582131,0.11559138375394278,-0.10437125570121292,-0.017522526558487864,0.020554690959454534,-0.05871642213356602,0.0025864912438843253,0.013927927012038533,0.06865233665886356,0.11906832403369953,-0.060526391176111916,0.013980382130947593,0.06438038899628384,0.011885793565232169,-0.022677594230804614,-0.03721469499347983,-0.03883643031791365,0.055668908158848576,0.04088652013048916,0.013833267589118573,0.022327707440163908,-0.04311107127474477,-0.04449365742672119,0.08327334819616612,-0.012912453690730763,-0.04085546435650894,0.06603739925109173,0.08610661001816729,0.009500499923119812,0.020276661088514763,0.001918906444403501,0.012061265156892678,0.04288740695270561,0.1005408830097567,0.10893364288014631,-0.15723405329495366,-0.02103782918142432,0.01683424743513439,0.04976967090249458,-0.09579882546521247,-0.22062501854513952,0.03124909632506135,-0.0016895323010585929,-0.06441789635513842,-0.011644637762930145,0.12553295070737722,-0.03631314264486205,0.04270547856634597,0.0636350759093059,-0.13580556051653175,0.046117779451174026,-0.04244495381217045,0.012790527480023262,-0.0017645853655993094,0.04432851927514098,0.06629754979110296,0.011463091657994948,0.04413000918046285,-0.05812712449937299,-0.02185946876996949,0.01645028128011906,0.10560853755666656,-0.023157290393559262,-0.012172939808603553,0.057554532218025624,-0.015706768007401256,0.04685681437679649,-0.02687024921918239,-0.19342920812652276,-0.06984857955575706,-0.05954414263113169,-0.0038765740829200587,0.2059041727142832,0.0565503180803485,-0.05948802386252489,-0.021230782124560983,0.07963078557875042,0.07360437174985009,-0.0021472971809214105,-0.09672096069191177,-0.0014795945796781556,-0.11865355508116102,-0.05541253485309621,-0.12307112147463262,0.003730723703951259,-0.00038503598345336317,0.12045047411640358,-0.09564022308163923,-0.012153278842658783,-0.07605044404506352,0.04734859848407036,0.026854597232644658,0.058389881050846165,-0.05476701152095445,0.04603606203050065,0.011656453298389905,0.02539165248621,-0.08609682107427838,0.04557070514155369,-0.09129926019012938,-0.03937575693411273,0.054883398173372296,-0.000494715527794794,-0.03845413367697634,-0.053256608569599524,-0.057083432649618036,-0.04509128943044084,0.06028941510023957,-0.05539067284731749,0.019683462487806135,-0.06335580422591959,-0.01789079608245283,0.000520283696094891,0.06451031905985843,-0.012730323493566828,0.062028174088188906,-0.14540800706708423,-0.052561804363154836,0.03391463804543918,0.07406127535797305,-0.02408486250395833,-0.05333072659194062,-0.0344433182797431,0.04914296372640755,-0.0665190491240032,0.015177417705019399,0.13285112673095303,0.0996267850265403,0.0589471803947604,0.04250622740233246,-0.04053097271498769,-0.0696304552611554,-0.03349331383190271,-0.03282603620925766,-0.03817364467156538,-0.06290245245052306,-0.048887894164972724,0.0021419343399942544,-0.04218792730839466,-0.0006178214257118837,0.03807475592215324,-0.04539777917346799,0.035174076753856545,0.0076202670557155685,0.0216385307782341,0.015202661004697502,0.04420403691347313,0.000795116824892678,0.11244555138062268,0.012925804460390126,0.0712599896351967,-0.026490746122593955,-0.0023927433149896035,0.08117652692012158,-0.017217436335367327,-0.01720768353074929,-0.15362110461456666,-0.025988796072866707,-0.09515852809604435,0.033021252394045006,-0.10148040232327793,0.0014062211965976195,-0.04601671652101413,0.04364708079803894,-0.08297424938379613,0.06813127174472669,-0.02866283784039877,0.05573349202475845,-0.06078721372230669,0.010540579617328927,0.08009854234868946,-0.032652823609613614,-0.002166603503600376,-0.044399174379369764,-0.03997368015879451,0.05215389626851577,0.1449233562542757
0.14099707552289767,0.006972618683622188,-0.0025282589256815746,-0.01378094794205957,0.04855619184359047,-0.0977604591883855,0.05419270332524029,0.02797793993770782,0.10869888992439641,0.0466244861368445,0.0034425076709428347,0.10676163319570475,-0.09112593176440409,-0.0160505264550311,0.0047176593000011376,-0.019663094534283186,-0.03435380430088429,0.010027724760598633,-0.11602563758801732,-0.002329863798443623,0.06715117456029004,-0.05291842332952392,-0.02445757680372379,-0.0672278685811443,-0.07179981310342229,0.008031180427572648,-0.04659949327275156,0.08219034682883467,-0.07142225168285832,-0.06076044946524611,0.0018235337136149595,0.045763439268507136,-0.01619687026612899,0.09423046031660778,-0.05685171245034696,0.06160706836370035,0.05975953173490389,-0.03620782747802075,-0.05547760287398409,0.030342869079454562,-0.19339748879629218,-0.0691268452755317,-0.06790897730249876,-0.04253382215677722,0.05398012029352557,0.1289327276154684,-0.0647738054069038,0.026302798562699306,-0.06775972386127535,-0.0014971648162507136,0.10147091278443993,-0.05808783990730245,0.03302178635537222,0.08775701447168077,-0.1126767591174074,-0.12382930548259335,0.09921029778228316,0.20394849055253014,0.05640619426990785,-0.012325432850660343,0.011681744197574668,-0.03885809953564247,-0.03274573638772656,0.042379006955102216,-0.04361871112759855,-0.015445564189363723,-0.05812799432558919,-0.05755961874893304,0.007612968126833762,0.012148268441735268,0.09614472073899355,-0.09427925236879714,0.07579159676124128,-0.1031199505662693,0.12255257521509508,-0.02436140564743454,0.09527218798120338,0.09990377856424851,-0.13384813578926827,0.10788755812573131,-0.0058414798201177585,0.021268834716436105,0.06965575477412192,-0.06824988417732544,0.003336341836503233,0.02784773205549975,0.018772574007051908,0.05725665212389599,-0.13099625244848725,0.007901023319549266,0.10344760118907106,0.008516952274933999,0.08284229854974365,0.06754519828677255,0.06556081107547096,0.14749933848633803,-0.02713447505994124,-0.0017775131723978127,-0.11066141655987015,0.06870874084175028,0.010255885822324517,0.06643421210043697,0.021733892518065533,0.03779163913726531,-0.07851740513569903,0.052919787954448856,-0.06218522545898917,0.06726690042410527,-0.003278613747925521,0.03169960684857438,-0.06350899419713571,-0.08814986972571484,-0.08578633250519305,-0.05959965431021775,0.010941169846264078,-0.011204935025330575,0.15871203631108852,-0.14430144067338044,0.05504881484247804,0.05019899573188531,-0.030977494298879214,0.042171479670516446,-0.13508977455432497,0.07060608042373165,0.08911397514468414,0.02641165195459578,0.012747478537834804,0.12172603039203564,0.1561698781411378,0.0017675720162967684,0.09158024227262336,0.010223496119940629,-0.07332675921402045,-0.0820233054406277,-0.028415022087274585,-0.044345240621531785,-0.012313513005716337,-0.07803928970579402,0.053029390551470545,-0.0006178904992002515,-0.0935269908150558,0.02307088931039307,-0.035286254976236664,0.007559286668612241,0.10052519372244823,0.05312773432441991,-0.07594740275641468,0.1606565191749111,0.07654142742690832,-0.06137294562976131,-0.1051909659856534,0.04848656789177858,0.08266817842287548,-0.04671437518874244,0.03622713983908625,0.024771190549210526,-0.02007442422761234,-0.10964643335589071,-0.005613253991199033,-0.030033565179550567,0.04787702831901117,-0.10513818588188588,-0.05230241900057653,0.04307163726458307,0.02337278666329877,-0.1150695901566973,-0.15909189156070083,0.06340241500438379,-0.029098612903998476,-0.05487420092768222,-0.02159505674389748,-0.025428914191948218,-0.0921397648930078,-0.12176885812524606,-0.03672335887880886,0.01651996535272667,-0.003340656065934252,0.07994201165267299,0.01923084365407119,-0.016661771127318505,0.021192923470013527,0.03261220154716107,0.1540610949025879,-0.0443953858306764,0.034059887745296835,-0.016965464051339266,-0.0468339067534574,-0.015261631348752289,-0.044952519494448166,-0.08478831521895973,0.05220687734172122,-0.19392658260285703,-0.00879475726340676,-0.06536509552136727,-0.12278702065176553,0.03034255545212266,0.013682733444533876,0.03794457866562095,0.04464618953820355,0.029019428208346954,-0.05440750396184253,0.001239170370520179,-0.10694111864749314,-0.0383520903441042,0.11970396498097151,0.14946348547990246,0.06229856637122014,-0.04795831032392046,-0.009893187768586052,-0.14394748462430276,-0.1712120435147668,-0.10761822756560091,0.05978770492683343,-0.07502576445216903,-0.03379193057353073,-0.06647136105503096,0.006259092356383541,-0.0510381684097707,0.042566256913667104,0.0833482041364688,0.0009988165623988322,-0.09248860324083079,0.047902076245149326,-0.08425477671813517,-0.06555714832425985,0.04941198012299215,-0.029756042808775536,0.11503002965998955,0.08416619876725027,0.04324398200878359,0.07491041446801171,0.029885929717955388,0.07942200080556625,0.19005341671216783,0.012460059717449339,0.04872155396622445,-0.09577792840229044,-0.05006445301503597,-0.23075029632544347,-0.0287401400536189,-0.00254854673297468,-0.02926631084995873,0.022362585630332988,-0.029036624479138375,-0.12373904507743635,0.09456381955013958,-0.10338662728069462,0.12370185123750634,-0.04117902139301847,0.04968295561479247,0.031006822027441677,0.04074787374100635,0.023751445483913933,-0.03549691987189803,-0.03869756248644003,0.07519309149033189,-0.022710720130120127,0.06062219443245251,-0.0291851684280202,-0.01693819711947521,-0.11445427247577546,-0.039017706093911655,-0.033481075884166905,0.014890061986759592,0.06083857886954597,0.009034294408056302,-0.09565706987852153,-0.08156718715974426,0.07855669162588862,0.07925703078149349,0.08145659111551676,-0.04022494899167945,0.021771970847180397,-0.04298128235078496,-0.02146370669866101,0.13788222231126296,-0.051691213222233884,-0.07564177501368646,-0.023004104161239665,-0.1212065511656295,0.0388230141371338,-0.04995063631955951,0.023842598980654182,-0.047630074699506586,0.03968426679176953,0.08245165776828416,-0.04641947164753577,-0.03262283433601216,0.10444946009945479,-0.08741200138888723,-0.022440909462280972,0.12314623307465175,0.07759811862582029,0.02546401260979111,0.04797962424484134,-0.22191738109970055,-0.00672291508128293,0.14090019684922975,-0.052027251649825114,-0.08122043041089103,0.06693975952641575,-0.02695104527243866,0.04628258390188062,0.06236391055595739,-0.06011203945963903,0.03822882936442468,-0.04669673930761659,-0.009038368533275299,-0.008470206896890447,-0.06314298324558504,0.0924582191025961,-0.02826286259843621,0.12409382502954265,0.14263569116475378,-0.00789429670439619,0.015790884438215042,-0.051098178023228975,0.08595096564476681,0.14401974701839948,0.006421340392428772,-0.12286123800050704,0.013076425720234063,-0.09150115121682903,-0.005635803808702339,0.04028893899965871,0.003499315507769544,-0.03702608630938482,0.06099996601017354,0.04018305995568731,-0.11539866146638673,0.05499226084689233,-0.08454884102010418,-0.02099730935727344,0.1021257079450632,0.07963060244839001,0.10608324005595096,-0.058954200204493386,-0.0011405305322612234,-0.05561888110428482,0.10791508733439688,0.002290769477495809,0.04849430075711212,0.04091484935258855,-0.03730979503903222,0.06036405177232578,0.0232297232250648,-0.06979196713603425,-0.04491094188669084,0.00013035204923541016,-0.08094482449206512,-0.10074261135866412,-0.1164133532655442,-0.028128961616540896,-0.006124772113419122,0.09629293028661726,0.05443057633684008,0.06355306705216245,0.010939226215031067,-0.10439465635711585,0.018555132398861553,-0.03971952753706869,-0.05030232341799784,0.021496278601770606,-0.03308872960726009,0.04297954157031173,0.09432311007994063,-0.10132834246315972,0.018092952161243993,0.026500591122954678,0.07872011624945263,0.05413830011635443,0.005388139363854583,-0.1480890300062489,-0.03984171158020671,0.08457516522917727,0.015330280100596347,-0.18477946063834844,-0.07712775087565792,-0.14089026135802354,0.02287234049524819,0.08508900120347938,-0.010358623135088523,0.0772234217081143,0.17865405470366894,0.07064364055864893,-0.029286249634162927,0.02474787094278192,0.1387295185069396,-0.02468550074316094,-0.057247747661040876,-0.07494893974058,0.01916736347584956,0.028668233002290884,0.0001728958834148746,-0.017813964166115574,0.01935449756544748,-0.01518157239693569,0.0003716837529825573,-0.004111408073126155,-0.007288843790325844,0.011137259890562502,-0.06041953336840587,0.06085579959663002,0.033521894262114695,-0.0744296798148012,0.0720293478196151,-0.027085835671274084,0.14704011690945626,0.02771085801718989,0.057006360272419655,0.09297803767340057,0.033998810002597836,-0.004489466294610254,0.04176495707574032,-0.016052659215461906,0.02316180676297455,0.09943497821550104,-0.04542740269555304,-0.10153866144201731,0.02602433936693658,-0.009028929265816594,0.014378930984629825,-0.06662186248870233,-0.005633021959716169,0.19330037942230444,0.022978154289485984,0.05799014960125259,0.13478182341887415,-0.029170793758983814,-0.05913234586618705,0.03906786081109126,0.10061298910209773,-0.048027646418822144,0.03440388695478227,0.04558370731409571,0.11292626714803135,0.003744503538123881,0.0961713557989386,0.039079359844171366,0.18140858365921148,0.1549760370341308,0.17086868335158398,-0.0006980283103625515,-0.006372913586633808,-0.14800744179684758,-0.08685562567199831,-0.0025751522168813326,0.04332725339784536,0.036401303118327656,-0.027359395029875756,-0.03959124160244782,0.11511605222996343,-0.009930301884228403,0.12559412881041984,0.03941896350703096,0.20299073373475693,0.14248385196258495,0.0590892408547205,-0.014554435853194232,0.15500105818824936,0.11189618460778436,-0.02629047095335127,0.09402866798252886,0.06889430736779298,0.050535659243770945,0.004824935594736016,0.046518387724566054,0.002291183255651579,0.02705474139026943,-0.09809697022984067,0.05883770104017061,-0.009523717052817843,0.07593339113564339,-0.1213933067330911,0.05796476556002038,-0.0269205634631665,0.06453559973064801,-0.039186452792942174,0.03005078085423589,-0.0329607347456274,0.05658585946275559,-0.12984365609707532,-0.026812354435250204,0.04154240330020828,0.04427651903084724,0.09646010231484946,0.09699947870351017,0.06835492123888787,0.07890576282298187,0.022693263135968724,0.1313472432123963,-0.030287337645765654,-0.019934482928904183,0.09083443513013076,0.026153809352857986,0.08998458509529426,0.007766643423787469,-0.01760599730743829,-0.08446515584720307,-0.013241994121678355,-0.017174195102523996,0.002534173474430888,0.033319730410480086,-0.027527570915291684,-0.007759146795549877,-0.04143508706912018,-0.02109950337970567,-0.044932062770693705,0.043878569916659914,0.00919895262632423,-0.008178701744124682,0.023866744636220568,0.01896674912325712,0.08657621619017838,-0.02412695749992293,0.08354137721656425,0.011576052930785438,0.0314115353020146,0.03371390759881693,0.08652726694934323,-0.09410172580624503,0.00940918772341572,-0.010292427341458868,0.0343440912159253,-0.06309838560837387,0.15311057266091324,0.08928913785633845,0.07840068486747305,0.010158758790416538,-0.006398058496261537,-0.010580396837851143,0.029649926391930405,-0.15365590446745156,-0.12176822099259682,0.018841559698494333,0.11268068236903445,0.013756973171646078,-0.0029080165523824426,-0.014525100775875417,-0.03548393173119581,0.05359122288042107,-0.04566183968915542,-0.063701914735889,0.1032223713431577,0.13411557058941784,-0.13021462729725408,0.0039674264030028624,-0.10117614855468139,-0.02003885193568288,-0.037522724619603966,-0.02078297013317019,0.10371272606809598,0.026702759028526042,-0.016476591802005693,0.010783281027685943,0.004129966288231408,0.044572901255307,0.01966277584051139,-0.06991464127299601,-0.05544809908966035,0.06093826479961474,-0.06525101130463812,0.07833049328347216,-0.06485073674875241,0.12550743311755044,0.039109513706642916,-0.11316809635208508,0.09606806894077773,-0.0924603249776192,-0.08680652623289871,-0.04028071837157538,0.021127899432981923,0.006745708661991088,0.054526258310805556,0.004547866972655583,-0.008393284788757949,-0.15493402144939267,-0.02201881295804039,-0.05411918220043853,-0.07025463247518891,0.1335412698402982,0.02902288320851135,0.04882184892426051,0.10228513593446957,0.023382073074767865,0.0610666761620036,0.04392808036868652,-0.05425317842218325,-0.00583401997237191,-0.010315793762756495,-0.06776117435657067,0.024225511404300376,0.02989531880415916,0.12468737886296853,-0.06675860589943085,-0.04044824225223662,-0.027693368821123113,-0.018444404618956516,-0.011225636176139125,0.02792627828712306,-0.10156068365946772,0.06981533728076907,0.0927993972313967,0.1422744396628066,0.08240984141515215,-0.05578923315799493,0.025924150668017586,-0.08284313605641541,0.15503355894038387,0.045982589203831005,0.11650832866501393,0.04514193052475358,0.07469883097038754,-0.017197813428634377,0.04751470204491417,0.08050753348669049,-0.1364312525108873,0.047661656055446595,-0.006567125519509231,0.04588914263246732,-0.06481956566704046,0.019510190758739044,-0.07827576225146472,-0.11231414311370141,-0.2534519015623586,-0.15346799053399196,-0.2230334213344493,-0.13347330485144052,0.017157293915592935,-0.1058018652939912,0.09301929277372194,-0.03915046474890851,0.01314071639826245,0.16298038861652414,0.09808214209097056,0.06087364770717279,-0.07852296657356475,0.003610098014146519,-0.01872651092891926,0.006216594975116175,-0.09442577575587788,0.0028908628594936574,-0.04740044303213404,0.07474711226191663,-0.1324252126350732,0.10650937354744658,-0.02493943208227467,-0.011102794811742827,-0.01964034207686255,-0.0350805157626977,-0.07662204506717485,-0.043890827523927145,-0.0746293765452043,-0.12491614445996523,-0.10489103392702863,-0.06399975994079288,-0.09358902612383624,-0.11223793307789927,0.09837176247516989,0.07342811755429793,0.02095634814972707,-0.01146598879226829,0.10533058257457671,-0.01952564203016951,-0.029013917392723347,-0.08311878599102106,0.0056141326715509485,-0.02783676313097566,0.026601828540724876,-0.030262995977942048,0.05400189776082001,0.06927355136802454,-0.048720432278451284,0.058120209273559445,0.044328105890956836,0.09443686519511182,-0.1290482221824218,-0.08015984918731052,0.009296642068939626,0.06675275767901524,-0.09781252703349701,0.027175542915210633,-0.025757172992580638,-0.1283444162242999,-0.07482732356450089,-0.02646454523087745,-0.0491847571821095,-0.03647955123559498,0.001935076947173239,-0.0028947846905564988,0.018654870051890992,-0.12716857852093036,0.006771766409831026,0.15646106948086697,-0.021941272006134202,0.02486034900074917,-0.039937167784576545,-0.0517325499314193,-0.12257182149509449,-0.03125916376913726,0.008253604259640062,0.18299288057638466,-0.010884768972231436,-0.0984123043058627,-0.004772885781280456,0.02019131345878713,-0.07679778769353604,-0.06194306070000234,-0.11510339957563363,0.018164256752717656,-0.08959489927693895,-0.0027280167804975865,0.030603597269072327,0.1317160497380007,-0.001140605279994499,-0.04665185112276591,0.0518072802929595,-0.0022425002666047796,0.05827098605231756,0.09579221452723743,0.021776924827505376,-0.11195615093835695,-0.10138743934014141,-0.05220896551493837,-0.03806172360829936,0.10926008021489167,-0.05195613633057835,-0.018538930947750498,-0.059803470282669975,-0.08531094306721806,-0.02479740736589215,-0.013203417583096828,0.012723658214429464,-0.004480917137693644,0.03267801111439364,-0.021619270225929996,0.03345056809255545,-0.035412716954628644,0.025338769373486326,-0.084317768477234,-0.0125448647843934,0.05061101013124276,0.04441584147445115,0.09090921922090438,-0.07253407368510474,0.08241283891733768,0.12509625419240086,0.026654076006103138,0.05587437800598984,0.07265697471153967,-0.029267637377895915,0.057104563873574966,0.012818090318457745,0.025191415380139193,0.13272612776149204,0.039268341472641986,0.0976240462323224,0.0031707439541946666,0.027867720638953347,0.052884484824863215,0.021988598462147485,-0.031340507665978026,0.16074623459293355,-0.06996228534779166,-0.09719950712223659,0.08601118640662414,-0.026781720429771907,0.07222380211330837,-0.01622841373598234,0.0013909135483761977,0.062052447929642214,0.0006387129465449807,0.014940220313307348,-0.15303813551207376,-0.08410162532097828,0.08415788432233337,0.020215782529394162,-0.028823438058959767,-0.1107095116346258,-0.050785585131679495,0.04699700588590012,0.009541937874978335,-0.03904273160799092,-0.0143633738555084
0.008792072508547966,-0.10164168389348416,0.02452190629748227,0.027332464712599445,0.1462946172395903,-0.07396638351980757,0.06585258555425237,-0.11188276995346659,-0.036368937179837794,-0.02051776464367617,-0.004261225077559778,-0.11432395834121839,0.042641161972386946,-0.14146896118949817,0.05398189764066815,-0.03922835788348823,0.07221196431962873,0.021412790347056877,0.06156670189820034,-0.07493229010233163,-0.09221361328425574,0.10870754913708154,-0.02899336370823244,-0.13818267853715518,0.004088620827264608,-0.08191384179090154,0.07721471201006871,-0.07955029800628712,0.0070067777243713,-0.027686787585024672,0.016409120804988124,-0.10831004369628891,-0.04377992006327931,-0.13899332893247404,-0.07517810030387699,0.11763566938465425,0.02233492875547769,-0.04374900840411556,0.028784827403227284,0.014320928671258514,0.05100694358050449,-0.08562907934879589,-0.15435664536607163,-0.05724217964255225,-0.07007128614552388,0.07074375085895968,-0.08848343714740976,-0.01822724542607155,0.10944026484102756,0.15510062409029904,0.003800299204539137,-0.037175574352006725,0.07177186872896824,-0.02581333505399852,0.012235143163695103,-0.028973992519579425,-0.024333139799018952,0.005398637709428881,0.03597148314034511,0.05286651788401064,-0.08467099597258361,0.09519883696705835,0.014553967560560082,-0.17053431873363478,0.018667182214342833,0.02550585510413607,0.016197867168292156,-0.017337360386109994,-0.021615872672310923,0.04042524551593111,0.026496643441044226,-0.04342191666657405,-0.08985843860100456,0.07196237412689117,-0.11859919870876562,-0.09268330820434457,-0.006449853275581436,0.09372753987598832,0.04177040177125166,0.09283431733073035,-0.030029496805655462,-0.03410502565911786,0.08232681193569634,0.005218712899863017,-0.01901636087023239,-0.008551466736397832,-0.1501763746688637,0.10400784201063938,0.05656411616310376,-0.03714485779445754,-0.05290318925249983,-0.042757268133300455,0.025072509096433958,-0.013263723952263412,0.05601732894189213,0.1173364926855485,-0.028841771430073857,0.05340394470509066,0.05309780715390127,0.17043220926398242,0.016054490772553876,-0.04705552654274882,0.06398931046214261,0.08007869805342527,0.08912808048519506,-0.010526584758882462,-0.07606615446474904,0.038787587633815956,0.24002518691079663,0.08242671640960006,0.007801680935858919,0.014079401769646602,-0.09252579072637322,-0.040591103892012585,-0.010853980775658491,-0.06531271372688724,0.11582792919161333,0.057093351919380766,0.03190674755406614,0.09233622177475213,0.11007308924234166,0.008000599896621432,-0.046223206248156096,-0.20237985770320532,0.050982347677310205,-0.0559386052819591,-0.00294977618962119,-0.05789955546380368,0.054368442057308036,0.053921884675328616,0.06490155608942219,0.012821721289522034,-0.013906388739741472,0.02648210921353083,0.14530539323257258,0.13315784815335963,0.06544259689468088,0.08590510162426461,0.04235794331235182,-0.08229153622016312,0.1397634856301855,0.059014453197752115,-0.05564147798189295,-0.04794558157855282,0.20438160571349892,0.03894518457098863,0.021582727748523368,0.07731226580796963,0.005318299857155396,0.10273709578370019,0.007678389675752672,-0.014845892027319394,0.026726028602427596,-0.01420699943035584,-0.07580535915022407,0.18046150643848158,-0.04808185020454083,0.09952538988676454,-0.01513422768727657,-0.022093709575532364,-0.03860048293542625,0.09387060360774092,0.03085121578558649,-0.11355045656342255,0.01255868185473899,-0.01850603977441341,-0.09801559836162461,0.17625428290451337,0.04510645259569765,-0.08453748850144885,0.040126543611310586,-0.08956666328138674,-0.19240731143848655,-0.029625445340999472,0.08321791039523904,-0.08814785835705369,-0.07852602347253176,0.048844530425558516,0.04439959800905396,-0.10939392119166517,-0.0647484271299145,-0.028673726129871607,0.1077970225053118,0.17047165442085369,0.032555653897298295,0.07488959154543691,0.046765045151526005,0.0888766145889345,-0.2508409826581316,-0.04753433340267112,-0.05113107992781522,-0.03403367996627956,-0.07207717170049935,0.09538308038852986,-0.07900542619210976,0.016738051075601265,-0.031097691018080183,-0.08425450773451858,-0.041823954284144184,-0.012549935392422346,0.04702716551835521,0.040081355037481066,0.14290061723655023,-0.010518669909752896,-0.03277082132623395,-0.009591213892281434,-0.07875351567109191,-0.12034674278329831,0.0012285331292525366,0.08224020305760317,0.13556534441923843,0.042212315322594854,0.10887977537697736,0.01510125020966759,0.02428247736249153,0.13312741132831046,0.10163464547569129,-0.025844754630162708,-0.03389934756446392,0.003819741373754408,-0.08642002660300731,-0.02949391775256573,-0.06340429572569556,0.15278865851701884,0.07115161256005886,0.028466828440015815,0.10401045694011533,-0.1036205979939224,-0.07145495637505707,0.07398619974585866,-0.029925270845920806,0.043426488768245015,-0.1221352889219497,-0.1263421037959935,-0.08140855401690088,-0.08126711049037644,0.00281180013333385,-0.07253828901271371,0.05678801539175904,0.08352488198035285,-0.09942553183521398,0.03354926022910728,0.05030210224240407,0.0262784097524216,-0.11851062509357618,-0.06880311354922118,0.015859810391889738,0.019268939425181625,-0.022002369413284605,-0.026264192259989518,-0.07949344794413941,-0.013043651370093307,-0.01889902801917155,0.04452214017502344,0.001318782704801066,-0.14744180659654216,-0.004573097046628067,-0.03369565488387187,0.004546164541621919,-0.06723474754961588,-0.050314173298770616,0.0766912947899744,-0.03601147134742821,-0.061093169388818695,0.046760354626485395,0.08949153158929334,0.15193990074074087,-0.03135212091812913,-0.10886325988631121,0.06413565094435593,0.13061140552242756,-0.0317717653681962,0.0099526609564331,0.07962500541790267,-0.10474315934430353,0.026956500503650855,-0.028899709183187683,-0.016084289088190772,-0.10820433916870037,0.051179504490179085,-0.050334791278298506,0.14816374393918813,0.1056818020809671,-0.0629262685135854,0.07860826431431486,-0.08732424299198947,-0.02659475296607125,0.030578313487363833,-0.03448720699460143,0.0416015119996009,0.012075895183950155,0.1721096659988434,-0.04193896364514532,0.10443791103280001,0.12711344019765747,-0.04764192499912254,0.001643207131856791,-0.1564825709960526,0.10187325085960254,-0.05920994024041481,0.04878536116273872,0.11177810500839126,-0.044617349561216116,0.07189029363916542,-0.09514524878773177,0.03747820571862839,0.0036917017089999195,-0.011565572758784684,0.05197735762252235,0.08719945533497843,-0.05117034685166744,-0.008495745905688306,-0.04644644341677661,-0.05867532866901881,-0.0662150327843451,-0.08808245391001372,-0.014514971871916173,-0.010450963134519842,0.04434259691200431,-0.12707588791156466,0.04233835627959295,-0.18471598589790295,0.019240617510499557,-0.0191736951229036,-0.06501720281335337,0.045299856514231185,0.010947427648035059,0.16326764608697342,0.042250557297196886,0.03443069747407358,-0.049280370543366474,-0.07545237051617655,0.01686791803109536,-0.006226437292069482,-0.15321807792741476,-0.051486643570418995,0.07883577456168331,0.03032931741116625,-0.04764023018567177,0.07586348903773533,0.004578821066566039,-0.0237477601418311,-0.04786850126279508,0.022744205393055498,-0.03964531390820575,-0.1382781391943906,0.05933728869434027,-0.1579109541005317,-0.1576003379687283,-0.12400710514482359,0.024251386826924244,-0.22702426207949392,-0.08336567784483107,0.07433693706954456,-0.02346733730927194,0.09165108616674263,-0.04778886021520296,0.10478610150906591,-0.04358954454218161,-0.05297062354404303,0.006408919295372329,0.05528812755764735,-0.1245722081341876,-0.10705282449993446,-0.06667342416438744,-0.05769353602637065,0.14696598855036194,0.0800842049800124,-0.007556766385342258,-0.013001166357301523,-0.006782460931335921,0.021648564959904765,0.03865021019445583,-0.07302845909988978,-0.05292644671139969,-0.06491718448670056,-0.2335495203135952,-0.030013218921548877,-0.021892171770848182,0.14240908385214932,-0.0451416884342553,-0.0634693767678979,0.03629430951509881,-0.0944098789215834,0.08814822739942013,0.08130324154969462,-0.03804131294665623,-0.0791868504535985,0.07391012130493178,-0.019592165380935937,-0.01090243945488295,-0.08273258684989356,0.019988711726440428,0.026964486952087856,-0.07036116113582608,-0.10260759374925714,-0.0499778593781154,0.010108637489585246,0.08930540337632159,0.0007464953329141668,0.03786421843686515,-0.050764968531483996,0.05436800297728864,-0.11086869873515023,-0.03957077615617302,-0.04509402311678725,-0.028029884277280325,-0.09691613947950783,-0.20234239437464574,-0.0786385836969324,0.12731776915030313,-0.005287099217894561,-0.10097588133224945,-0.13915208629688647,-0.1505712351378382,0.09196204284125442,0.051310548638216325,0.04273112131596295,-0.008777175020512066,-0.07273234584331752,0.19629458965740887,0.06420331803738291,0.043946162342522355,-0.12124520510015736,-0.04239252463416682,0.041238890010189926,0.1304206585618086,0.05529964081712598,0.07127605170664887,0.02233225018679806,-0.12550594737765852,0.0027805496706023746,-0.0212404432568383,-0.05105242655452572,0.06532102286111738,0.038875281481720966,0.059038578630488524,-0.17803606152230922,-0.024488771760910293,0.005852990883747835,0.05640575012512881,0.039785753642285746,0.15240036344147984,0.013677477051838235,0.09997256670419244,-0.034712970104667805,-0.04003526643268716,0.09052382059407987,-0.03549696390506269,0.03130075655780008,-0.05274845117148928,0.01386266462193839,-0.043087063011900184,-0.05948607831962316,-0.04858739250369447,0.05612704661959504,-0.0016372181318764856,0.006132621691048438,-0.02832491081122148,0.15032878895995722,0.07000673943831139,0.08901881715849326,-0.10689297839805566,-0.03529052617668827,0.06567296801293808,-0.10286601175858637,0.04666993466658771,0.010914945405407906,-0.09730497153742017,0.05744687063031683,-0.03757674292103312,-0.018498838883769055,-0.021299616030731106,0.041276084048982545,0.06655616579410234,0.039739497450527024,0.046911850962627816,0.010238886049796638,0.14739181205882446,-0.16894201332538772,0.0075021108217256695,-0.0669339346876494,0.07152945341242803,0.07902883294794509,0.08426492469721795,-0.06594239332627165,0.15851046904079524,0.09551516569358347,0.04266295191151375,-0.0037835698193468712,0.05240711218114083,-0.05436880622605098,-0.021553384092140172,-0.008265199486758778,-0.16371759574569564,0.028881988526631184,0.007590813896025855,-0.07480312413195374,0.05975079838090078,-0.03266512240540695,0.0673333402741697,0.03714267017055553,-0.03001292158153792,0.24244239240676088,0.11640885373693023,-0.05702520261344674,-0.04537998467431866,0.03454889875412001,-0.027204648100648265,0.005062405897899961,0.027395417654925383,0.02499306519733186,0.10185544745267058,0.05978470111923748,0.13133078204330864,0.14116347991492897,0.21926913491983668,0.018833115118335176,0.014836272244155234,-0.10313839105951157,0.0348185042593878,-0.06407599881262067,-0.08916480559926711,-0.14357420521502384,0.05102441289795515,0.010419361500418849,0.05254760959833601,0.05598954747470634,0.06587539609508133,-0.032959406227931226,0.14079853053779764,0.0062171754402642115,0.028154780479456867,-0.02414616577156642,0.11096701248430708,-0.010220782760087529,-0.09242800279344653,0.06496661129517609,-0.013732223268754826,0.14741799556796292,0.09234004752903649,0.08965987763606217,-0.008009944336252904,0.18353440963198117,0.08177321825073548,-0.0017364932149648423,0.053541002855592566,0.12917497746828138,0.10103564980882568,0.022193176759119044,0.030601717495609543,-0.047536639022043956,-0.024946193092305426,0.005725214556103708,-0.04871136993218961,0.01862511070097901,-0.10409554745461438,-0.12543078855151296,0.005025671717197489,0.11181316836675857,0.06580669479211163,0.07540005907376662,-0.022166633269992894,0.010894044724021012,0.022623136463071403,-0.11243070676224569,-0.0015125800147023029,0.03338168834855838,0.05487310086476941,-0.011770233832814815,0.12297020356134711,0.04913004397506271,0.19028797600935468,0.16116132134528172,0.10814847016142964,0.09565812816905765,0.07651293274202328,-0.05438973895908389,-0.09557456262730767,0.13446781586398057,0.07069281627964617,0.04830718949554932,0.14143190429065253,0.01011669779597286,0.0039059118500102716,0.018370249173642467,0.10563888169577243,-0.02085909790857874,-0.009787580969934762,-0.06877737450010173,-0.0598322439285443,-0.07153983383907425,-0.004926851071260435,-0.0358929737401802,-0.019779487939085322,-0.04090209643170394,0.0486857600782109,0.04267334664410202,0.027246146129939267,0.05112553631232827,0.04341047556892491,0.005645026555528664,0.03301867485986343,-0.051607812557145756,0.0004768903916371335,-0.0048820194778023615,0.009663832492910042,-0.08407336338139862,-0.03440930211690332,-0.005450823442964815,0.010822465181971523,-0.05301431743717115,-0.1447026697878284,0.04117636438638719,0.058323448028010066,-0.026974623135822558,-0.03080130360290565,0.09504150281084157,-0.005067545250735296,-0.0011254004963811685,-0.014976202726055416,-0.12221407283051491,-0.0674383393905545,-0.0653035440743206,-0.14958298527670894,0.00320048964227843,0.009184005809283772,-0.14829991459693367,0.03117321275459976,0.1226217942221641,0.05760145234988542,0.07021883644824253,0.02020890488416499,-0.10512514102923678,0.08545550779760226,0.12108368217767257,-0.0392990101656743,0.08953238884560821,-0.03891364009649922,-0.045481163363196936,0.055279078064441114,-0.12490123320864874,-0.029876921581501716,0.05577439783092568,-0.010207014536581686,0.061155305911701624,0.07412943228367215,0.07141459255748062,0.042822650786940836,-0.04830228633447194,-0.06997631900252581,-0.048149132711067244,-0.12081233952007198,0.01805368919829717,-0.03535021509534364,-0.04540438421521679,-0.003741983219946503,-0.0520438491486172,0.051784055886814936,0.02884559817633564,0.03456857891307046,0.1233954906930939,-0.061651629231151785,-0.01600183565316576,-0.0875569738861774,0.09071023474019992,0.1597575395255604,-0.06063363964320221,0.01939848853075473,0.07769538653101969,-0.1303807466392035,-0.09139254896563591,-0.06795082779283054,0.056324145751892755,-0.06145975731749529,-0.06598626857986446,-0.09449676813792764,0.07155964101186887,-0.08627140247280873,-0.09890570317280496,-0.03445720089560494,0.10113946167968278,0.06811225435353938,-0.06811640913074457,-0.010037777354952343,-0.02965473509513671,0.0020312532875289193,0.011665951950739021,0.1425929247100564,0.04308076850080704,-0.03239383282589608,0.05730256344808086,0.01788567068476969,0.07726335657639576,-0.08449266326135547,-0.09794460954164508,-0.027489907387436216,-0.0704447956427652,-0.07121809981475587,-0.0035607438195321135,0.10184791196986473,0.0324697157023479,0.027333172667979744,0.10259898814636877,0.0488818601507819,0.012621225687880627,0.0335217681234214,0.025480227218110878,0.051627915312335,0.05136236202656384,0.013688112106591484,-0.10346371625053538,0.033132452985934015,-0.09663195740154826,0.04075845838606309,-0.0028052787520747393,0.002483851586720642,-0.05797244852588514,-0.0034428855160281257,0.043064299267871066,0.07358050078376928,0.06664407575154868,-0.003031450886156029,-0.006746271781887281,-0.061100751944061206,0.15121442235311802,0.045583209133967934,-0.08855819838814256,0.10133266230772084,0.1284375964128433,0.05113771345928984,-0.03800059332335281,-0.008155043465924293,0.06336342467175729,0.06857338120006508,-0.04485481289307358,-0.11377550417398784,0.05939796112321073,-0.00404194019642974,-0.07147411372245874,0.07699902047179939,0.07233536005775089,-0.16642288356241833,0.10769280561968508,0.045162067296027945,-0.006205689769100799,-0.06196411904072464,-0.028357804935513806,-0.040360623033318915,0.0031155040538390195,-0.032447633936814775,-0.01781578499919629,0.07214068909583721,0.03019965623247657,-0.027618200450808747,0.16659370131108334,0.034217597431531424,0.0805009078362904,-0.04350775644286384,0.023995732445808736,-0.11876825033603033,0.07581386167329762,-0.019552940512493157,0.1388231610761571,-0.09570016610664521,-0.006319813260036879,0.10393812450484724,-0.019932899949981653,-0.037452738320410496,-0.004328053857889727,-0.07484088071650886,0.10746421127369025,-0.09138502751072339,0.0011718202535120515,0.026805005949463445,0.04167848161931688,-0.014419668216530668,0.05911491656933286,-0.03369393361520423,-0.024888577866099784,0.04185151081977716,0.05338944674797809,0.038003491907566564,0.023228345123736907
