784,200,10,0.1,0
-0.06843668801783027,-0.041575020791912096,0.031219328304257797,-0.12593762728084587,0.11542881446252251,-0.006060183759844828,-0.029607046449686567,0.06629122442638388,0.10128986936599929,-0.11848221951854965,-0.1148375219541787,-0.09257694719875881,0.13851320228634084,-0.09143887048184061,-0.061127068763042115,-0.025500258791005277,0.024781161526093328,0.011683114089758884,0.2197639891386407,0.05294737183216505,-0.07327358776582465,-0.0883778972558587,-0.06380164572042833,-0.030933902574661224,-0.01319517982192211,0.04875328627195033,0.15052498279190063,0.07516383736884993,-0.0340585554346109,0.10856569254431137,-0.054618877523554765,0.02354917134006412,-0.08109391389361893,-0.04735211512358457,-0.014139840466949338,-0.12574917213907072,-0.06759626938141843,-0.05854056461873556,-0.044883485873922026,0.06901352634199596,0.03834583072125103,0.03435874494488914,0.0008798740665557571,-0.12681748713385124,-0.017737146128698006,-0.10993798496421155,-0.1141798725468307,-0.17083983182756352,-0.00941076358829163,-0.07744095695167753,-0.025449492252280485,0.048359524302786755,-0.11981258587572086,-0.08247439375842261,-0.09342316836881276,-0.008721250376226435,-0.004335523505555285,-0.023600829480025103,-0.15355695877234166,0.03777864649935848,-0.1502814999951754,0.03023552985337272,0.17261385219293546,0.008499598888390154,-0.21039193682849067,-0.05673813677134919,-0.13706319545616513,-0.09999132577703149,0.18345624892715448,-0.08991901327441625,-0.0941806267285365,-0.1193705117537858,-0.05281167516264499,-0.07068813264164266,0.09732697685789601,-0.09946910227217372,-0.03296796163050533,-0.08767030381577011,-0.03342294642561084,-0.03672407650900098,-0.06799937837578605,-0.005443818297503382,-0.04636938022050478,-0.05575983600328656,-0.06583299517595595,-0.03608891044169123,0.12285645540136879,-0.07201833438394646,0.03291903287640768,-0.11108304434724896,0.06188047214898089,-0.01975297469283096,-0.03337374345446029,0.29325964458959586,-0.005042061771302345,0.03504179127524504,-0.08210559829575453,-0.05185501843558985,-0.048003531585767964,-0.05871663714297755,-0.3120458314949209,-0.1259050132361927,-0.1893902332577467,-0.04808706278933534,-0.14262490112115248,-0.011141247106457468,-0.12725037603359562,0.004663494205691553,0.019781241636889126,0.04742818039710526,0.011420981877355636,-0.13580799633917445,-0.050078547417461816,-0.061529973608111396,-0.06879507959910977,-0.08197929953596748,-0.15332468215229353,-0.11496526016434015,0.006828225990677671,-0.002839074307317846,-0.16508796323736877,0.0156923710225948,0.036759545154493735,-0.025133153757250535,-0.15409418451661722,-0.23088955319833954,-0.057619110026133846,-0.09668569294537793,-0.06724383102034859,-0.14455672338990497,-0.0718941050540999,-0.13825499171402872,-0.16647437720869004,-0.16808868807122246,-0.11065728022613107,-0.03573094046287386,0.1124009112779806,-0.027017213296536488,-0.06284478416956152,-0.16764528915889523,0.01747437280085141,0.014448418762357687,-0.05842620879516058,0.01660095859400747,-0.06548348359716809,-0.08563564791512075,0.08953432970968499,-0.055542204436005105,-0.0634116387471872,0.07922233516647985,-0.10244823966575872,-0.1432902325675666,-0.35404602589104395,-0.36897868700961345,-0.1990732966354234,-0.19720851093791386,0.13412980120919535,0.22644708163320623,0.09017508341556546,0.006864448747338981,0.028007183946438197,-0.0117276301323305,-0.09503565044595874,-0.04839692364581266,0.0077385787601922055,-0.14965962142470432,-0.12116257037400212,0.0030078658612041264,0.027773377890247832,-0.10523435430353265,0.02417159332824136,-0.08919839315950254,-0.0501969970528933,-0.02417877757196551,-0.1354966710087721,-0.022116588611196898,0.037659399138437216,0.054913696228827746,-0.06726289408776373,-0.12548622399046513,0.039258358743435987,-0.2645255927465681,-0.06711248688573011,-0.02961542851719711,0.029169878785459596,0.06931619186674781,0.014162131729578925,0.06683555676606288,0.02810850568018533,0.04615298039258636,0.08145675644086989,-0.04899460316051325,0.18307119238086567,0.03784038662331589,0.06726863562857642,0.01645935233957902,-0.011949770657051252,0.0589993642388889,0.04504020764017055,-0.0647362320985051,0.03579460198601314,-0.19677304695943018,-0.013509476910050373,0.22024885488253387,0.12879854515268058,-0.01582420301836435,0.09194556932834978,-0.04706499721506689,0.003045490047141057,-0.06570985220471359,-0.16576344034740165,-0.07671649755435676,-0.07940133020685398,-0.05276435060520004,0.03892248962109241,-0.06842536219609993,-0.0673633965364641,0.0007334025723557385,-0.1934877029159769,0.025410413935750203,-0.02210022411363088,0.11092070575070676,-0.08155137479006686,-0.07375575718221246,-0.007941915548106028,0.10985510387029286,-0.13692345496201738,0.03179850648411948,-0.14311504588831814,-0.11014664396454903,-0.06305404467203415,0.1993847475856099,0.08784779228081636,0.04215902270021713,-0.0273751829659957,0.08190227564467127,-0.15388457822162283,-0.09499224264255617,-0.20214933285950448,-0.10033150457658348,-0.14338423934251693,-0.18024992584262428,-0.2708849232109572,-0.3106662966768195,-0.310803404719861,-0.22489140999670718,-0.05258149626184847,0.16736235903004704,0.19889742618667816,0.1313204776504944,-0.101199802395492,0.03598810878703753,-0.016404240130936304,0.03810917212404355,-0.16851075652617575,0.011880537251442985,-0.19009811911557684,0.09721687978110116,0.037166485757914654,0.12982867388482497,-0.13123977562547887,-0.212642010366968,-0.251706644015656,0.016822283597281325,-0.18667964621923333,-0.4113997278909751,-0.33501152190088385,-0.46970115623576963,-0.2890478176518803,-0.28158141160454486,-0.48062300533141766,-0.2663930353577068,-0.2302301219175372,-0.1994527557211732,-0.017786779774731597,0.24452211147730638,0.30564597104936364,0.16755518837397715,0.03074459685070408,0.07907769470489223,-0.05278482340981799,-0.029195528775365718,-0.002266546120078392,-0.06363534054118442,0.09124357924665964,0.2222227152295539,0.19170497475902692,0.13708586181120866,0.010987839530763764,-0.03861467333691221,0.051015135264273356,-0.06875872903631917,-0.08584222195936377,0.12303774257695035,-0.2107411240691059,-0.2857782747278279,-0.24042380656225926,-0.35741139569144215,-0.3126692565146392,-0.24187888266374163,-0.1813820311944227,-0.21027565154212743,-0.21894537018722754,0.13970129541342888,0.15622084007704046,0.07376748787257603,0.002502260711292671,0.05053046733518436,-0.017544378380853806,0.06347859227207214,-0.023990072259868905,-0.016856742611194575,0.04838036119320269,0.2623693633548553,0.22406491087879404,0.14469376653270802,0.0852099315338053,0.089340120119678,-0.0786931811209188,0.04465255177627171,0.02799425757083642,0.03675928244950933,-0.3192429206806624,-0.4275935144860881,-0.12883029619077335,-0.23485509010935438,-0.29191104809933144,-0.11458758219311664,-0.3165968642894972,-0.20350323903468057,-0.13721692061999702,-0.04367768997167718,-0.040939612984206716,0.2175118524658508,-0.06521119432132799,-0.02304701978567916,-0.1176548829643257,-0.006231931484688312,-0.0695714439062468,0.0600576019542559,0.0892556450228321,-0.0015342052183792325,0.21905074998897558,0.10990618623338569,0.15190310285277392,-0.035934011180759125,-0.12243391904091039,-0.015224487798256775,-0.08682778544515705,-0.2248451756587547,-0.6782712040910002,-0.18454716167401858,-0.26582097766746127,-0.45620832679364814,-0.45863890058842843,-0.3721902978114043,-0.19075775955324253,-0.11141830878242394,-0.1597256768157421,-0.11185438229192574,-0.2474833543062062,0.12920829585719154,0.003995888163354275,-0.059900317813097584,0.04945919301707853,-0.12179022180662528,-0.012412279106873729,0.042607192369469825,0.07223319668870315,0.10699442591420495,0.30789369015800866,-0.0825521731831845,-0.19836764074315022,-0.144355331799502,-0.10104177031071077,-0.06666058907793299,-0.1814526839438502,-0.4980791786792604,-0.6589544857519766,-0.47263112762316406,-0.5223485528868114,-0.7672143829006871,-0.6070201618641679,-0.307676073709047,-0.12990773197937783,-0.08865589874258714,-0.030866326323277356,-0.02106168952538246,-0.043435367615948094,-0.007614982417263726,-0.1051787514001856,0.04366475629478374,-0.052037035162258265,-0.081694403644473,0.019049267002795595,-0.08254625136196853,-0.019165309940991537,0.0360781352017386,0.03538299739210161,-0.14245999155942163,-0.2477099498462131,-0.07793572454609209,-0.12468929545079774,-0.44211463856189887,-0.34235524480614066,-0.6016787414578044,-0.6908401100713035,-0.5008430483142092,-0.43240083932878076,-0.5961079838123409,-0.5116297841423226,-0.16519771514012854,0.009763042206808398,-0.024791927989751075,0.11246672691904547,-0.029309579628249344,0.06050825655663768,-0.06513012144904752,-0.09442245675105662,0.022604365762778193,-0.010756239297881786,-0.0071282453510016245,-0.05334081379136998,0.02025522985583538,0.051731059366020064,-0.049185499297204435,0.056550967275489916,-0.17548368905239323,-0.25122170979773106,-0.41945071168660725,-0.6410967976980991,-0.7789001383724155,-0.5291597813999814,-0.6135468602959342,-0.6184191754687491,-0.3566075105492355,-0.43803810863818093,-0.4655574573521393,-0.2577900788158488,0.010873426298172383,-0.0498063476227017,0.14368596020159266,0.0057229931051513035,0.07418516761408654,-0.028371122750890963,0.02178092795745519,-0.10000557406807481,-0.1500058021425856,0.023163741848346894,-0.0008972645061268646,-0.07628123303369133,0.019920574781717403,-0.006407661209415539,-0.13973146825336188,-0.010179548990724863,-0.03399421449658091,-0.20627526997781634,-0.4061203080666719,-0.6474710931249287,-0.616405660614923,-0.3958986316338195,-0.443581850189411,-0.36997388166448325,-0.02664084609128434,-0.13635537596316125,-0.37158992603364804,-0.21273963790749953,-0.09957965267481297,-0.01048365754634726,0.2300070052461543,-0.0549507690135616,0.12739447527652503,0.1493931130193966,0.10348600265519425,-0.0026892420230328166,-0.11416224683624512,-0.10664582957930818,0.008058054006922282,0.1363628075036668,-0.046259768309037406,0.1651972339209536,0.18577716523347051,0.03932853893433977,0.013357100931981253,0.014059478235219941,-0.28734886805906873,-0.39890832799165793,-0.30447592723735606,-0.24785870857021752,-0.3319005830619622,-0.2563515910561303,-0.1394711267376169,-0.17416224247293668,-0.15748835207093898,-0.24357060687322002,0.0062282052846752275,0.0011634217792057036,0.0051656462399189505,-0.044788381410171274,0.07102053220566712,0.019041028593826923,0.09869813875019366,-0.0400896537263424,-0.10074803146269831,-0.09773547916845209,-0.08199813746179105,0.013185367737211537,-0.007521574326890041,-0.012038781277475433,0.02692103137157427,0.130970152908655,0.13040274443041824,0.05195613961032707,-0.17668786501958564,-0.2252250685175161,-0.16602593065659804,-0.07672224725774607,-0.3412764024958824,-0.35542576222855515,-0.32287832511045655,-0.20353045476596818,0.03868335640236992,-0.07868028654622113,0.05734121494228952,0.13081418568121922,0.02301365262579509,0.009397853360005357,-0.09042554181450062,0.01702554221921547,-0.06666845607287812,-0.008520308773825747,0.06466254704043836,0.022558444273692104,-0.029722709402108333,0.06116238743915003,-0.08167231613218505,-0.05263179595668696,0.12083714933470768,0.14554620352815037,0.04713318585732293,0.040002517167452775,-0.19874113491468268,-0.31813603392138695,-0.12045219227727957,0.10434579578214846,-0.28996547048606386,-0.5493580622340756,-0.4370123902277764,-0.3512858105049009,-0.00045598398605868477,-0.1692844808024044,-0.07608654086618183,0.03194785708433865,0.14116660787077853,0.07368702802023745,-0.09740686081338522,-0.0020929603556443643,-0.09133056753578232,0.12097781529771631,-0.07332022826588422,-0.06770670685669668,-0.005167761538421199,0.030095267120180947,-0.014059906146675225,0.045520770626826405,0.0182297337152488,0.03489237812200463,0.1634797295802108,-0.03842040388701366,-0.11283115853349975,-0.2445047192145806,-0.24944728654203394,-0.3472478729796885,-0.3314452776656965,-0.5545512425863072,-0.39805775567063933,-0.3462190288308677,-0.1529306618628568,-0.31904413385198277,-0.037462948414722266,0.08595950597260538,0.08374868006897176,0.0392690494820884,-0.0903263135353528,-0.14800599369220652,0.01055033459940291,0.004698824947534312,-0.054536396541219875,0.11977680755371811,-0.01131095632053759,0.07552601349319085,0.05377865508600605,0.09194158873290638,-0.021542635117616,0.25924178491787503,0.04437307082914644,-0.021530384474780204,-0.07732349416815266,-0.2069368265321246,-0.3054528183675609,-0.3004275905535343,-0.2797439578677521,-0.34351821144956,-0.1405129308318718,-0.1733969958861291,-0.07843087500397006,-0.13556819681504567,-0.023680394473415647,0.058867944695401166,0.21813827631015767,0.25576458800177887,-0.004269300231544739,-0.13054298576814197,0.06584440166884704,-0.07624380548593397,-0.022280306128499336,-0.005161295448495159,-0.11700491262899115,-0.008357796684108751,0.02396113022349161,-0.0528383298402918,0.08404332330199012,0.20759060417128566,0.14545706476532336,-0.03414024685564509,0.105720702108187,-0.017332297541352158,-0.1753663530922498,-0.1792509492949632,-0.15764163154564773,-0.22271129291732047,0.06521149949316718,0.06488408983751069,0.02408981549177936,-0.13575014776299724,-0.03360648460664981,-0.0028483696879803583,0.2672171697011576,-0.027615990260354606,0.097374947930888,-0.02758454603113347,0.12487048250988701,0.01164905542116513,-0.1153200938941057,0.09290612862651085,-0.06891725433901306,-0.017987995927483194,-0.017699829030095607,-0.005371950473872566,-0.04171580848466076,-0.12595301227833872,-0.005971235996040535,-0.07098525863241793,-0.048444030753774216,-0.06934742120329247,-0.08095763233107864,-0.13395393755243998,-0.18403181252685563,-0.004131749705910657,0.07354615110897393,-0.04041132420710053,-0.08323162178502093,-0.05185717376257663,0.06964375670997118,-0.05020270239088098,-0.05566086866622477,-0.13476485186396356,-0.04400194118823845,-0.022531539922135815,-0.09432461606641732,-0.14201507084879247,-0.036590362784897204,-0.05063719878964225,0.008875200692469472,-0.00683818065797027,0.011172262377207667,-0.03287236165197311,0.05382204507589849,-0.2803180889709402,-0.054159342650650893,-0.33448906102730025,-0.11094063943748866,-0.019147748385645348,0.06927735903602625,-0.037895263232155474,0.2456416182399651,0.17818446559869416,0.1748350949458444,0.07820275455419459,0.012843212258528785,-0.0047603333939143285,0.11598347341905615,-0.027380652113127,-0.20812666688328826,0.028375334073898237,0.0341675660383454,-0.09141033357874066,-0.01404038852108559,-0.19346688515508365,0.021545173209851737,-0.09304539183026703,-0.018655848033788582,-0.05710537032505038,-0.10964557404340326,0.018995594900418876,-0.05637870118182641,-0.11401849881666848,-0.2299279220959718,-0.17226395173805245,-0.1522565928391325,-0.17689081530159637,-0.19616859226424938,-0.06982359692017959,-0.07338152439281942,-0.18769230177089652,0.12166839030813871,0.042024295875399964,-0.0420407066774528,-0.2206798247406294,0.005979783518759101,-0.022799554061940234,-0.058823278185825105,-0.01745281393684543,0.009284886224970618,-0.008302832017579634,-0.12287889734819328,0.016768413150207336,-0.0999672713123971,-0.05844473477156177,0.017085237446033578,-0.06915207041855619,0.038695671310238045,-0.1276191563164873,0.08952127825781557,0.013898336731333286,-0.043813869065046224,-0.08718089926141957,-0.011554424378327016,-0.20529952985060637,-0.3006533213727317,-0.2008809061081023,-0.0851226324954349,-0.12484977804509782,-0.022272757752200768,-0.00262366026261561,-0.019969398701793917,0.012887092551347956,0.1594769237064775,0.0048255696321956275,0.06007275794031402,0.005302351657227927,0.0898789705317881,-0.18224776255182826,0.025697985522997357,-0.007476947848157684,-0.04160822769845339,0.04859460413380866,-0.004820846595044877,0.010154828131283237,0.016152740413046974,-0.023692811955636016,-0.11872011494940815,0.005637598202687419,-0.13302890787207566,-0.07035138264284288,-0.06004924119064138,-0.1684266644200133,-0.051561893632250666,-0.06766870398874236,-0.027214133829614434,-0.0302093932307277,-0.0714872932739852,0.11134749211617967,-0.07734582469958376,-0.2052306008154087,-0.1309429104992257,-0.06633253358668914,0.015120441417291231,-0.1612490129735208,-0.20101114193509514,0.05526609035778117,-0.07303110960530729,-0.0687831455056048,0.16864782791676258
0.005977774022150514,-0.1109087417010113,-0.011249749565603031,-0.006650585668867608,-0.07206185465296243,-0.03162358458315604,-0.018397309231814128,-0.011102875273080981,-0.014136399058581975,0.0894577809812938,-0.05251598912566216,0.025804833891633353,-0.042559937951873635,0.014738200203059696,-0.08507100887991774,-0.028368784345239612,-0.00032626405804676004,0.04359457311082118,0.009513872993885711,0.028092536308757018,0.017795719185785073,-0.05494142671362859,0.07382852788658924,-0.16870215231876565,0.0537665270507052,-0.0012752466532982719,-0.1165708100180035,0.11076703681379511,-0.06343100429136263,0.05987548955424157,0.03616638717935611,-0.029624143808833412,-0.007633891612284809,0.01587116160690217,-0.039385692888963986,0.00496165045968709,-0.1546019326702873,-0.024436442258583827,0.09874731287338898,-0.0558918568883044,0.034416619735622274,-0.10845205442667352,0.06994747296567766,0.02884248443610686,-0.051450153118448166,-0.09552542313079967,-0.13326115675538278,0.009816788995418317,-0.014344012496788376,0.013594341285334762,-0.030015330729558157,0.13967887066848236,0.0076194441090652815,-0.03389504985556979,-0.02625843947771368,-0.09506374086214338,-0.06318167876510865,0.006136172088132335,-0.039951217577043216,0.09074408493662452,-0.10262237024545444,0.015691599141101586,0.020989383950274734,-0.006783837711353759,-0.09934007875512697,-0.0458726007171721,0.03207604413023577,0.10764902266392092,0.04205770647874661,0.03456944744007226,-0.08334280988955345,0.08332718805556734,-0.10225544342713754,-0.08893691789412943,-0.03114288904561644,0.02026777604047709,-0.01912997210374368,-0.019456515416567195,0.17504507518079507,-0.05763479415728045,0.0564541054481396,-0.015346535414069655,0.056235888220412214,0.13043660078659755,0.039953418262222776,-0.037396691498571236,0.01274732560198039,0.05255710323775535,0.08133880836999949,-0.01371389010933083,0.17524643071147325,-0.011904816097543043,0.06140399692096297,-0.15212717052309105,-0.1843675479249828,-0.07955519854024358,-0.026976428917276,-0.21411849559964444,-0.11675063715700044,-0.00435475800746517,-0.014604308699194444,-0.08302603405306096,0.08249011817596343,0.09883432312717727,0.054938641517091394,0.06218137199757541,-0.05801627475852357,0.00904995776550746,0.08388040783818868,-0.037262878921067576,-0.018084078533935233,-0.04501330909787252,-0.030757716109264987,-0.017315376830558785,0.034301574790070274,0.02442055536834257,-0.0293743214928716,0.06985700104126408,-0.0026435751633799107,0.11717873796660665,-0.01775580860195158,-0.010495327272511306,-0.01166843806838473,-0.01144334313806113,-0.09725018692565593,-0.11374497955934763,-0.021686120895285245,-0.027129817584918513,0.2123065516164796,0.004698121239033296,0.149396020618552,0.11356795277159233,0.05606926881263673,-0.06310440348015554,0.02175697700167535,-0.011437121010231354,-0.020664225475075713,0.031091823280787557,-0.1310228461479089,-0.08533978374566804,-0.09437670478053829,0.09980193975724995,-0.0948808754790551,-0.04520141219217701,0.047723042013863126,0.012033671944264886,-0.042207630067772575,-0.008193429223016666,-0.040622247405671524,-0.056454119041550864,-0.04642395700580225,-0.17615945236891123,-0.18658308638755347,-0.19758386016557,-0.2752188652007958,-0.10111623545258022,0.06955382767352704,-0.020992393831059795,0.13825058148093292,-0.1842267313310757,-0.001248051550060619,-0.11131915036531896,-0.05907037276375752,0.017886404496395277,-0.07585756343155405,-0.03159417422969547,-0.01018099382909632,0.013941979172249801,0.1362778744149297,-0.04681210731785659,0.05929387495140085,-0.05006302410440018,-0.08968679962940444,0.04266762956114995,-0.11982934883683266,0.05413837201343855,-0.12415875825827714,-0.23994383500221272,-0.2812704830754811,-0.25359056734616675,-0.318305556737657,-0.1398421344423858,-0.1885978958747769,-0.27388861122779656,-0.3436070270955966,-0.3354394536920873,-0.24231194098304798,-0.31602969033977696,-0.07391043955887852,0.08581091549241564,-0.12502776785231412,-0.06682190099185371,-0.09787461166751178,0.08191137259508616,-0.052104980154284046,0.1255677355934432,0.08991116224433174,-0.0284764327743044,-0.029498809425419287,-0.16175562647924302,-0.15398434716237855,0.02744306508428649,-0.030765481797276444,-0.075456552776236,-0.09973641579421902,-0.2682843515949832,-0.5182177637872932,-0.4354525976955094,-0.37997117296505395,-0.40531392169192715,-0.206584401861762,-0.3117558387356901,-0.3915607115976838,-0.3207483890935608,-0.2604102074056016,-0.2468564966551085,-0.20528416043269937,-0.20092249951907798,-0.12161075243072399,0.15532348539256316,-0.1047368801020405,-0.01037754414830115,0.16862476204477247,0.13124668828059768,-0.08092202453980175,-0.03206371018531435,0.03713103825797191,-0.06175371089610025,0.12525857781790722,0.04393769043009317,-0.05143034086746778,-0.05242482741059189,-0.3207042434451443,-0.29152921455851777,-0.22039492825966395,-0.2860858257852827,-0.053716498541447374,-0.43659285037986145,-0.5282526924251326,-0.4597769920147473,-0.3852778315037,-0.3241803664616124,-0.2482463398185104,-0.19510363519128404,-0.03645190638848378,0.062409842865004686,-0.04213457529219373,0.13794192063298935,0.0025799231709332446,-0.13127484174484025,0.021571921206702968,0.08840331395640866,-0.03014626519515922,-0.0410024137518736,-0.042518231360087144,-0.07512474898116066,-0.0233895022416876,0.07861995009410092,-0.05677244023930807,-0.08745353378559631,-0.2785421074454002,-0.12735790751699316,-0.25177955236235283,0.014904158887523939,-0.15189589608699336,-0.3651408810310281,-0.4253114547368934,-0.290201584566953,-0.172772218010531,-0.09045285160389624,-0.05708013373706429,-0.10945116773291233,0.14492150319593863,0.14262198130816164,0.06697740698633878,0.09129840022706605,0.10525411672583447,0.08621287239092822,0.014303792550377377,-0.06128731370614066,-0.09540244630158236,0.04021736004217333,0.075218197435172,-0.0992488188478642,-0.056716379952632845,0.13468261869931186,0.1105373606766749,-0.23532795959555924,-0.25403083824680284,-0.20690749531022914,0.027255109628392112,0.0725167038198459,-0.11376050310007249,-0.09248447666053602,-0.4234955632562953,-0.28199976913498065,-0.09809292503542058,-0.02316914158778232,0.15063688140794507,0.2045459052388307,0.3280814653942156,0.2401255468594632,0.2101607705282637,-0.08546582641885599,-0.007152961628735299,0.05752641592382693,-0.030968738116307286,-0.08440101880528071,0.04574264358254893,-0.1679452570244245,-0.001541837955436247,-0.007773441646377517,0.11490596975249237,0.23535185634904301,0.17322339620210214,0.1090407963014988,0.0011268337556085833,0.04431224947738036,0.23124316439983178,0.14073877427456355,0.29621281533461236,0.3017541542707539,0.044907241527371806,0.0817098213147717,-0.03338637832242678,0.05720650343176424,0.49962736597403584,0.42563828166955137,0.25321804810018117,-0.09775558862763753,0.1860721458534375,-0.02597072609625133,0.10278241299499512,0.1047851394183666,-0.12752196030261012,-0.030564334275570718,0.03181286082809436,-0.05127151440456624,0.004336873216825577,0.13136450028504693,0.30687523664614746,0.08789357404529842,0.0997571875758169,0.27178028233809187,0.2295136851850614,0.2298429221150725,0.3774176700544095,0.3308097795886748,0.31721408650519706,0.14745386122329707,0.012672989215820631,0.009284742372891739,0.16331291853104574,0.19628301895786715,0.17544453961142115,0.21848177651087075,0.2002785703000059,0.19216905373545848,-0.05298269236830032,-0.2324916806253389,-0.1363966295956639,-0.0015567756229393536,-0.03301998244660238,-0.042263838567551996,-0.14035845119293794,-0.06004991919073931,-0.008154162871956652,0.09869801351943706,0.16533830243132838,0.2605500514673155,0.10742491758290107,-0.10548780570068794,-0.044048862930006635,0.1937393779924998,0.050660057302446306,0.1569329026178436,0.2187708381859109,0.0024314732634006316,0.006988632600189411,0.05499973116818811,0.32963450945335565,-0.08342311014606257,0.005158938708979656,-0.04291060907950358,0.252943415011848,0.20879340659614432,-0.17279000558291518,-0.241383288931938,-0.254323318245745,-0.07386912595147152,0.07609538075189158,-0.05327402093455971,0.033598523718126376,-0.018885666766585114,-0.04080693253830727,0.0925152260107857,0.06902082915969977,0.0005390602240300561,-0.04574195634285157,-0.10497036366460341,-0.20507151222682446,-0.32103069296644193,-0.3041011774730065,-0.3374543174423916,-0.37273999452511736,-0.3852621027539416,-0.40193522891716993,-0.14590703502002986,-0.07091504535413543,-0.2413052525763748,-0.27906830226491997,0.006879328149362049,-0.03144681516427749,0.06332397465756116,-0.10595760252976388,-0.16445741444153109,-0.199878083790849,-0.07322899027493478,-0.1905275387235706,0.006851046660666245,-0.00879708021513508,0.10672019445866013,0.08753552109367736,-0.09701334642285736,-0.10936456545156399,-0.16511873091305054,0.011402918772748995,-0.14130733199937384,-0.07306916791973093,-0.44899973125383025,-0.46451261458822596,-0.44749028300019367,-0.3111800963486333,-0.30553479194982597,-0.19113978173829357,-0.09530783225646433,-0.15993180789054406,0.009428941213092741,-0.20126764345758077,-0.09157447408803532,0.09070312734649827,0.19485644663625631,0.11207437925137344,-0.10074868138905868,-0.2673833710314796,0.01765794845994117,0.13076174511611355,0.026579570653962253,0.012415060458746166,-0.08110530509938615,0.08603207447322403,-0.07528137007239476,0.07782218726193221,-0.06607447544043991,-0.10245983828106459,-0.11035595615709949,-0.15336986785953993,-0.3351570244910253,-0.3391536560035042,-0.37291042395389085,-0.28801904525027006,-0.14117789313820894,-0.22800202973980718,-0.06873057804575995,-0.11835472835736628,-0.07424103502082126,-0.03699496124922696,0.08614497900459948,0.1761096515489979,0.28497209561652315,0.12492792169162753,-0.028493671355042244,-0.01468054737722566,0.008748118090132746,-0.07520144994672466,-0.06963580983011992,-0.05016776282179694,0.029085929493378612,-0.05814538424863871,0.006183599631887157,0.016081028514031075,-0.18742882812050066,-0.19519215070318247,-0.0759455227256315,-0.033730997729702034,-0.17537237442782505,-0.45163275393032126,-0.120199707525715,-0.20325583122783142,-0.08041367603377028,-0.1564159612262822,-0.11257586818353711,-0.3330166213290491,-0.027776850461127527,-0.08838741401646946,0.023949600055505723,0.15293017451022084,0.06781520069783736,0.00955879299522959,-0.22803470988974056,-0.10354917892891384,-0.14108550583269008,-0.0806756367545106,0.05096675072671243,-0.08149971485508246,0.01584061807706606,-0.028771873186271935,-0.03877427606322887,-0.034777551375052604,-0.06312706560905557,-0.22837744438905028,-0.025213553848495787,-0.04559131913705375,-0.3057132018577199,-0.2108646249030962,-0.0025026574313872277,-0.23324079564961028,-0.2799866788279186,-0.29531682472191517,-0.38540726169916956,-0.2730010207897354,-0.17073177700706416,-0.2054545558593446,0.11873010074716693,0.05183796088387251,0.1577274809203582,-0.08041553530497374,-0.17785513538695524,-0.14150101288336636,-0.13060813231966048,0.028895454536161113,0.07290147620048129,-0.09922675708823399,0.05633905778436094,0.0003779368498405735,-0.09750650282459113,-0.10760425826337543,-0.23047701135127913,-0.16455724529354707,-0.15440597250153335,-0.17670240404612667,-0.12196367752658044,-0.009075204031672146,-0.16132823937750881,-0.12300483553403677,-0.3700594824476358,-0.40188177871469216,-0.42211596947980123,-0.27160181036654746,-0.16846056167457935,-0.0506342415830379,0.10770875406778058,-0.0008096109671770373,-0.007553673504090701,-0.13755805262310294,-0.14471125983769148,-0.021449190446111686,0.11059739338650117,0.030882866153417354,-0.08902290980608016,-0.02966446937455088,-0.001857419745521062,-0.003186042567845687,-0.10323535194875313,-0.05917788633350474,-0.08842206587022318,-0.17082287638191168,-0.22627110173020162,-0.09170521608746367,-0.06386666711025157,-0.09172858380625226,-0.33113032035450607,-0.24829673775654457,-0.14478961702922516,-0.2005528101145761,-0.33477303107166456,-0.22536970966973616,-0.0015017180532719229,0.10543058067783095,0.07671588949509363,-0.037689643827062344,-0.0305310309040067,-0.0702109882167158,-0.05535908878083023,-0.13908174583879104,-0.08161872011558158,0.022734678001906976,0.09567574600578826,-0.08403532912825729,-0.007164397565835699,-0.1030235613820517,0.017624947300908436,-0.11508137196957637,-0.12781448300025225,0.014997857927065124,-0.15743360509291346,0.06350486950907419,0.20657202623908502,0.03755988551858634,-0.1062065147905211,-0.21328877240952424,-0.12706183072394284,-0.18948288548122794,-0.22873033055084627,-0.07420824647311085,-0.07261392055197725,0.10272707584741672,-0.0001424563092780978,-0.2645243912470879,-0.11069090298158246,-0.1582315375580705,0.08923872396113636,-0.04004740918807606,0.0028275931074657726,-0.013530781109140504,0.031321417179307996,0.019188360303449874,0.08447139905076627,-0.05818074292928137,-0.07458589805847717,0.10494182623650597,-0.08999058651243946,-0.06840645062286424,0.14297643647286795,0.03662773088628581,0.03383201595459051,0.061365774743799194,0.002902996080133971,-0.013851976188822723,-0.1845974471437644,-0.11537160513938818,-0.20643061413007824,-0.055696269900602516,-0.1911228484737078,-0.022632578354985947,-0.06576887742920813,-0.026286008956835093,-0.10423161380080201,-0.09230655633571644,-0.16324888683758818,0.014171431421924851,-0.05461637883691272,-0.11997834288207365,-0.02764100903397117,-0.15832708474935794,0.03626601135133205,0.06697956836451689,-0.026358714069294725,0.047408204356515916,0.040931316100931876,0.16736507395091568,0.11272820667638937,0.031396294618260094,-0.09895862259829728,-0.08794232841265594,-0.17601744194353755,-0.08623362350768371,-0.3361710751472612,-0.044902474638053115,0.029215734927865104,-0.13388236349107183,0.15372339775732732,-0.0771909221770106,-0.12183136731981872,-0.2528550250271579,-0.14881686377315162,-0.1322442879546108,-0.07813984697565866,-0.06768030208647842,0.03156756106546752,-0.08676150244778648,-0.06570879269313452,-0.08971016780772427,-0.01512039697748172,-0.13538770981791795,-0.030643924783724994,0.08268014337314733,0.05899569324147624,0.22425786929664707,0.21609752315181208,0.08432705281471782,-0.02973454401791582,0.06365630633547299,-0.05336612975044731,-0.22786463712229935,-0.15318222635934597,-0.12261100123658251,-0.07985765468415179,-0.010784044824559155,0.01990917270746104,-0.08410689395088367,-0.11117210262712908,-0.11168035333686185,0.14318195157217406,-0.01653160388874296,0.05889935260856788,-0.005356460406259112,-0.13609973016513618,-0.023817030667680022,0.08597677102671468,-0.006201207691551943,0.0212475111220231,-0.001325352717469715,-0.13193032859803935,0.05579661403157334,0.06003648196609694,0.0126347737055526,-0.06790806180909142,0.10418453262688768,-0.04450595482930285,0.008544178070793943,0.06851815111117075,0.07527009155788515,0.057701520222363405,-0.009095702659312813,0.20147799299534785,0.2505719932090633,0.15233161667221715,-0.04064979475603698,-0.02614020277094358,0.05793359077669156,0.020379278970941876,-0.019552974040991003,0.03794732515226698,0.04652134673592025,0.08195255525512134,-0.0527209632002698,0.007318581136254918,-0.07035491850127602,0.004834028653143524,-0.11721108747746183,-0.04070955059130015,0.04659801132913227,-0.03985851795396313,-0.04386658038815326,0.04818934811441711,0.042043124063968915,0.08691616368432264,-0.11074909184412657,-0.046908202721961716,0.10175222236131068,-0.04547018424007017,-0.09168131668358641,-0.08608234669083215,0.06433800550585003,-0.03525008997914748,-0.11808494892972443,0.10666312485460179,0.10292893032573085,0.028284935191860254,0.05851551080692197,0.04353412612303763,-0.061769690486984774,-0.21176783142635866,-0.05065943457580001,0.045821361371749816,0.010291196534391448,0.007812508178176688,0.03058879036697121,-0.0190031375070961,0.0022282817862198183,0.07360524966041486,0.03038290050168288,-0.02293849465232309,-0.028901491138580353,-0.09992029371024211,0.08314387173571404,0.007214760913998931,-0.03526846474514868,0.028110583512460756,-0.05518588275478299,-0.04129267598870947,0.03005074610833291,-0.10697413383377075,-0.024054482506658127,-0.0012545835926055192,0.016021278130278205,0.1129918721743429,-0.014315536221705541,-0.039643924448661765,-0.1552118567974077,-0.05097201374823061,-0.08057541407183412,0.006720670525154784
0.019256809840487128,0.0664276143999927,-0.07389109902178118,-0.04377752982253416,0.06332256792304061,0.03380842940354917,0.09331521672510651,0.11695530784162755,-0.09033394536654699,-0.027080967212895293,-0.10737489114779636,0.11026469708104483,0.04818326393174275,-0.06339621128374437,-0.16278937474557506,0.08437695273090086,-0.0535393961020605,0.05746918349911781,-0.047453559953661434,0.12625101128078797,-0.23933792858157485,-0.059905019462396944,-0.009120474193809718,-0.08193942181385566,-0.12353429383767509,0.11760351366663233,-0.01814241145752318,0.034846601002169575,-0.09990525173885256,-0.004057501494559624,-0.040678464245151286,-0.0004696604853951087,-0.1229846613242071,0.013048894928963483,-0.08766810347816371,-0.0700931361330273,-0.023415536075026982,-0.1697142114079562,-0.020713331327509705,-0.034749324062470624,0.09114847048746297,-0.07712960677663885,-0.07388579639063877,-0.04286558126146429,-0.15189461815710859,-0.12510152167789898,-0.025156824332667752,0.0005573697747768406,-0.0044869291524299105,0.05477032982714839,-0.0371704144747159,0.16289733625576217,-0.04328281209126947,-0.04212169737139776,-0.07045418781302368,0.014546273723021383,-0.0775264980666314,-0.12985852723531247,-0.0602920701775914,0.04832914493257879,0.06228611383666893,0.0343149620176924,-0.08798614246152826,-0.008691215933386547,-0.04531232824479286,0.055673323383863646,-0.03732751307430557,0.04486606592860657,-0.057571662372937024,0.203038843306659,0.017264415845654673,-0.0864098665350213,0.059671324279868695,-0.003913247931793955,0.016698562192915562,0.1068545809792026,-0.0014433630516574548,0.0337952311366185,0.07380278293764679,-0.1027998992641548,0.02471364981450576,0.12333277366856987,0.04085486359898771,0.06757656437672585,0.012698589861739148,-0.004824856673864243,-0.006090698212211283,0.015668361461863917,0.13508541855145487,0.010478941189166462,-0.03474900329562508,0.05984197067639997,0.08662141081689069,0.09620356345189401,-0.061579571257862765,-0.11565045752341685,-0.0618196989111368,0.012877378914288662,-0.04184277143014808,0.022108559348769416,-0.03125397420842552,-0.07668086950440933,0.04556239575064214,0.11036263551760708,0.10019705174271794,-0.06985816977742061,0.02035212189991184,0.005256271294478528,0.031503761355532636,-0.05495641332554527,-0.031111867870094467,0.04513477749210246,-0.16066655882960704,0.04985172984029518,-0.062078070674341075,-0.013907927703082835,-0.043708482253089306,-0.03555105136678639,-0.08896064308355069,0.00840088720694226,0.08942442039997407,-0.03923707155441069,-0.06688460508396714,-0.06703590818819091,-0.09809824790113436,-0.13816900018978787,-0.04562439357735107,-0.1676116764908102,-0.10969911247266198,0.009626055637225399,-0.07536933291905216,-0.08919707690382248,-0.2247615672373381,0.02616822723558716,0.02656657347284847,0.0011210422290200085,0.10037390905824396,0.018118977196504044,0.056978294400717944,0.03514868590574087,0.00899612351846945,0.03855494254008621,0.030934871248645204,-0.006220325438929001,-0.06224790621054248,0.04575348641063106,-0.022154296652867837,-0.03410959851547274,0.015139313580556684,-0.0054398278375936806,0.12099082495284999,-0.019571564832585316,-0.2645679289060075,-0.26469107541251574,-0.10897244329881439,-0.03716961013999315,-0.11935891821967237,-0.08937461556739604,-0.003624484973284031,-0.2883584435333039,-0.06576328021309764,-0.022166021710069463,-0.05565711924987317,0.10907296592535884,0.04269474104504271,-0.13397751798380036,0.03265072250977964,-0.01973357961843819,-0.10294458937148684,0.008895492063333106,-0.05351170336793882,-0.10460365539711905,-0.03527600558024782,0.10635150931316419,0.05973855381301195,0.05463407619427379,0.034400764346849626,0.09595786257741973,-0.004193974674133777,0.06559027213761458,-0.08266925197633322,-0.0990529220664485,0.0200900144448191,-0.05739783382611068,-0.16642406741766025,0.09649835863519297,-0.0372091327056596,0.056065836220261116,-0.01324412273533788,-0.04253174477578138,0.182759126261299,0.1206117512504309,0.00415416878426864,0.09624224741461808,-0.12327671641495352,-0.022084977082455923,0.035030056813825976,-0.0875913826320367,0.09011996631808235,-0.07528881853868463,-0.05056627075747514,-0.009942429207384817,0.021748421849584833,0.03690804197272029,0.021852503705993346,0.047415524376944296,0.051650299473496364,0.07658854793231329,-0.030171442272580624,-0.07906607762310622,-0.13503129014894283,-0.11113873496370415,0.01823615705229248,-0.008633409269148724,0.02091677949059912,-0.055667090278746605,-0.08623182320417519,0.07537907879981505,0.037023232812449555,0.08422513683100659,-0.013033868438463218,0.10695147917108332,-0.039294680379720344,-0.11080495844213846,-0.07535766916481565,-0.016896226178613447,-0.05773219012500267,-0.1530680046955562,-0.14168198260327278,-0.08446284457145078,-0.16704534525918371,0.018481930293098494,-0.15792865221069588,-0.05454617718192124,-0.029072027844375816,-0.07272707429733173,-0.06419155676779999,-0.10231766295580161,-0.027906752622826353,-0.125489170042968,-0.1636943643057458,-0.220038491156064,-0.2704335623243867,-0.07511825203926857,-0.0917802406021763,-0.06352841208881911,-0.09862897346828052,0.1043264256500315,0.1343720489788492,0.003355310401154367,0.005916227091357209,-0.010576951252068964,-0.034912350297465186,0.04276610502442907,-0.015117890383254807,0.06998946663199013,-0.044977934887389014,-0.037433339475189696,-0.15776648257913573,-0.054007428781466436,-0.20791922547011654,-0.1454847208164688,-0.23803607964297072,-0.23745985637973227,-0.12063143373403919,-0.14147033519865798,-0.20367715323080132,-0.2987707516393867,-0.2919576681500608,-0.21000141150647078,-0.40620455306837844,-0.19364399995473028,-0.12643231664341487,-0.16931596632105925,-0.068209374063161,0.23666548546033306,0.08643823339697466,0.03289222473363476,-0.1434977700020341,-0.08782074582389451,-0.010969292532448606,0.04620651198497304,-0.0530271472287875,-0.007251420329419024,-0.0804475953743066,-0.15652494696702401,-0.3086177164394124,-0.17446931510126246,-0.15797622965707045,-0.1903288483058099,-0.24562706271956922,-0.17466764890659797,-0.3471461537955273,-0.2463035013947186,-0.29996633974097503,-0.19679343074053265,-0.3269512732574195,-0.20376165327109474,-0.38789245296937525,-0.2191735734535381,-0.30956503137646346,-0.057045536741800656,-0.1425002547012264,-0.1579318784013539,-0.06468919801997233,0.03348892009773593,-0.17993891209602533,-0.04279816047784043,0.14637431425548433,0.10561548301093829,-0.016910723689634692,0.034338511879663476,-0.039044245904213674,-0.28040889608869873,-0.19593817436133687,-0.12700538907979445,-0.09910361075243301,-0.0657790860852002,-0.14483760009459815,-0.10386334980876381,-0.05688872240448056,-0.06421150029435471,-0.3405650414565486,-0.22555235645258345,-0.2049379616455183,-0.1918042917349979,-0.43995321035750273,-0.3641817875116709,-0.22261030899400186,-0.11460453339413758,-0.11980909947689772,-0.17866027276572366,-0.1822466826931386,0.07444475218396948,-0.0012981419258867876,0.05517670794430036,-0.009687365513483818,0.04424838235162034,-0.0053301759896821005,0.07275329796377267,-0.12534154890596305,-0.2080757756547021,-0.21320767835181018,-0.11802993060972715,-0.16129365944486576,-0.17514285128173876,0.06388578732839473,0.08229566270807627,0.10236368767295724,-0.0610100343137748,-0.24711695982146262,-0.22191354803680893,-0.13572371882443407,-0.2705344479938497,-0.19088935523330422,-0.26875427755181897,-0.28379955081550606,-0.09087700147949881,-0.1409306459735822,-0.10563654864891034,0.1037684044807194,-0.06703572654056453,-0.04171066217020065,-0.10863834509404995,-0.14754245203406063,-0.11771126439104197,-0.16129978471266357,-0.07509340161654542,-0.12179807580608923,-0.15595485347982319,-0.24595243930542118,-0.23048826568662092,-0.27864825514457264,-0.21764771296502466,-0.16899967004461736,-0.06967553325751742,-0.08089829569903441,-0.07237843737018515,-0.30176957256665027,-0.19767100310891045,-0.2036120967668411,-0.060358883998792,-0.24142282181657257,-0.22718651147406413,-0.04720895896293745,-0.1325387104288455,-0.1001048725942624,-0.2857454571891232,-0.06686571328574152,-0.1416090065040245,-0.10224470443316136,0.028333799730832335,-0.11715951272837638,-0.025489428418304413,0.08169959317103531,-0.17717845793811782,0.04339974464291736,-0.2411019998610186,-0.06918586183755632,-0.2621014253049066,-0.22924308120789233,-0.1931759965198799,0.01934270945136067,0.13937292390120337,0.031224567502339876,-0.18943945050694425,-0.3202841780752754,-0.16890797505435368,-0.15716064493024118,-0.4279525447031757,0.0007456317103627742,-0.20280838400599904,-0.0029162959658296256,-0.0752647686283259,-0.024694000360807558,0.07268435422924881,-0.04778730812114311,-0.004966714279995442,0.06164111305882043,0.01099999728522456,-0.13261837637803822,0.0006182805999080673,0.12957417992530448,0.04482468712904772,-0.15242820538617616,-0.23601106020426238,-0.22322618341116265,-0.16770832819313636,-0.13343306751326076,-0.09251195426728354,0.03685214745684757,-0.011904759206862974,-0.06067415344969654,-0.3369883463808892,-0.34938245897817494,-0.15850096851227852,-0.14914094638597492,-0.07658833698529842,-0.12473645296212489,-0.08741161080770143,-0.10832341276179003,-0.02144508976100909,-0.16349769137751985,0.015708895255539812,0.02019187368064056,-0.04265122171642645,-0.0869540174807086,-0.1211425394179159,-0.010423156740003834,0.051089828058614936,-0.029151785502160504,0.04074636172314193,-0.06754513884374116,-0.08042648358527899,-0.04921617049907589,-0.1227492782893,-0.19873213947726612,-0.1504802923321932,-0.03772943105730011,-0.1626115580934803,-0.03296994449175476,-0.3580789275135544,-0.30561358632521607,-0.12519472588770839,-0.011542735727793556,-0.09758768188208904,-0.027617376213899626,0.07622356674425676,-0.10460297771519397,-0.12589373313049476,-0.1552149128115287,-0.07522040008011466,-0.031818423177049,-0.09240528875025535,0.026898748123250004,-0.014394634819535805,0.01663234224687053,-0.06669941910469418,-0.03234169911371471,-0.017359198994299798,0.002892034697229479,-0.1375612337851283,-0.10577420230925773,-0.1810870528310966,-0.15608176676547275,-0.1505664124456619,-0.018177772558665758,-0.0835002810072947,-0.12622521417850602,-0.20536960330622878,-0.23926337856546315,-0.2745724914617576,-0.04935794727982106,-0.05966430960603936,-0.0666113259540134,-0.18204624601230782,-0.10841747072329072,-0.1343702086318662,-0.20300604949610052,0.08543347584271918,-0.11823433787881348,0.0823848815075606,-0.03486083306899606,-0.04195243372851749,-0.06666445066409889,0.1304869207598726,0.10550677521901045,-0.10429199801063806,-0.03927749469365693,-0.029213385344589168,-0.13257896659861443,-0.10107016406815506,-0.16777807499833464,-0.023237949413207504,-0.012989935827450508,-0.041804577522856864,-0.23110256647088645,-0.24349203309589362,-0.30359574570899855,-0.22060689127944638,-0.3096397602445222,-0.12063993716301301,-0.2851031178013868,-0.04553200709641623,-0.2035855572428578,-0.06514637543431816,-0.11992699062263915,-0.0578958590170202,0.06439951158117113,0.00800209028012354,0.012834599420278044,-0.10015759356852853,-0.07316169360398204,-0.045959891324080196,-0.016399841396833786,-0.14902648400982377,-0.0026087683864324317,-0.20320432816266676,-0.08899570724033966,0.0752261086565784,0.043051120746877156,-0.13802868464186052,-0.1372637182939864,-0.030296840191239422,-0.16904348856011542,-0.24641218861628905,-0.2481724542160201,-0.28760056291605357,-0.14665212295246796,-0.15581169898092032,-0.17946686902069425,-0.08331774182433632,-0.04029614909938655,-0.10239748432427166,-0.16197797359121702,0.020856388820602454,-0.07345244136877742,0.017172812790169623,-0.014688877660158382,-0.0808724490822224,0.030092090059097406,0.03398553355209709,-0.05380931287911722,-0.022611614142415016,0.08563069886528052,-0.11941275859989427,-0.08931632716714863,0.10292189669709167,0.07401224344685549,-0.02133748423740414,-0.14005770851548716,-0.10449933273272526,-0.09115145114349836,0.031548758977459034,-0.33014348442096303,-0.13797615394827153,-0.2513786148837233,-0.16486124137948585,-0.17095614972615217,-0.08595135550106803,0.027772734738068412,0.03739667880430939,-0.04931824454365752,-0.05631340491703361,0.037551430652490086,-0.05626002768794823,-0.10093480445478652,0.11759333855374929,-0.03837322581392194,-0.06828795766735013,-0.03085418654849069,-0.08164813829004186,0.04611319184900849,0.007669870069779965,0.07313394244816128,0.04631346217855476,0.365329010071739,0.1333944294056735,0.06726768384321781,0.3011526305651356,0.13586710793737647,0.06376257103375436,-0.14213386012358148,-0.08449324195568103,-0.11431642333915172,-0.021943859712875765,-0.018384966453979155,-0.0700175627530842,-0.11756028828809427,0.015531974503758135,0.05022173846782884,-0.03389962817304714,-0.08033536505307017,-0.10357489551579785,0.008219913370123545,-0.002568448179858481,-0.03322452268272302,-0.15137448390679306,0.033084972187660516,-0.036894972849599,0.09971036632961994,0.1111375007833653,-0.015627886092551096,0.04690692990417981,0.08716006237914584,0.06684742392683793,-0.00022408839649144937,-0.05391396677003697,-0.028169175375727766,-0.0911945109416901,-0.014012926779185463,0.04060747727135965,-0.041903079115480066,-0.11673302400794779,0.10234784803883368,-0.0030868145738393166,-0.10819236475783386,-0.09712752113571138,-0.03174170786136354,0.030360529997197593,0.0024059735796081714,-0.02493331437045345,-0.010560571567265472,0.12762637752509623,0.09652816472421472,0.0662431408748149,-0.08502920655691171,-0.05016093350850151,0.040146928766132954,-0.03630321005257931,0.015749097941996165,0.0027179607054344324,-0.08155469072571091,-0.05120267527389933,-0.12701487666841613,-0.14349145185342527,-0.292095029159653,-0.23361526285050313,-0.11609453314392322,-0.27367725067671755,-0.18637094331023507,-0.11364485684543874,-0.12760354438227184,-0.09101880899326006,-0.15057101348257632,-0.013424742647691987,-0.16498427983638442,-0.055076697266216744,-0.12422757491965523,0.01167804513797522,-0.10903822267502558,-0.06371287309902952,0.008711942329469861,-0.1464061785915379,-0.04795708867388685,-0.10401050888080601,-0.0011036660004418548,0.11147795753056822,0.10879454227239377,0.048649420281069014,0.14902928716298766,-0.020692595876386916,0.0005596643030202111,-0.06694743332068068,0.05504531432819842,-0.2185061477156295,-0.02319431762560157,-0.1614797660238994,-0.1636943569306064,-0.14923764645192633,-0.15676748873505245,-0.11741474365069589,-0.04969976919084503,0.04569884278150207,-0.11620507280626768,-0.1091189534589392,0.1149053674748181,-0.09557480447698738,0.028731964267177102,-0.01830507680051208,0.05100949073097806,-0.0016669498617983604,-0.022437703249073265,-0.07718659997095377,0.018226206410883367,-0.009504973038194548,-0.01503556586905283,0.0021886368422853945,-0.1075717189316295,-0.06368074863740847,0.04696592067880958,-0.0823776387735303,-0.02694094366939738,0.015007776713530046,-0.046105482067791,-0.09279475256085375,-0.054504891849531265,-0.0667230733220802,-0.2484773542461978,-0.0724088850245231,-0.14095170674078955,-0.11534489698645149,-0.11589295083728073,-0.04928625925080952,0.004998834481521155,-0.07688351391529095,0.09068453301466219,-0.17536720371771783,-0.03658194510117607,-0.09854799294470865,-0.051601276333677545,-0.1797289457606265,-0.023165473134493027,-0.040642374824002216,-0.0233498332488833,-0.05571356429675592,-0.03840171972061844,-0.020394862647825213,-0.04174391912707709,0.01326595760385987,-0.09374269795216615,-0.06353726817084289,0.17691858826893614,0.015384495791830839,-0.0002669646844355115,0.08832961998720172,-0.10249360727743344,-0.006182518225927232,-0.06494339598221045,-0.004359466379169516,0.002914503757897756,-0.005775922344842426,0.03522377672807701,-0.01735693750845899,0.0895527753777543,-0.18131201972063887,-0.006225794792407941,-0.09388359192406917,0.04020207472138647,-0.041100952364511514,-0.05907388127473757,-0.045005786243472776,0.07701181862039512,0.025824428056075613,-0.06761784998960574,-0.05178837604363969,-0.004591719423689573,0.05218796520358246,0.02664659042568708,0.03467406931671081,-0.050312565215331125,-0.0648174999887231,0.030710651548528003,0.15706348918834337,0.008401484479843575,-0.08026008254722543,-0.06635954926348948,-0.002974001791586541,-0.0750764754111211,0.023029841295230696,-0.06262403342159088,0.026100241673085587,0.012146719362313551,0.13431615077999545
-0.05423883020476689,0.05024001023696486,-0.057583258218461296,-0.0004833466864736337,-0.11685681513774242,0.06529748233408868,0.1729035816738602,0.13314350147577006,-0.01006502899908654,-0.09176712004300515,-0.00608563683532467,0.028868037154204284,-0.04055138582882504,0.02992399549892322,-0.0018391720159049451,-0.10391981923687328,0.0013575107763035318,-0.1137711408351997,0.00269925580628615,-0.013266315309538465,-0.06332475372586018,-0.1292456891353397,0.002878716633259103,-0.029142585316018408,-0.07078541035247533,-0.011115880963508865,0.000992764152992561,-0.014511434124371211,-0.018525079591023483,0.0021611618519492793,0.08583029295890769,0.0033797513253181364,0.10664328818954345,-0.06418525336278873,0.051589924757186344,0.01634209390387558,-0.035877338249530155,0.13208565828490143,-0.008235859603074564,0.04867008295771531,-0.02657813154299561,0.016196558667329143,-0.022041178244135373,-0.009108575953664284,-0.01781743288619268,-0.0752642357749587,-0.14916756755030045,-0.03782571071106213,0.024806003675333043,0.028770630530171527,-0.028975143463116127,0.001517098250825596,-0.0392333378148677,-0.15260753116323408,0.043055276911989536,-0.07941609697988429,-0.07477303168818687,0.00841614729897746,-0.03750134336893325,0.1435147811848824,-0.008143728240520655,-0.14257639371445213,0.020604415635914985,-0.038666707156258515,-0.04710104673804433,0.03560023817935842,0.10285945074336651,0.07370149290217705,0.1548329458640572,0.07224968293225943,0.03275744965821846,-0.26775151920369356,-0.3382404967015753,-0.21442176672698315,-0.18514957172603091,-0.1432152726733811,-0.27827548848055145,-0.03793999848856609,-0.009107534635077486,-0.08945088028534338,-0.10774956007297745,0.031231551232532736,0.017137324776674717,0.06547840950075602,0.0633716968477442,-0.021790172794850318,0.1098320068259771,-0.08717975413787903,-0.14854520028526408,0.055695670956243636,0.014984759134246312,0.05912527886228226,0.038717475826878504,0.13878817026072468,0.07042931914678088,0.05528503183333624,-0.0035248852674642068,-0.27491338252720476,-0.16564649399091835,-0.4007579486389197,-0.3291081229964286,-0.5714357729005161,-0.2955707760070411,-0.19727646218055572,-0.03306702047345866,0.005052363274426375,-0.07828175994600847,0.10331947288952484,-0.03949472996496869,0.002560335219142172,-0.1353590713180207,0.0001945781448260447,-0.0031134768415037838,-0.0642097853406444,-0.014285201179772309,0.029353965598793788,-0.020596025268871585,-0.02245565340094764,-0.07417624442227155,-0.0526154644324558,0.04662511130049382,0.033419501994701506,-0.10342943508302452,-0.20780404954104947,-0.1772746352416514,0.014389971442025716,-0.3611015053950309,-0.8018089179541228,-0.8225850201299311,-0.8552619816304609,-0.9699183178435371,-0.28997542737913723,0.06497166819099799,-0.10989156387017963,0.05179397330398794,0.04408965007580966,0.06866349221428268,-0.07648948198405829,-0.05035177741143244,0.027791327102611074,-0.06336691716404866,-0.04516109550898582,0.048693422884972505,-0.06723475632549522,-0.0512125458522483,0.037299970780213264,0.005575623515811904,-0.047699042301475925,0.10480538143177907,-0.08637164740939947,-0.27806163090837865,-0.5008042217693056,-0.2301522540052301,-0.708107241007,-0.3655549035515531,-0.5725985272663463,-0.5435312323613285,-0.808281676152263,-0.7156027670939888,-0.4193253819966185,-0.23172404006643688,0.016041042496632733,0.020622068265291556,0.18110265304468484,-0.10849401142798887,0.015760259297550688,0.009577837536296482,0.03933955201808105,0.07049174596147605,0.03140866363977059,0.07247875370770798,-0.008367861972851838,-0.23098103100093567,0.0034404211524472115,0.10889901430123128,-0.0441374199429221,-0.22824762227312984,-0.5558519194818742,-0.7931679878428345,-0.4578207221789097,-0.4856158442551643,-0.8826169358866146,-0.8774378372253159,-0.7016486728269438,-0.48992565638578195,-0.5233113910679035,-0.7249721546072853,-0.6329407218716657,-0.47859801360228976,-0.22619466447749972,0.1772929299060024,0.17067321483173675,-0.11746100315934326,0.0039018034034606986,-0.02392914123032748,-0.0008668757211554078,-0.10477896546996494,-0.07439319576246822,-0.005850483361962402,-0.10971819698687682,-0.13508016911701257,0.05900375690663952,0.025639918588338372,-0.18102602180567873,-0.10937869516675462,-0.38012849530708986,-0.3727261405100543,-0.2904802873158235,-0.8008084124539134,-1.1646889857582878,-0.7048375348760091,-0.7404711892439715,-1.1153244051275966,-0.6708014234313601,-0.7441393712606743,-0.648077168031141,-0.5034434281941134,-0.4476884270389365,-0.1935310981843103,-0.1072619097752123,-0.1869151692175424,-0.18308617491157994,-0.07762794673031825,-0.040532921084834445,-0.05295662909860371,-0.01853517829047094,-0.04275579243228586,-0.015159857186357768,-0.18555245394201178,0.2930921760366279,0.2569837255924918,0.10501455773430293,-0.24467086955080908,0.10192787038755782,-0.3544759204664165,-0.14834862562017337,-0.7845219665018798,-0.9364371398637746,-0.9810008451924014,-1.1232292354664293,-1.0644476237054772,-0.6016532398712302,-0.7359872340868797,-0.640712101611349,-0.3144798438775032,-0.5473929460194157,-0.38658478853853223,-0.16498939324251782,-0.20937575009873072,-0.09349686228818682,-0.07476102222058274,-0.10483093167350267,0.05174864768459334,-0.05221369186679127,-0.09965446239882655,-0.20264104874414457,-0.2559805633307388,0.0388373289437232,-0.024468700001168808,-0.1183634507523327,-0.49011632316823955,-0.5343102045241017,-0.8254230388714675,-0.4040332883405362,-0.65510015970773,-0.8602885956202357,-0.9143631728101825,-0.6402140795518867,-0.6053237519324485,-0.392232969650697,-0.41386762194451593,-0.2827099301917975,-0.1269201398155569,0.06912315426289456,-0.3199034169584217,-0.18651044582103035,-0.4495701275178965,-0.3575521776556269,-0.14950439114168015,0.024413439228815326,0.0054305852714537075,-0.00020497992914023542,-0.01975125460933776,-0.20397067840636654,-0.15595429770476765,-0.06031191817518483,-0.3431033176917593,-0.08685628603359086,-0.20832513008324993,-0.3892713266191963,-0.4609014852742609,0.022959958608768122,0.01894782309117006,-1.003564836900216,-0.7321767110263957,0.4231769266788088,0.07362117232107461,0.10795681996677106,-0.08887214014315618,0.14222642490690093,0.08407001301228914,0.07698908312735828,-0.0235070119925114,-0.390691834684337,-0.16050482026110804,-0.3547134381596663,-0.07638211553016232,0.09130951000143832,0.08423889594007804,-0.11866196565346121,0.03562355043703415,-0.04039037724720759,-0.153361897112201,-0.038021856520273234,-0.5827768657510803,-0.566534887789455,0.03805779037844698,0.5325771883925893,0.3233102662955231,0.3932019872545372,-0.15352311575961675,-0.8594236128236906,0.3741471433126133,0.5660993052135589,0.6711495484054514,0.18741064365010937,-0.22152622449903395,0.31388397654231426,-0.2690614190254412,0.04736763358968617,-0.0700132599337927,-0.43003610706162393,-0.18537042697710202,-0.28587282251066837,-0.13785406210762313,-0.19036242141951282,0.013197259950605906,-0.055901564879340775,0.0017339513138201704,0.05736012884427234,-0.15841921214064814,-0.029476805782593204,-0.4181110267207524,-0.09099386398241076,0.237248802540301,0.39955743113748365,0.5649481787808781,0.6759071799296418,0.8529317152929765,0.4443079991336683,0.27458236995440927,0.5297423317868328,0.667112182161351,0.04053612943074479,-0.35449375422790336,-0.2600473155068051,-0.19763791451015167,0.15285572719697363,0.049114451561541136,0.10533880657671596,0.15869293976928536,-0.004507188405855872,-0.12538708593326847,-0.08997311002084617,-0.09099428797668578,-0.05890058265145549,0.024464104168573097,0.047275152086723525,-0.49283006336465024,0.012090348824661031,0.46190270401307587,0.31568762234408354,0.525342708763288,0.48253194269378114,0.7459761198059135,1.0466347352808585,0.8196854290974793,0.38438289119034735,-0.41570182828566976,0.21970329877745967,0.32371823366877917,0.31600634540291356,0.36675525966735917,-0.00716065537525193,0.3831933526759783,0.5652424643283045,0.4828021276918567,0.5887918855978219,0.5525822171424507,0.08583150618252702,0.013978715316972007,-0.005087065576813695,0.11926679437372205,-0.025817816563362028,-0.06271219661758907,0.06944490361651365,-0.05330566132132897,0.2539718686885567,0.682675497704715,0.6153983795249403,0.5542755981013131,0.4826854142671845,0.1301662096370704,0.47134083871672355,0.761789063822434,0.23703806251035056,-0.0038090931180528175,0.019540254260215415,0.1467920048986217,0.4838782723627832,0.19982593759499592,0.4261660744383613,0.4363061054843441,0.5084603802333222,0.4261396361487598,0.5696320190793962,0.23781466258810435,0.10881780128541514,0.04089632864683547,-0.11737433380200435,0.0632439962026909,-0.0015660265227510422,0.03217716594780848,0.16447531007616237,-0.098896767961553,0.3646620262524871,0.5116012672406317,0.6370408100191584,0.4323469902999287,0.2925950257116794,-0.24424274762817094,0.14512834393719606,0.6234156892068897,0.40666802192372375,0.5044377461747621,0.381892378217497,0.015446793609304402,-0.10593808113318545,-0.1521551549870897,0.4786106398021727,0.09616435394331631,0.13065918199459728,0.39041222067962744,0.560891164879238,0.14984380690814833,0.16888850627620552,0.054732577828844976,-0.0666231360744092,0.0723388788187009,0.049450104098075875,-0.03005905603489095,-0.08503289040655618,-0.18186641712728693,0.32452111967432534,0.7401912635895378,0.3315730204429639,0.01362293376966536,-0.1881255870889905,-0.4793919577742987,0.26952671022099683,0.37167583253488123,0.24382480268269485,0.7162080646642965,1.070492645752676,0.26819608834946396,0.6129526562732001,0.14264233383836714,0.3030998305183069,0.3326022800506981,0.6024940239229011,0.48273125984560755,0.6486943293671448,0.41926305565285965,0.19805857151645917,0.09244945330831505,0.09801726811935976,0.05315171281673008,-0.04600028273606908,0.043283604029465295,-0.04610142705947996,-0.04300028686213624,0.18231936886779893,0.38483898897094343,0.31130461183812513,0.4128625817553099,0.07159125246771386,-0.03170953606818018,0.3549560011422381,-0.08993048369628182,0.5723506202049086,0.8168185667771194,0.714564260197728,0.41720994920723603,0.6376389946228299,0.35515296836928656,-0.0020314864125474752,0.4887163537547838,0.7329975889012369,0.3796755537734261,0.46240783504928723,0.06538821557762195,0.07132059609344141,0.13533495736023804,0.009265662974709332,-0.02943078951574361,0.002918223287675525,0.03812243441767729,-0.06000857270928581,0.22350063394142683,0.10664906378693628,-0.05678547660498632,-0.10732406435829654,0.13818196046896195,0.05828629884976412,-0.06620103225398495,-0.19100860532591835,0.22638602834079016,0.7113283862992491,0.8290031860088061,0.3980500027677451,0.49794670969211036,0.3453944591433487,0.277459816924088,0.06163758554803198,0.2808059367752204,0.4732026406179809,0.10539609470449941,0.3402451195446909,0.28942330746963657,0.1260199952870071,-0.022018804752515733,-0.042329278124799787,0.054523669921011375,-0.04743517141723833,-0.021598657383259615,0.039132480821176506,0.07924246093508189,-0.1527384679371398,-0.37465592261506714,-0.3530998412960425,-0.3872752028955205,-0.27614851585871436,-0.3601258614769805,0.09506467619559701,-0.28241965626230914,0.26066507606507666,0.6872083130236011,0.36816195012406594,0.0034771469702371154,-0.2781135898305998,-0.06058880912918157,-0.42441230224941545,-0.5154224871374469,-0.16809938351502846,-0.14409248864787869,0.11072329527971901,0.026141952742025514,0.031893138970174026,0.05942862854157735,0.015209109772263828,-0.0526320396161583,-0.05552507628702849,-0.05398048042533541,-0.030895201408720447,-0.20551403374752025,-0.4548326604472847,-0.5745042059913953,-0.34092444244550085,-0.47854909695337716,-0.498999627217689,-0.4539345168989653,-0.07225123098963838,0.13195885942612717,-0.17840587147456993,-0.040041805707317704,0.0385212960857745,-0.13744356985426814,-0.3121829231895232,-0.21546512750684021,-0.9505693429297744,-0.9253503360630414,-0.6224148177767655,-0.5928214654467929,-0.13304653174152162,-0.20817841796966643,-0.19485124721676922,0.016406856278546288,0.00620280324773789,-0.09829096244863496,-0.09705940966959681,0.07464092869129918,0.014370376019003466,-0.22665304091605837,-0.47225627613931376,-0.6291232823216936,-0.5632491467171465,-0.18149429091985192,-0.2683091197732115,-0.2537344930365338,0.04963743858367902,0.29704684942724435,-0.08616762877852978,-0.23211902016156544,-0.20902806871280136,-0.23284634134512816,-0.09626662340498247,-0.35504938077799125,-0.5877595346120592,-0.6804152320829729,-0.5680617344383339,-0.21791193798191902,-0.26615872299023263,-0.23931336594647257,-0.037617473217075564,0.04195170875082469,0.02715027832610706,-0.004828962258181133,0.033792793088019094,0.016559050078916605,0.10771651390052711,-0.2144304676331639,-0.46937662254844564,-0.6453597514533062,-0.7066267924309237,-0.4486805053453609,-0.358037193311416,-0.014092320489707242,-0.02043713745885111,-0.11242900830326887,0.13139890805863674,-0.25054690663796403,-0.28592122070789305,-0.2224045678669152,-0.5093150509722303,-0.7176018121954567,-0.5104750003136242,-0.5383971128608467,-0.28223482102817793,-0.3576995222198527,-0.4981902676903432,-0.142666167463688,-0.03938103995837459,0.021069627527202362,0.10073082504622573,0.029527131948721346,-0.0654554141383628,-0.06769234232715331,-0.165860109828334,-0.07786607540470995,-0.3035894020476877,-0.5018839081161153,-0.5300692612887401,-0.5087556681162027,-0.3710426956401203,-0.609414446830855,-0.9248320904463826,-0.6357489053283603,-0.48086316585802974,-0.01090143913982443,-0.47879838893227433,-0.49321982106827034,-0.45819195160725645,-0.5193714857802006,-0.7087082163327934,-0.4633718800016447,-0.22586143791125587,-0.40177595286652573,-0.4591606777265425,-0.305084460482991,-0.13793576008570965,0.010021736623119816,0.0098382219319373,0.02001509630327378,-0.07399286330549211,0.040113385819540055,-0.11111867380846956,0.05817561075095935,-0.04261087492846967,-0.22705800692697808,-0.3158293485427671,-0.48369635636847313,-0.31308152438349884,-0.6240445546177746,-0.2374021652015796,-0.3488333175734132,-0.26136881589795663,0.22478251308773353,-0.255712850056586,-0.016571318669546756,-0.10556335373955199,-0.29615528761710047,-0.5153361333027534,-0.513672282644032,-0.23446406743324424,-0.3626590219182449,-0.2812757247475393,-0.06352681339964115,0.06279724878153244,0.03627219075932012,-0.0543145640140258,0.1351415021024676,-0.05741017950072543,0.032183491223199946,0.017341930013619274,-0.18263590966252957,-0.04951491837938132,0.05168936728205915,-0.27148982593677734,-0.519681462308017,-0.5737146811579226,-0.6122036512949746,-0.7626066491260787,-0.8234923194630063,-0.802243677241831,-0.7447976991215212,-0.43139675118780596,-0.5224655650201511,-0.42506758421311563,-0.43229478722781384,-0.6725357657029799,-0.4950701267167094,-0.10155353192375537,-0.0703341532019772,0.00419358764761351,0.11275738847197367,0.022757223918564506,-0.04958156680478135,0.054703643590862265,0.04570055686011185,-0.11858553702856227,-0.10571155861569338,0.004841959166898003,0.052896825602063574,0.032673849548219426,-0.17247388126806115,-0.12539779500289466,-0.3144897331024501,-0.3782677789424015,-0.5475467308568815,-0.5159698109239985,-0.7292482687821067,-0.7725354632721293,-0.742218692956817,-0.7578920383568893,-0.8125699051679381,-0.3883632051110857,-0.3991492743338859,-0.31703149044798185,-0.16737119170305995,-0.2780851303193395,-0.04009307914970576,0.08244974793037384,0.06228777687566458,0.05150361135999377,-0.02453764834684576,-0.04699676092784975,0.04789219198573801,-0.024265074425682643,-0.07087551102440189,-0.1199547539053241,-0.050412437195187156,0.03954269637015295,-0.06301449923946996,-0.018316047234808522,-0.030760037953615732,0.04618594382651884,-0.05663598992046697,-0.11005791440970307,-0.23180748803275159,-0.1762291761618991,-0.11985950243228934,0.014383615633635511,0.07488228203544875,-0.04879550402240178,-0.09823351302374808,-0.16398566735564293,-0.13762835785493607,0.012621449601075786,-0.09098498018985096,0.018380619219548217,-0.020990352728574486,-0.01975193066952303,-0.039364756937049696,0.13278085051541075
-0.25733620019971903,0.005929401197993547,-0.05384782747630122,0.018898091180610185,0.030841084783292807,-0.0076471154355933465,0.13653626494318458,0.13931896628115462,0.10064298434676924,0.028661384425695897,0.003280720443817096,0.0030906019062753353,0.023222618592697038,0.0008231812488257911,-0.04039941614460801,-0.006064025444397498,-0.013415600320485286,-0.017043818769583056,0.007768869761743508,-0.0882510217831678,-0.07213196474838693,-0.10733555840101766,0.02883562957849764,-0.07860471972168344,0.05338152343501536,0.03632496036439986,-0.006671806396602528,-0.06326712088704244,0.012143339922555252,0.11843143332016348,-0.0430519772029834,-0.07588269305680553,-0.04589567368367063,-0.09598649141058138,0.11331004362632273,-0.01643217332662252,-0.02025155518215609,0.05193506663775032,-0.014828544461066826,-0.023987637425811236,-0.056037613999160116,-0.06883203932537528,0.07355868606187377,0.0332955878872718,-0.015350017056500005,-0.002301687377237206,-0.02052235323239888,-0.09511018875955392,0.06682619113097402,-0.040997814716035884,0.07441979271971197,0.0181120266510139,-0.07201192173880129,0.006694382506073697,-0.08508173901171265,0.020850831215423443,-0.02251622154083026,0.12278444065039723,-0.09888384096356079,0.11248578462638038,-0.07282116510236704,0.08531602617588052,0.0109741330009558,0.03229624953967455,0.012043605947498762,-0.00899575094232503,-0.03190389944905511,0.05298427336265876,-0.030645090144606875,-0.010737649763654992,0.048019974410864634,0.09703571876758642,-0.008521507722907853,-0.042920897765197044,-0.019262381329038156,-0.02430480917169425,-0.039725398875829473,-0.006219414287961405,-0.055361407739871214,-0.06284414931961499,0.029067394522321707,-0.009884698347699311,0.04804116743103082,0.05285548362582543,-0.039027891090609015,0.004622986038779832,-0.11071505157339893,0.048720996593596896,-0.15033213898326836,-0.10384659941535263,0.03596333820938983,0.02366839175892242,-0.16097855149259768,0.1134057735853815,0.05264775719881648,0.041840659171997675,-0.16438182813526858,-0.0064345995443298365,0.020327547097405127,-0.020745287579578334,-0.005027639847529845,0.06970423331990537,-0.052744987542485744,0.0984731254404261,0.10673173429290553,-0.047736250571314184,0.07718512915285859,-0.044152908796425826,-0.1406158660895058,-0.11731872645917908,0.002231195752208464,-0.03708016931448062,-0.11613190536982895,0.043225515261010414,0.011923038844928647,-0.035875658005855446,0.05052547759136464,-0.014847153897396563,0.004651273271868567,-0.02701892630515377,0.04693718957282057,-0.15655747593059444,0.09190350246181628,-0.12135348854967007,-0.14429652404139504,-0.057627857519002366,-0.08449825847005424,0.024695101328625145,-0.060236200923172376,-0.05893900871525414,0.11326193959298247,0.0989380655424924,0.07113124941244281,0.04066776045812385,-0.10247994491750212,-0.04712381312765233,-0.1403285779377934,0.03554578317658908,-0.06711982258843881,-0.026270193805348258,0.02113654788769978,0.06047912412378584,-0.012456164543645665,0.03287895845466453,0.0057794714671253545,-0.033885524300637515,-0.0012707604780592425,0.07240023134543275,0.010933779870734508,-0.1356970668425735,-0.14576758990295374,-0.15246396182090105,-0.1031137254378667,-0.09572453914732044,-0.07623967033142239,-0.015366050389155287,-0.059309994022557495,-0.21524766664958983,0.022853013461392818,0.013379765728701106,-0.018136877624581375,-0.01877297702870169,0.07127707944358565,0.1396226949343963,0.1339991576192985,-0.06211117892514759,-0.00626882900598135,-0.021622357200068765,-0.047170171353148535,-0.05568615046280282,-0.09495657689776449,0.09149486211847048,0.023993484570781952,-0.013339931975585995,0.039781017990160476,-0.005749514919689554,-0.06839572109892533,-0.036621158475746846,-0.06646769934524954,-0.23604615231605122,-0.12154294486737263,-0.21561308043232055,-0.10815306311658092,-0.1363896642214636,-0.217338745191405,-0.2665778325578951,-0.09400233524830942,-0.06783898177154188,-0.050571722521430315,0.029420661813116207,0.007969144184360436,0.08698661314097021,0.24111838987105289,-0.026394337609433962,0.001691213263515127,-0.0810232288741672,-0.09461784550949087,-0.09363474505368499,-0.016179820966488963,-0.05843885969447435,0.03855170630760708,-0.008655813682534477,0.04068702231857925,-0.06341260658761766,-0.11299303069522616,-0.07148147093216296,-0.14340626795092284,-0.14839152228886884,-0.16415310270718514,-0.22727786426985924,-0.19152758039252932,-0.324952070147196,-0.2820644079974299,-0.14039525581230625,-0.07770515014854447,-0.09001245344193123,0.003986818479698709,-0.03225918588592764,0.021231649015969745,0.17175604090085037,0.1540123533646677,0.015695655187861365,-0.08108994143124411,-0.13761963190464477,-0.015491361599326457,-0.02272870206863017,0.011391649933967022,-0.12378291431695432,0.0317720929817996,0.025819451239616077,-0.0827688525876466,-0.0787608327892284,-0.011344892197460125,-0.048504690073446315,-0.13984636242129758,-0.12427210327597954,0.004284962358194246,-0.13707744763794388,-0.1601661687226353,-0.24142719732794113,-0.21411387801523113,-0.20904470203706968,-0.17643681104369344,-0.10693850980871718,-0.1205318842790589,-0.0011850521159091798,0.11639764314746702,0.09030840854907916,0.12039966016446152,0.06250984509944897,0.1539218434514814,0.02594187303523926,0.14462152382390628,0.09860895312570735,-0.043272714269638926,-0.018071777601952457,-0.1078805115205753,-0.1399674698025254,-0.06195364425333242,-0.05244464829176358,-0.11928811104805218,-0.01337189414195125,-0.19651261643953521,0.03708969605181152,-0.1927753253734464,-0.034153910312852614,-0.15522833949236678,-0.17683720193331248,-0.08479871058428586,-0.052950722761209025,-0.058421763676534566,-0.1697335741602872,0.051487581934869124,-0.06432815604264362,0.0527155056594001,0.07384141361487977,0.09951974376776726,0.15764164175006282,0.08429465608575692,-0.14184593098542247,0.03965976582278977,-0.056742617736370425,0.029229990204411742,0.005186761738858074,0.040482208186621474,0.034865011950016976,0.06700319992547595,-0.12150903929641464,0.03635264713332971,-0.0819304978497941,-0.01729766207857163,-0.08519212192122902,0.09236256553598972,0.02072669192494036,-0.053339572485805314,-0.0709690054496706,-0.22815148010440764,-0.2200247763821212,-0.11401142690751781,-0.1994953141685345,-0.20362673490864147,-0.228646565473542,-0.16054955020982536,-0.028848599195057747,0.02594465473525173,0.029878285792876682,0.08526786047586553,-0.03377104964226174,-0.08540473462509851,0.0630693298818629,-0.022087019243658225,0.22358549826004484,-0.007977160267398711,-0.014963712351695586,-0.02255221353600871,-0.040745952595666,-0.019849114295310683,-0.028456915578754755,0.0325637758663109,-0.07822398380442896,0.026490889319730475,0.0017318043725126073,-0.15686902250372242,-0.09369209409702782,-0.13459159876963894,-0.012783147609846984,0.06801903457286033,-0.10449695218306036,-0.013440140941549864,-0.08396784939460875,-0.19525448702670123,-0.10000428449977289,-0.13211346180267233,0.03455978335185966,0.06217014446385628,-0.03794908492270351,-0.033388357652793736,0.012575183808182316,-0.0785870769203839,-0.03290938281212056,-0.023932903662118813,-0.041546878337138354,-0.06579046647181416,-0.06502783292931018,-0.0735809079953454,-0.12332254805791604,-0.20065159970135324,0.05653456526012443,0.03221899708828433,-0.12184635156788987,-0.1702458104324404,-0.2814499732991271,-0.282789814027493,-0.19062209884928857,0.07319664345386089,-0.11562836331274297,-0.05394798287368933,-0.11979711677913485,-0.17176108054343966,-0.004917268763681548,-0.11761126638397389,0.054789034271212095,0.037332287917218404,0.006524863618521362,0.00606451191167478,-0.08437309281208888,0.1137901330664807,0.05767073007748482,0.14322149717342877,-0.021586692898342204,0.008169708914001338,0.010645617262415826,-0.0024278994835777623,-0.16487485239203922,-0.15571923376235025,-0.07266223465012517,-0.011571393591722384,-0.26522207759554906,-0.32605443340836476,-0.27535719202414344,-0.2661478724571924,-0.2970684656849101,-0.21252670087718525,-0.15356548161868117,-0.05178760437647099,-0.08548796171165275,-0.1352216567337922,-0.025171289935789917,-0.06956368465060689,-0.05309850740723913,-0.16139203754447976,-0.06364101732399924,-0.014802070143655652,-0.02990532570156064,-0.02059408543743821,-0.0737519889099706,0.018606866625861914,-0.11314540785114292,-0.134263984110731,-0.11981911043183947,-0.09983166971022088,-0.19758444343068365,0.060389848473012354,-0.08180993883647622,-0.12361931925414268,-0.28221731162202635,-0.31750976934246516,-0.22000725574780658,-0.11908018511747058,-0.2505080668194474,-0.023042384272935076,-0.1734875485039401,-0.22733325198938859,0.046624060106742735,-0.1885052225595863,-0.018277319929731008,-0.0008448738803842545,-0.018865248243518193,0.09364767312219872,0.032649289045816404,-0.06428793360334638,-0.0061321805073145655,0.10583564375158093,-0.07579444314385772,-0.03322172600012087,0.023687923371175947,-0.14827698063894848,-0.2673441811080754,-0.14842034460274378,-0.18004475883971094,-0.058577762774622566,-0.08815595852073399,-0.24991525050630795,-0.21143492550082127,-0.23534773308750231,-0.15843028579127547,-0.16928452765938998,0.05155018350969222,-0.11717783726994581,-0.062210869522163245,-0.13641002210032965,-0.06668203200276877,0.04118574768670251,-0.14034828173282676,-0.07430931705946671,-0.06922123941227605,-0.0955964954321119,0.019494986760015275,-0.022813860309856642,0.03861896539939752,-0.06587037876726348,0.07622433119589773,0.03324285746010026,-0.12680355183275913,-0.190376164314348,-0.29344808929691224,-0.2819242694341619,-0.19403000727087322,-0.27860477138872486,-0.28391088194536485,-0.2092040993354667,-0.2689518675845072,-0.30474778807868846,-0.17799356595807334,-0.09731358445066961,-0.027648426595115655,-0.09186264628811756,-0.07855850690007812,0.07798705180179372,-0.08122125728297447,-0.02613117860678761,-0.13022503924863607,0.03959038531637921,0.08993949208623433,0.033725114952929396,-0.04210649207252759,0.0375529873645641,-0.0727113015186313,-0.09013333330871127,-0.002659700345131055,0.03244436707736388,-0.013591833811831096,-0.2237111958766855,-0.08660299838010924,-0.16371780083008855,-0.3016304591266348,-0.1619705937629256,-0.2579975505287094,-0.29942393011239193,-0.3948644292620891,-0.4012467454007498,-0.1691636070846244,-0.19110136347568663,-0.021276267048706887,-0.11608859281294608,0.003032119143031756,-0.17566728678694615,-0.07127083526299492,-0.039715372587552505,0.020061774813790793,-0.0473131456903718,0.0007861075949371872,-0.060816970820767716,-0.05659370040339204,-8.905633694869977e-05,0.08059883382238013,0.013434764403917207,0.02318244264097953,0.08706803719695688,-0.07504671502151607,-0.20552764744369895,0.029796747298054916,-0.06827351803528049,-0.23549240657331474,-0.2290503321407196,-0.22377570930564444,-0.10013177986131441,-0.19047025529828582,-0.2494038786232127,-0.24503328714688866,-0.1964618480604529,-0.10589451799639507,0.010533782875298773,0.018963249778169315,0.06180693838161129,0.029600100145938748,0.0006639737791522195,0.01984822428025443,-0.0533786143838024,0.016143969346812392,0.11528645381129236,-0.09904878872286323,-0.018241235803884488,0.041602903785871934,-0.0624829239558641,0.045719596121920524,0.04510841068925193,-0.12052605235526798,-0.04311758760209772,-0.08465306147857507,0.014760336068752348,-0.019468402871709495,-0.15203020094145742,-0.12452691953811043,-0.103242475691194,-0.09010409257404214,-0.26425305536329813,-0.1829119754256007,-0.21315820072524258,-0.13134459438980622,0.025681013558708127,-0.13415214113636184,-0.0480524022170807,-0.07719245899992652,-0.08615452594096075,0.031706322401660283,-0.01959968900688439,-0.007367615125913166,-0.04173720085136378,-0.011786682299780487,0.0642506257492482,-0.12062849322236177,0.017877012124341125,0.11350729375384078,-0.00660073426000308,0.06494493015291283,0.08654552746785067,0.07920730499969593,0.11129673428037243,-0.04474512991359597,-0.07697997453953727,-0.08208329924993019,-0.19106125262830317,-0.24717939678459702,-0.3081681115876928,-0.08872290856121014,-0.09741787854155896,-0.0004116156776313609,-0.15758109491120062,-0.0014710373664626186,-0.06113666885869078,0.042975104586604404,-0.048471832410669706,-0.060483648323617134,-0.07424908147295663,-0.10493236803324923,0.09098803873230595,-0.019984342965640937,-0.09089678235461904,-0.020171982656345212,0.07322620251919405,-0.1647007981216986,0.0915808486944061,0.004476443004762965,-0.0314069754788732,-0.10587442888475884,0.10797843653913848,-0.020664620010647693,0.02888537172243007,-0.12309546121988256,-0.0030697376144314566,-0.12518956018729005,-0.18283230178011392,-0.07707269285852221,-0.08265520941085153,-0.1021619161290926,-0.11397380147566569,-0.11022259046894163,0.04892975062133467,0.1308100900228266,-0.11904459983056133,-0.0781001469325199,0.05871067660915945,-0.09506535901277983,-0.07252018230387124,-0.004655735772297476,-0.057324294438967124,0.07033645390011521,0.08770287254772946,-0.014434531454997025,0.001282155000411201,0.07947196765493213,-0.013830595347651398,-0.12734401210065271,-0.02744769453927376,0.10539693633087684,0.02562151300948831,0.12359455544360992,0.06794967806232752,0.03552845140117394,-0.08247948253594681,-0.14708356682530896,-0.0752032560139589,-0.07263728995784947,0.004791903056096163,-0.030446133378134475,-0.09547763812471614,-0.07794112043510082,-0.1369351703231069,-0.1229058720449704,0.011906639283217073,-0.04102468670594454,-0.058714032631873594,-0.09097936595972711,-0.01672868123194636,0.06884626597232359,-0.0799490243579746,0.015569880416616914,0.0851305006478327,0.1250806390507455,-0.04566320275441755,0.0830973775324916,-0.07311610281141158,-0.12743968847135168,-0.0013309345331030636,0.03598853881414172,0.07804347178426961,0.009816056070024434,-0.03175008778503053,-0.005476964740749069,-0.1416466837455867,-0.2034216943812183,-0.14271116548621535,-0.07139024996448134,0.10291820175187918,-0.08867647940931371,-0.03850470544645772,0.044308176220734304,-0.08315036163190358,-0.11727397016530333,0.03491826298392455,0.037024523534693626,-0.0014087184787464247,-0.019049742710370753,0.011355917787694047,0.054692817468397166,0.03781525581797408,0.09555435346118298,0.06819663698084606,-0.0005342028166316216,0.02512499774017688,-0.10870230697892415,-0.09707665986696683,0.12330273513520748,0.0629266404295697,-0.01629531225704305,0.038892089169915316,-0.11773759661082633,-0.06242450199150172,-0.007897373919167996,-0.11412060835277157,-0.057039963080887816,-0.09202284749338192,0.039906575827429305,0.06783387333605521,-0.02261783152126721,0.06382139358559781,0.030184315176811954,0.025851975398863702,-0.05543851814308756,0.02928939098373698,-0.051318426503162526,-0.03524319754599752,0.008106632015333086,-0.10238105957188731,0.013676808667758241,-0.06520356572183245,0.1076819132586434,0.03169030914267053,-0.04022123367847557,0.04071224538749416,-0.0014501630035918618,-0.02368026934913431,0.07294687938420472,-0.015476349330622799,0.030556884014016895,0.05089188773726607,-0.10444630512602869,0.19994240673668648,-0.13011907583268237,-0.020003253062581335,-0.06057799872754179,0.07715466482041845,-0.1014648631621847,0.13520031975687752,-0.0679804837409064,0.062137882403965,-0.13624171813693506,0.05072458271943181,-0.02291667595686242,0.0033668198478609577,0.06479656743121076,-0.03517668416304079,-0.1170387135777001,-0.08003594760298034,0.13501685440397113,0.14573061969633952,0.010686499905845834,0.02814883063402899,-0.029111555764428126,-0.07718566497816995,-0.13809143251290573,-0.021633618690269103,-0.007329651002810575,0.05891740747385205,-0.0858915614166137,0.004737461903010597,-0.04197996363139758,0.08012146674990969,0.04705854208970269,0.02936206095033024,0.049285222470263776,-0.1359542116183792,0.08385479060756142,0.11861145654355557,0.07275975474213718,-0.023916530447119555,0.022167371533253953,-0.06675289033107959,-0.0019644862598586525,-0.09127152949668194,-0.07403000902329761,-0.018081177585323956,0.006539806300870872,0.06647673318263117,0.10763685186728207,0.03356252120049724,0.09274487042577806,-0.0805454403984115,-0.04298948757088501,-0.07912649230583213,-0.04979561933720756,0.018716729530134757,-0.002619489541383183,0.02488293877064418,-0.006843946901489136,-0.02705462621458335,-0.052541007619894886,0.03800712453144137,0.018132360399594913,-0.03263252921741683,-0.0470011730398493,0.11157882992743681,0.007987369395762776
0.09696384827425315,0.055086682704485586,-0.09053083441957623,0.05668349565386759,-0.013382296209054007,-0.07773072726209786,-0.0025312555871515783,0.03763131985848021,0.0382393367210492,-0.030766242411400156,-0.15983806170309844,0.010467077012498162,-0.052326718230935786,0.03640865197367454,0.022729518937071487,0.03220530154886723,0.08929352340332387,0.02495484811376706,0.09684755653719314,0.015131173041085433,0.03541756281309725,0.03830439561374039,-0.03206949150330218,-0.007181139942185962,-0.06509096516199188,0.06016464195932567,0.04147675830897234,0.01746687038398531,-0.07244907767820895,0.01783950432792896,-0.016110236606841445,-0.012388679947732002,0.04434008585814216,-0.05472594725752967,-0.004560537661063359,0.016441025132373444,-0.10483835642687399,-0.07973970309290643,-0.02861765024515328,-0.025971660096510845,-0.10983879239183006,0.018941617564895246,-0.06275775467367935,-0.040586205418050615,0.03159928023123578,0.08728882144943731,-0.007067647102048199,-0.02428680217932275,0.059446960955400405,0.14271848999027587,-0.09138248952195961,-0.028727997282722406,-0.049975373682692247,0.010668211205810784,-0.020000586412860955,0.036511195995994054,0.09145288747063761,0.09443574338797238,0.05943828152814345,0.060445070612672465,-0.073738496129633,0.08956231788806784,0.04299388724565693,-0.07174393150527546,0.01713472610267856,-0.024091940042331776,-0.0933959372162971,-0.08574997881465075,0.010331661150399974,-0.05372064973351191,-0.06494155923463145,-0.20930099697989196,0.010222141879767393,0.036632608781548656,-0.04348867382445761,0.02695501980248295,-0.07547046570058655,-0.07077869593952633,-0.06561426673498001,-0.05002258141487388,-0.05350803841205807,-0.01698897886191582,0.0059827959854599965,0.1234740842256431,0.03908772812765477,0.01411862930988094,-0.0465661507196113,-0.06381881894424997,-0.027317297599599874,0.01689983771333084,-0.2151792442257405,0.0025959866572818676,-0.16086016113127524,0.12096020395169176,-0.02366267887007975,-0.018680892091098394,0.055899732369967425,0.059575371297099514,-0.3447959841018088,-0.4023860103390384,-0.6290342402692026,-0.575436215528638,-0.4937332271425951,-0.5091038739542767,-0.6078035887516297,-0.3349001359503243,-0.3746641686681821,-0.1800280818629664,-0.21813911432243432,-0.05489673198996925,0.15651313754478746,-0.1623312964420146,0.0567748427711219,0.020882723736420312,0.021296364604934025,-0.050507436089648194,-0.08669811358203917,0.1559587502819139,-0.05459015282188098,0.12884429002665657,0.264183966441169,0.4040687192749679,0.3470839849139172,0.4685498837684685,0.3162152862809932,0.2351055813027303,0.31008012804095697,0.11145218144922786,-0.005282932479999846,-0.2794387683442626,-0.3494556984760187,-0.4423498392360828,-0.5954124349838953,-0.42042317304958565,-0.3604156763633293,-0.21397682584920688,0.04301718913624177,0.19459379071262792,-0.15462984351962766,0.0980712263000292,0.007268246077320247,-0.003205356959607063,-0.007651232769896653,-0.08756704674158607,-0.012402838993812828,0.17799808486318297,-0.018508994407196326,0.21065410837852822,-0.11943259989071515,-0.2771142306442171,0.320109829331807,0.4375490232389234,0.05464641686640923,0.002707920480179935,0.12867171958407572,0.27970173190737396,0.9713361341693999,0.6163796704316253,0.27686148245986975,0.23747006201169663,0.30753714316429376,0.3446195900406461,0.3188505330320988,-0.005898871795302991,-0.022306485160234764,0.1042060170147219,0.08543867505371097,-0.0743908292412235,-0.0023828927819001633,-0.05222643106844222,0.033655612435150035,0.09575023668271632,-0.011108133385125793,-0.19275302723479432,-0.3412737310770802,-0.3702185936816987,-0.42674863038370175,-0.19590501044864828,0.2583135425916572,0.22361217815738132,0.4045914334672542,0.305184984306585,0.5019020471602512,0.41040073681106637,-0.10953260306478385,-0.06936043365989573,0.4721521434619199,0.2466206948571537,0.19858919521400797,0.1491077189483352,0.38130661962975454,0.5871601919937022,0.2730033208426138,0.24352977739138065,-0.06234224147888345,-0.00889166578106792,-0.03733583351460199,-0.022380745873961883,-0.0244096221209214,-0.06645960573180422,-0.018140011233782668,0.23202761559106186,-0.2290788974512668,-0.17552309713653852,-0.06668753751682219,-0.22827049958842913,0.19629150189842792,0.08974296315835335,0.19504014273089643,0.04054369405935206,0.3227757636829454,0.15678702163506872,-0.15828728297061626,-0.23647173842480262,0.4555722781286541,0.14350670283997008,0.23106967214917046,0.27075642030499986,0.42167451873150613,0.5391919489445512,0.4776038162845832,0.27325514555340347,0.13041240218188527,-0.08845787129870683,-0.17823499543529933,0.04209339773470071,-0.08624674975284567,-0.10381607173890532,0.31168912062468457,0.3112598965989347,0.15541609472753673,0.0021641888768214584,-0.17147987289621375,-0.03377588837095322,-0.26526510545946974,-0.3220980737348125,-0.29752845656514276,0.017257284094492557,-0.033819021232964964,-0.03456744605298515,0.20702586315330165,0.2615672596165801,0.14082181860265106,0.8195353393037621,0.4087977317379039,0.24859737507207266,0.41392537186244655,0.11992422153930338,0.5033231339689044,0.37968866417747343,0.049068910123252,0.02657293629546164,-0.08167987708269465,-0.0064514856947423755,0.03933914907158492,-0.04464917816899061,0.05873606756098263,-0.009994854113693845,0.051238128544881995,-0.028895903640912803,0.07661531774145884,-0.05607125837826501,-0.23363711663164002,-0.035236702813096044,-0.4106110956441416,-0.3186991159430777,-0.21009589929441227,0.04784214486975175,0.05056895358524765,0.061617391850245694,-0.0248895293209044,-0.009303978955356177,0.11823342571172686,0.20610998642771008,0.18038076068879383,0.4903541389441502,0.6087509341621002,0.4038868446058025,-0.021300072264096623,-0.12945476411333418,-0.17508150316619833,-0.1854986776004371,0.012546179761644703,0.011766357225060376,0.03175209822564174,-0.1361856294883757,-0.10715088382268767,-0.2096806139223873,0.17808466883198648,0.04403287745046677,0.1743338241214581,0.0917128479496698,-0.2754779851547789,-0.40077354697307643,0.22518305056375276,0.06329208713235092,-0.23669874353829884,-0.27312041988863206,-0.21445132365126038,-0.15705080518837183,0.20365783253174496,0.32103121951004987,0.11840906888470279,0.5096263760847386,0.4702702432522587,0.22884062231950705,0.05991403861451787,0.01983622048177448,-0.04456073320857282,-0.018176472345688265,-0.14502008804847633,-0.11940178876548133,0.115834717593631,-0.020124709469201797,-0.26470557518668636,-0.38376453375966374,-0.27128250191859943,-0.3268422906781864,-0.2642418822233284,-0.3838945230478789,-0.512829978375312,-0.21947776549220646,-0.08086086386693594,-0.6726699664357305,-0.49762995633376866,-0.7232781917335346,-0.6072646773633593,-0.30380179048911304,-0.14914876408189795,-0.14737750962628368,0.07679434993773764,0.5054820716980283,0.6082740351202336,0.26956342242616665,0.13616918719672388,-0.05936007624529239,-0.05205988201193972,0.04176081174678168,-0.09665806618576012,0.03366927339294944,0.04178776597741263,-0.1747086396942817,-0.19979159889315384,-0.2219405988072933,-0.5828607557539149,-0.0464543867786358,-0.1770091148081596,-0.4980298250247764,-0.39463880456200867,0.16781699811725914,0.09151508992303539,-0.28679826486852344,-0.31934320408243294,-0.2042643277713471,-0.5894042675386407,-0.4573766800305054,-0.2834090973829513,-0.2566434822283415,-0.1440576252551952,0.06888279256521566,0.11120387622235711,0.04400098536153319,0.023020671075500113,-0.01998219574268597,-0.03398321094458575,0.16376870359730916,0.04739213766141206,0.06467550944690288,0.08982686422481062,-0.11771829656429507,-0.28340986856776657,-0.17427310149692005,-0.02229252093151897,0.1760013057311916,-0.41539691280671753,-0.1283279030385921,0.22492123347483675,0.5198046180615774,-0.11377557328723355,-0.23758281121915448,-0.3240376879515917,-0.08397606699978237,-0.15804584141691827,-0.5742842583467205,-0.22044087332513834,-0.29261394918812755,-0.1631555556544579,-0.08588687812481638,0.05324404532797593,0.08144118983712906,-0.0836807213459749,-0.0322511366488495,0.05415533073598188,-0.07787669306453217,-0.08303490284551739,-0.1260021936539522,0.09577342721367067,-0.17305297899944616,0.04975207914047779,-0.49422132365415516,-0.4308939987242524,-0.3025636887089357,-0.4096652282233024,-0.1243576795139104,-0.05719913037074444,-0.033918093438063575,0.20464437196427324,-0.24050655988302588,-0.39556467970941994,-0.3839913469290832,-0.20525002883055257,-0.4381068996919319,-0.29391722583210345,-0.3609897992874832,-0.4318310324244277,-0.29292909881830836,-0.2012132744981836,-0.0025375408242044864,-0.10059979867652818,-0.056961724182718394,0.09725020831799513,-0.07750597427485266,-0.04475372474449362,-0.1289491078586344,0.026102825242191246,-0.05122465112147022,0.050346609898578504,-0.08525881101940355,-0.4050682086474452,-0.11492649211570152,-0.5955239975526058,-0.36110151528591683,0.00418809640318175,0.22618204618493332,0.07596427802625512,-0.8469490860967706,-0.28140416752767167,-0.6827366027692525,-0.5560086622062254,-0.3793484073812777,-0.5182476297352933,-0.4583575655259622,-0.6850408830989301,-0.19078499298722912,-0.1190120989918319,0.08676326010091763,0.02507332240532993,0.06693362049653288,-0.025731690904597863,-0.0496125288058415,-0.0025484489254357537,-0.0039029950579701363,-0.025920952109035597,0.06718207558402092,-0.1478311678022263,-0.35881179331772917,-0.36918868390020115,0.09978443537812759,0.12611139561534138,-0.36435494331876556,-0.15583927896838823,0.6485958513253656,0.21456105731142144,-0.7446950595997756,-0.707143898782486,-0.5542050139308391,-0.3373714508306725,-0.3692036098516049,-0.6429698009267929,-0.41388317878746717,-0.2557927720926421,0.2615692207386675,0.0232050741036592,0.1278463567012023,-0.06673316389922267,0.05895894515260357,0.06986267898299008,0.0003478814585473534,0.011342739833905935,0.08585724160751146,0.08086490197589788,0.03167844891192746,-0.11475186318425028,-0.1764508540787054,-0.01373851498487985,-0.44680250980157693,-0.4327919616624069,-0.2561189973745895,0.31112420117770256,0.5862322010250133,0.21981852862832887,-0.7285791438391184,-0.6303297439038834,-0.5473136445315173,-0.2596399997659108,-0.09675712077752206,0.3956520475185796,-0.03475826498522021,0.05641115578565145,0.1399759347101131,0.10158151921331161,0.014188521100744613,0.09091097676566222,-0.1356821541264291,0.03756822744413249,-0.11022228391072232,-0.133089557571798,0.2753059098506348,0.2585037296583469,-0.07068362654854737,-0.09945489179567214,-0.14188800889283557,-0.1822886623304093,-0.3545305571831375,-0.3338800249836827,-0.4305057690041654,0.09744750558898528,0.09688705399998059,-0.5962349335165991,-0.6170359710014957,-0.18278560263115617,-0.3013265400536951,-0.07024580556690416,0.12259630411856774,0.39733066118779603,-0.039040517973517624,0.1360073529124719,0.5561745929838153,0.4476996212103678,0.10942265798533345,0.010741233491327244,-0.05467618735517934,-0.07368677283288347,0.01893196470180375,-0.11558601734591283,0.09812853346522833,0.17085535156904907,0.005818940751259115,0.10210671516235942,0.14240092161956983,-0.08087256229652261,0.05658704816449142,-0.5375790660907429,-0.9654920553858015,-0.8175601555807029,-0.24273771429806879,-0.7420789487190322,-0.01306899608826776,0.3333412730935583,0.23980064783792118,0.22926878925686306,0.18049628823484384,0.26598127275126887,-0.03639245862092412,0.41684067905572025,0.6647698719372565,0.46467885209192966,-0.00977820940185291,-0.026812490128571786,-0.057397840525248836,-0.01372259812366179,-0.13742570190299552,-0.019292907602552384,0.19604945005467006,0.04533460847050463,0.18429004755722012,0.4185985065875719,0.3070865412670789,0.2627656095112559,0.401137340982182,-0.19810246528778314,-0.4520722972044968,-0.5272534969488317,-0.34075485728118454,-0.3291681175315001,0.1751905235715865,0.45387404772212825,0.5629099453853658,0.47517017759611574,0.5563903316577019,0.8596730859783741,0.6222817770182121,0.8261551687808026,0.5431651837153311,0.11369368019632729,0.004412170287195772,0.05860237133851366,-0.12550671402690283,0.000920432835298676,-0.042376124284990595,0.13807717762224447,0.18737896293001527,0.1482244822430287,0.16721462349991437,0.633318621415906,0.754319599556656,0.5044003992503246,0.8445457474774085,0.8663921511376521,0.6900208419263233,0.04634582545960192,0.6705909481618076,0.6529442356157373,0.20748655534263782,0.18226395528447242,0.8312610853103103,0.7243801201641954,0.9614638692392999,1.001889020475215,0.9717701559762775,0.8070381832177063,0.44502837632944564,0.06698926216142409,-0.06694450222131419,-0.03365235955921522,0.030712673236652756,-0.17173482471626017,0.15756844882824542,-0.07941635864467646,0.34539324415190414,0.1883595589532388,0.3202940115649284,0.4692269401569404,0.48915730395835605,0.7039119197078295,1.0597906798784649,0.9454434918478019,1.2037544748923295,0.7530121746093165,1.098795110184878,0.5019676734998072,0.25340625550556556,0.48177782178887435,0.6643827022804824,0.3986788708565582,0.28294993733649976,0.5483543705639105,0.659750990478047,0.5615483548341648,0.4741701351025787,0.022786724379327224,0.016438243106350274,-0.0801769478870568,0.1184347187203059,-0.04833835991432763,0.044607132612207924,0.1133542091270159,-0.13151868238694273,0.08748087813311772,0.15740583662233884,-0.1276048576588443,-0.12106732302402401,0.4522215019920068,0.8492801466240134,0.5310977245854706,0.7167868148302861,0.7715177096920516,1.035911180128092,0.6896278875392493,0.8565232919988828,0.9333554796767242,0.5375307855911629,0.335426604350999,0.13586446246521017,0.19597502964858213,0.13848805860085672,0.2901272968240884,0.3782761823876366,0.012192330530025055,-0.07688038181473862,0.05454169508844081,-0.059385126184734884,0.15045400665404746,-0.012229805716661163,-0.07802564574552899,-0.13055155344647185,-0.26511120464365817,-0.41915338746634057,-0.3992166040204994,-0.32889859863023263,-0.046306078262610004,0.0951220438911892,-0.1410508397263328,0.08893710119416288,0.43303026697840846,0.40185949763170703,0.3103416577409521,0.24614511972014752,0.3066214721118027,0.17931725770805132,0.24232729407913714,-0.07859788457278465,-0.2548904979075004,-0.04463268302183922,-0.02209487542952824,0.17089536890366644,0.07572716043457427,-0.020658564189078667,-0.08484275782402684,0.010416751123584528,-0.03915334880062763,0.07271380001137208,0.04280562986711214,0.02574991599551582,-0.24044796671729576,-0.43256264630531976,-0.3403624975321117,-0.20400637750590436,-0.11765712119991262,-0.17477516522353254,-0.16276547996804347,-0.5375667913892129,-0.06328609109434422,-0.055216270246628445,-0.4956524139884027,0.1912997785024582,0.2445556247292008,0.19019619617162234,0.07746425520853142,0.0468942706787636,-0.13088708504107144,-0.11759438090748028,0.12937541181480977,-0.12573915853132994,0.007443663776582271,-0.1471973551848426,0.03303061047858475,-0.07323707764744615,-0.14880974152032583,0.0406987224890406,0.021313705178799325,-0.09016993207900133,0.06432440002486244,-0.1072941476545451,-0.02078553112605511,-0.1185619331472829,-0.21215421061063833,-0.1582565669388701,-0.19719915616313471,-0.19372583275582106,-0.25685389621611054,-0.3966584215945511,-0.48530956934887226,-0.17660693366937247,-0.16051385123252573,0.08907830324810184,0.009520426846923374,-0.11323544515987335,-0.10827621535779731,-0.11127349264594698,-0.04348046249487755,-0.11498898117783106,-0.0979433849534426,0.047323385829025906,-0.0381555518580619,-0.09396707634349981,-0.01661902366143681,-0.07943159433731327,-0.08138962955242761,-0.06938066136974409,-0.10017305800290834,0.032173308996090756,-0.008301215025494454,-0.023190792288636682,0.14713803750331042,-0.05236160292481368,-0.08611337887029294,0.07182502386583992,0.03209709024775763,-0.18730391035363975,0.015663440598412123,0.04349613726031626,0.01195918230141526,0.07078820270397061,-0.07876494775914847,-0.013470460227077853,-0.11842871527339281,-0.1498220847006279,-0.1377620622275234,0.09733956137378341,0.017496481457625175,-0.04972628087890058,-0.006061311927372138,0.0035279661052909895
